story 0.1971937 -0.037624605 0.20356923 0.123818055 0.21098408 -0.058343764 0.18121234 0.20317127 -0.09773781 -0.05293343 0.25138003 -0.2446631 -0.0015482424 0.021018462 0.100653134 0.001539695 -0.44009805 -0.028710552 -0.12432661 -0.1584145 -0.050768107 -0.042895745 0.051302154 0.10044355 0.08058925 -0.2790897 0.28840658 -0.024740469 0.06178018 -0.32193655 -0.16227658 0.23363148 -0.15193665 0.18778422 -0.016927347 0.04054375 0.19507797 -0.24185659 0.03564955 -0.10334305 -0.12167931 0.0057864347 0.092739746 -0.015771292 -0.16529553 0.054596804 -0.18536305 0.056196894 0.050772976 0.086411245 0.054049503 0.360686 -0.14797269 -0.04265379 0.08810718 0.06855121 -0.021370351 0.1533186 -0.094265215 -0.0959728 -0.034439962 0.096357346 0.08411383 0.059202064 -0.24644789 0.23208328 0.15774283 -0.034292143 -0.033364207 -0.08360522 -0.00402785 -0.30374748 0.014653789 -0.23231974 -0.0010445212 0.39378265 -0.12617742 -0.006084093 0.12099842 -0.06350045 0.2284223 0.1928867 0.03901563 0.21580917 0.2589697 0.12918422 -0.047356147 0.4599089 -0.50314796 -0.21909776 -0.09672758 0.07642432 0.0699282 -0.010610936 0.19503136 0.10731209 0.067573786 -0.11515625 0.42393172 -0.025976127 -0.13741668 0.048981834 -0.048844144 0.24342184 0.1437075 0.4569929 0.2183393 -0.30733415 0.20027216 0.054503717 -0.1597243 0.023607643 -0.015011718 0.136788 0.28898442 0.016905079 0.024557516 0.06554244 -0.006408062 0.18129814 -0.33737653 -0.106960595 -0.09256031 -0.14523104 -0.13408719 0.38056397 0.2155502 0.21410793 0.1344719 0.32373098 -0.3527274 0.25016254 0.20650873 -0.0768156 -0.00435638 -0.17850342 0.031200998 -0.2925867 0.1260478 -0.45769006 0.029938659 0.047896445 -0.057823323 0.008489263 0.21673954 -0.14760856 0.22909357 0.11549843 0.32637697 -0.030107131 0.2236908 -0.082517356 0.022951752 0.14694653 0.0664014 0.19595356 -0.20823683 0.17834291 0.062401056 -0.0037437233 0.27403626 0.078949995 -0.28360838 -0.073840894 0.30596024 0.10339499 -0.1482674 -0.051890288 0.070946895 -0.006495101 -0.24152072 -0.020252518 -0.14830688 -0.17000343 0.20285149 -0.030767564 0.13451774 -0.03591094 0.08656278 -0.34440893 0.03205516 -0.15724611 0.021365913 -0.31956178 0.020047937 -0.07809946 0.21236631 -0.02456953 -0.1581022 0.019616982 -0.082965 -0.16593029 0.18639252 -0.022274135 0.03799146 0.2707336 -0.042763393 0.23317741 0.1589682 -0.28211173 
scenes 0.028590124 0.22110811 0.26088163 -0.04205457 -0.0789158 0.07849879 0.29674745 0.29579878 0.09160312 -0.30952677 -0.4909902 -0.035085395 -0.07701913 -0.22202471 0.2507576 -0.28744215 0.14159727 0.11577642 -0.28356728 -0.020167578 0.3758749 0.09960512 -0.21545449 0.19171156 0.3955896 -0.13598356 0.25717443 0.061131187 0.10936195 0.08727029 -0.35148332 0.2879185 0.25138694 0.36302063 -0.12741077 0.12573433 0.2052071 -0.04215001 0.10919567 0.42537525 0.026176 -0.18664378 -0.02161523 0.14052649 -0.012042552 -0.05486672 -0.19282052 -0.05860571 0.007382737 0.14567536 -0.06667035 -0.07274801 -0.025333604 0.21362191 0.11965774 -0.24226692 -0.11372491 0.25948486 -0.1819459 -0.07732458 0.10583015 0.37301326 0.061083168 0.14824252 -0.25427267 0.043949693 0.30635414 0.09134431 -0.11602212 -0.30539873 0.009073428 -0.12102568 0.14607136 0.14643468 0.004588 0.15948549 -0.13815472 -0.13942581 -0.03348678 0.2503624 0.35651472 -0.23945424 0.18981852 -0.3186602 0.27844554 0.24084349 0.115801 0.45981237 0.12802829 -0.15893014 0.10494794 0.36388722 0.01800849 0.099235475 -0.082562245 0.20403941 0.14858219 0.09912709 0.016440287 -0.17595018 0.12456071 -0.15017138 -0.115072936 0.1264291 -0.103874624 -0.17209421 0.29197776 -0.34435597 0.35700366 -0.20532268 -0.17250824 -0.040722508 -0.13120969 0.046483103 0.1481778 0.05165986 -0.20710409 0.015106632 0.08551532 -0.2506128 -0.0060247853 -0.1271205 0.33536634 -0.3395628 -0.03959491 -0.3271898 -0.0098413285 0.09509095 0.3896929 0.3181995 -0.03649662 -0.5456772 -0.014237133 -0.019677088 -0.041347418 -0.14220715 0.24258357 0.16078767 -0.11143926 0.0793582 -0.21989547 -0.17496586 -0.31580907 -0.054231815 0.1269323 -0.19834927 0.06657263 -0.10027578 0.051457882 -0.16311486 -0.012205703 -0.042376038 0.1392506 -0.3469698 -0.16623482 0.04895638 -0.020704031 -0.1366667 0.029152142 -0.0058230925 0.27987832 0.51456267 0.166755 -0.35575828 0.32406655 0.3146606 -0.04027557 0.03623919 0.09225773 -0.34885466 -0.10586699 0.012720501 -0.38359752 0.0152294915 0.03934843 0.109954156 0.339578 0.0154862115 0.35686973 -0.15297157 0.0071143648 -0.10801043 0.19493744 -0.16802673 0.20451899 -0.36800256 0.26027215 -0.028908668 -0.36175802 -0.088645674 0.04707682 -0.083843395 -0.2631157 0.44083217 -0.08857923 -0.123014346 0.023308732 0.08561746 0.31868836 -0.25427812 
performance 0.43461806 -0.0373007 0.27682137 0.25671187 0.47254458 -0.08739095 -0.02028991 0.21992673 -0.39611426 -0.12759987 0.2362783 -0.23548728 0.18961783 -0.22239484 0.27898917 -0.22678831 -0.055169757 -0.1276155 0.034712303 0.09575077 -0.16115358 -0.37333015 -0.09820162 0.0046392684 0.23229088 -0.46358177 0.086454794 0.024366679 0.68764806 -0.32574552 -0.4470878 0.023936884 0.011603494 -0.2506571 0.11800469 -0.06366378 0.032513775 -0.18326972 0.18005946 0.4666187 0.14332846 0.35583824 0.14718561 0.11322163 -0.2598448 -0.12645862 -0.15610236 -0.30415246 0.46262446 -0.20109946 0.119869746 0.43387184 0.14035657 -0.20405306 0.32039914 -0.47504964 -0.2144636 0.16602513 0.34964296 0.18523356 0.016671978 -0.31565958 -0.08152334 0.06932591 -0.1740032 -0.03522008 0.09854485 -0.02300413 0.13703004 0.12524669 -0.10239203 -0.102077186 0.3363473 0.4352137 -0.21521725 0.0031668893 -0.2908473 -0.0066399924 -0.10745972 0.1526375 0.16393359 -0.23862284 0.062375657 0.16296701 -0.038529817 0.109745756 0.5229307 0.09682994 -0.026260523 0.31575218 0.119245425 0.081383556 0.15557864 0.34938204 0.031461753 0.38039404 0.044910353 0.28418112 0.20478998 -0.16597944 0.13335483 -0.05494022 -0.28566515 -0.28343627 -0.018570708 0.4277207 -0.009030166 -0.017600086 0.13527508 -0.080014646 -0.40672126 -0.2244973 0.34632128 0.1477895 -0.3797398 -0.020379618 0.06646725 -0.05258071 0.20162374 -0.049188755 0.14417157 -0.1661512 0.061251324 -0.14904602 -0.012029522 0.173194 -0.40088484 -0.19299345 -0.14872608 0.15297285 -0.09668069 -0.4666326 0.2783988 -0.04811323 0.05979699 -0.37607813 -0.21642219 -0.08971273 -0.08064346 -0.34014675 -0.14620574 0.031702712 -0.2889975 0.3834486 0.07460684 -0.12454349 -0.11370518 -0.06510531 0.35927323 0.062358655 -0.18403561 0.010542843 -0.050148673 0.16092879 0.051169973 0.08984881 -0.20669621 -0.24475443 -0.034531258 0.08973135 -0.22488713 0.26095718 -0.12972231 -0.33702585 0.12893441 -0.24359724 0.19590218 -0.1911406 0.11385908 -0.016624989 0.17354563 -0.2763551 0.048187934 0.3711808 0.042046364 -0.21297428 0.009087508 -0.40150154 0.2274514 0.15775228 0.09929797 -0.4184943 0.42967567 -0.52019674 -0.12557822 0.0752043 0.17029272 0.0065377555 0.09998874 0.24050733 -0.07464862 0.021326434 -0.0686031 0.1690227 -0.21919806 -0.0043622786 0.18541321 -0.00018371153 0.2446829 0.15815036 
effects 0.02035415 0.17217064 0.11282308 0.24971318 0.23554632 -0.19861864 -0.029579803 0.57717055 -0.23112924 -0.7972114 -0.324052 -0.42463762 0.18457814 -0.08557226 0.36948374 -0.24276276 0.40369314 0.15323202 -0.3770671 0.021962194 0.18904033 -0.008812574 -0.018933877 0.33549199 0.06554067 -0.14121154 0.448451 -0.14724192 -0.01035647 0.001385596 -0.072081715 0.3041328 -0.03917664 -0.056714427 0.09464623 0.00066078047 -0.1271146 0.01805515 -0.19254577 -0.18605605 -0.12722234 -0.08114739 -0.009079193 0.23825954 0.09880245 -0.38664487 -0.3661477 0.0999673 0.2892658 0.6170984 -0.071928315 -0.07037473 -0.40738773 0.44041768 -0.044984493 -0.29389995 -0.1971568 -0.14984505 -0.46204183 -0.05416843 -0.058499694 -0.015568828 0.08770675 0.14425474 -0.26250902 -0.12616798 0.4174474 -0.1839233 -0.50938433 -0.44537008 -0.069261774 -0.19388425 0.12595148 0.0014173973 -0.05549214 -0.34956732 -0.10185395 0.14803721 0.06806689 0.2857433 0.09064121 0.3687674 -0.10002574 -0.15954535 -0.019843848 0.19563355 0.004311262 0.3233945 -0.20319712 0.084620126 -0.16006893 0.15282683 0.09046184 0.10694429 0.17933887 0.31511372 0.0688034 0.53564376 0.13618538 0.10870358 0.04901717 0.0033452234 0.1274188 -0.42616284 0.5576189 -0.00691543 0.21337162 -0.042844903 0.22812717 -0.046423245 0.21925703 -0.096142106 0.04918565 0.010634699 -0.09244278 -0.12177396 0.22581658 0.028287489 -0.32022858 0.02211475 -0.46390182 0.026507579 -0.24294844 -0.47111115 -0.056598064 -0.09268175 0.052001413 0.09658512 -0.10750839 0.46114206 -0.1856932 0.02637778 0.28379273 0.02746271 0.21385656 -0.04177305 0.06512982 -0.04435911 -0.36858603 0.09629728 -0.2798844 -0.047875073 -0.32331166 -0.3679141 0.07954458 -0.28996417 0.13246591 -0.1249906 -0.14312452 -0.0055913106 -0.0034542186 -0.09776984 0.16188356 -0.33440083 -0.26752743 0.19296302 0.030552147 -0.3256745 0.196859 -0.01923703 -0.19774511 0.3828914 0.16476478 -0.10425228 0.1478874 -0.056247402 0.34920037 0.013718927 0.44253644 -0.123044394 -0.26596305 0.20530212 -0.19786587 -0.23757266 0.49002773 0.35365865 -0.061285906 -0.007960781 0.3236794 0.31850994 0.5288023 -0.16251914 0.11552508 -0.25899556 0.21383506 -0.17871216 -0.3019218 0.067220576 -0.30257887 0.1165311 0.08977244 -0.04123055 0.14997655 0.3105535 0.4562985 0.11649277 0.21481688 0.044551767 0.10231668 -0.03595691 
plot -0.13961172 0.082792774 0.26526132 0.16564596 0.18463032 -0.08636251 0.05140984 0.25683486 -0.017569678 -0.36365405 0.12968422 -0.25370985 0.010745055 0.073036455 -0.240654 0.12017826 -0.12016903 -0.046985045 -0.4060247 0.08567163 0.22115749 0.40368754 0.09703101 0.098102495 0.21159826 -0.25340825 0.56575507 -0.102686405 0.16330813 -0.13555183 -0.20426069 0.15759589 -0.19602388 0.20692953 -0.029980024 -0.06984351 -0.0029197154 -0.055706017 0.033460718 -0.30951837 -0.28417724 0.069671534 0.096309446 0.08915455 0.11048881 -0.15783669 -0.249062 0.31511188 -0.1678344 -0.029900787 0.09722533 0.2308282 -0.022772852 0.025504254 -0.030344438 0.044659413 -0.056836776 0.028275335 -0.032633778 -0.032575257 -0.049171124 0.09529575 0.08498687 0.024636628 -0.31241348 0.16666962 0.11965371 0.14914434 0.027958097 -0.26933008 -0.09138179 -0.047077637 0.31705746 -0.019602004 0.24910405 0.25723666 -0.20757209 -0.021341205 0.071839705 0.05379775 0.17172985 0.18354394 -0.04867536 0.20882562 0.27433977 0.08741279 -0.035263088 0.44551292 -0.35545012 -0.097540714 -0.09892905 0.019097073 0.13565373 -0.08327059 0.17833264 0.024796365 0.24229054 -0.015043128 0.19443102 -0.20564532 -0.0530375 0.14823343 0.13503498 0.08911832 0.074017346 0.46729034 0.21771571 -0.36868915 0.17189221 -0.10010364 -0.08735415 -0.20947619 0.0023623626 0.053874087 0.1780782 0.07882756 0.21413402 0.1294218 0.33064112 0.3976737 -0.3690516 -0.22678627 -0.17018604 -0.100603834 0.009833142 0.2315929 0.11478822 0.15377831 0.025801582 0.32593042 -0.31007442 0.19696662 0.08906009 -0.22749199 -0.17788653 -0.19057007 -0.04649136 -0.21293466 0.3311929 -0.21532486 -0.046617575 0.29538217 0.070319526 -0.19905184 0.016475057 -0.25534663 0.32666495 0.15634845 0.12732972 -0.11303627 0.11722384 -0.14754917 0.44483167 -0.1001808 0.002766589 0.21320479 -0.2256041 0.13722289 -0.21272205 -0.14145055 0.26985306 0.0959271 -0.09958675 -0.24636939 0.17815386 0.009950359 -0.18275528 0.1752201 0.26491386 0.05447227 -0.19207238 -0.16647816 -0.0021079206 -0.030199667 0.22387916 -0.27915123 -0.13044867 0.024243727 -0.07884668 -0.39579195 -0.068425745 -0.19610554 -0.06677104 -0.2196975 -0.04008665 -0.09340973 0.194701 0.0059229312 -0.22094995 0.218716 0.25205854 -0.30324286 0.23832335 -0.14241984 0.14276813 0.017651273 0.04680002 0.14609502 -0.003005774 -0.37460157 
scene -0.25364226 0.16263612 -0.020368047 0.046160802 0.055799197 -0.28308135 0.14311711 0.13987708 0.2433898 -0.22394186 -0.4003758 0.112978816 0.0076052994 -0.11115887 -0.15736777 -0.08534867 0.023828223 -0.07289104 -0.04403057 -0.07702409 0.018830337 0.028281342 -0.1530803 -0.045217384 0.13002416 -0.3506619 0.17913206 0.15159097 0.013614812 -0.123215705 -0.30467287 0.19054069 0.3531934 0.4544357 -0.524123 -0.13621853 0.2545722 -0.15259089 0.20521213 0.7004636 0.020446703 0.025536198 0.1100934 0.21173558 0.15604712 -0.04713125 0.072685875 -0.166958 -0.03128371 -0.046443585 -0.23655972 0.21030454 0.0044627325 0.07237086 0.29456994 -0.1615166 0.12789932 0.37390378 0.057275396 0.0812549 -0.28473347 0.2741159 -0.074948706 0.07994338 -0.32189518 -0.22976859 0.04178483 0.01916467 -0.20583905 -0.08720592 0.091373526 -0.30933142 -0.053944778 0.41995782 0.086866856 0.26984698 -0.2163648 0.011800552 -0.06515448 0.1825743 0.45893854 -0.10914173 0.23446828 -0.10776447 0.07511431 0.072938316 -0.001978566 0.24746087 0.18371217 -0.094078235 0.27157304 0.33614007 -0.022302685 0.22415501 0.06704648 0.2559009 -0.020207264 -0.11193026 -0.004355399 -0.0068497714 -0.013689596 -0.3019726 -0.17392951 -0.1296968 -0.17769137 0.043699704 0.37839162 -0.11910127 0.39759338 -0.20416649 -0.49042803 -0.11999132 0.010691981 0.15526724 0.121143565 0.14072423 -0.03235749 -0.3463218 0.5201603 -0.30507055 -0.024594314 -0.11850861 0.21215941 -0.14703 -0.2572947 -0.44016075 0.04994645 -0.20489483 0.18645221 0.2512095 -0.03469547 -0.39463633 -0.06340971 -0.08851653 -0.121387415 -0.2770141 -0.07499232 0.18198188 -0.01609188 0.033170346 -0.35839018 0.10009467 -0.03203724 -0.14365734 0.08799291 -0.16086382 0.07565963 -0.13462394 0.16854036 -0.025902601 0.2145971 -0.07349703 0.17431346 -0.21475111 0.13280688 -0.009402543 -0.09955026 -0.19136837 -0.014202322 0.20894393 0.37486035 0.25973174 0.028505202 -0.27454954 0.2830209 0.18021426 -0.10076394 -0.17140594 0.15021577 -0.12007929 0.19672759 -0.12421778 -0.24568763 -0.08456697 0.03205366 0.24809885 0.4935964 -0.22569832 0.23634294 -0.21199746 0.06687149 -0.17486484 0.19707152 -0.14604257 0.028422946 -0.11318778 0.17254362 -0.18889856 -0.11293927 0.185824 -0.15211338 0.1259302 -0.03941967 0.21224798 0.10397015 -0.027332434 -0.09461543 0.05685609 0.18539266 -0.29338014 
performances 0.29812545 0.077825405 0.32764497 0.22294965 0.0035059743 0.23759724 0.0108789345 0.05981904 -0.44621325 -0.16853902 0.29114237 -0.2791537 0.12198654 -0.10927035 0.5454469 -0.35475352 0.025424639 -0.17327346 0.15652199 0.1434933 0.06088956 -0.31600222 -0.2743442 0.17281632 0.21130644 -0.14995791 0.14423624 0.06296346 0.5144409 -0.008666529 -0.4044541 0.2020588 0.14477997 -0.17308176 0.28169957 -0.08126286 0.06757649 -0.079216436 0.20530966 0.4823738 0.034092493 0.26749054 0.013285281 0.074327156 -0.13251622 -0.1541786 -0.36089322 -0.30884102 0.25359353 0.29323533 0.23862559 0.28330013 0.07173976 0.023787849 0.20837139 -0.3332411 -0.5490528 -0.08861192 0.104310855 -0.11532589 0.07905795 -0.27000302 0.040023964 -0.09952249 -0.39074963 -0.0074420157 0.2075208 0.14837304 0.08546204 -0.19859722 -0.023338716 -0.29662594 0.23580536 0.33020452 -0.24813117 0.024975061 -0.35096565 -0.09966549 0.26186383 0.20666946 0.08955814 -0.19296725 -0.15933666 -0.083799906 -0.041545555 0.27646694 0.47231117 -0.020909116 0.18271244 0.13750058 -0.11565741 0.321651 0.14047275 0.20052053 0.17343304 0.4630019 0.027129881 0.32032102 0.2535082 -0.26520726 0.5230551 0.15270917 -0.0024953773 -0.32173938 0.24059345 0.38127965 -0.117579676 0.1913421 0.14582977 -0.20173083 0.03709633 -0.06870874 0.16274859 0.21919152 -0.091217145 -0.060993355 0.33264348 -0.16309343 0.11360429 0.058598455 -0.3737099 -0.09831538 0.1651839 -0.1429927 0.1033788 0.20971553 -0.107831106 -0.1865855 0.10208242 0.27165756 -0.06651496 -0.36503428 -0.11670512 -0.1516997 0.22284517 -0.118827716 -0.11826798 -0.34173366 0.06917281 -0.046718966 -0.25440958 -0.21331139 -0.21333514 0.3910425 -0.028206972 -0.20375031 0.07160316 0.11063868 0.28766385 0.07232513 -0.09836092 0.042641684 -0.0048022754 0.11189335 -0.15289769 0.1413593 -0.18205498 -0.17493042 -0.0514259 0.07887827 -0.040418796 0.4016729 0.21653335 -0.6695948 0.046867456 -0.15468557 0.18023162 -0.18156743 0.4036725 -0.283612 0.19110422 -0.12853311 -0.109960414 0.12653075 0.30493408 -0.15989 -0.0968099 -0.21798699 0.16864586 0.1304696 0.14763413 -0.089638576 0.29380882 -0.47432667 0.14006014 -0.2172735 0.33251435 0.1387213 0.005437975 0.1262768 0.26124144 -0.021574188 0.013344198 0.2609818 -0.3780877 -0.015062116 0.18679538 -0.047726743 0.20782998 -0.04462408 
comedy 0.39224017 -0.15615156 0.25869453 0.03257192 0.45868275 -0.54464495 0.18571368 -0.19091317 -0.08714034 -0.1973612 0.13049948 -0.26600364 0.036713637 -0.115128174 0.33575052 -0.0842697 0.16952896 -0.19635898 -0.09261015 0.16711086 0.30796948 0.32947108 -0.024602942 -0.013885564 0.382192 -0.05052078 0.16572082 -0.18086344 -0.06120939 -0.2826535 0.008557854 -0.02303808 0.18777826 0.1833378 0.3556486 0.0052217455 0.49566892 -0.19683273 -0.048957642 -0.007679392 0.15869214 0.10844354 -0.035191633 0.13999207 -0.13356128 -0.24344712 -0.12930211 0.108028226 -0.20568612 -0.09343593 0.07097202 0.04784583 -0.17007424 0.122649565 0.16598207 -0.24642764 -0.2271584 -0.2704975 -0.20259014 -0.14467748 0.0075720977 0.28534022 -0.24342835 0.20141228 0.27801204 -0.28790313 -0.22845863 0.1649585 0.06160009 0.05511996 0.20357688 -0.26136467 0.17728876 -0.12674162 0.12972037 -0.2389636 -0.1352054 -0.015522578 -0.002290907 -0.28907108 0.33568627 -0.21808283 -0.0025884793 0.07651731 0.12792885 -0.07846705 0.10408651 -0.06882067 -0.13273834 -0.190667 -0.114085756 -0.22388329 -0.0515274 0.32943717 -0.010549845 0.18872358 0.14353144 -0.20210324 0.3456318 -0.08606636 0.29897627 -0.10779105 0.2963359 0.054627895 0.11639319 0.18475583 0.2739852 -0.29970342 0.16891977 0.12792113 -0.018499793 -0.053237367 -0.041891173 0.1102877 -0.06703234 0.07651073 0.06832008 -0.067538455 -0.052417453 0.2753665 -0.46334493 0.08246907 -0.2033802 -0.014511909 0.31157023 0.08889141 -0.10399133 -0.54134905 0.11728802 0.0902413 -0.20863406 0.19120522 -0.0015751589 -0.030164035 -0.15348049 -0.12599404 0.12201958 0.2709091 0.22692172 -0.40409917 -0.36608884 -0.21245691 0.37934837 -0.05477232 -0.0127377575 0.2372297 -0.16669345 -0.13342868 0.17820477 -0.18001175 0.3187058 0.17167199 -0.025021547 0.09505632 -0.20641132 0.41352773 -0.0074606296 -0.027811326 0.17909072 0.09904642 0.39220586 0.08895862 -0.11034131 -0.08299595 0.055705186 0.061974417 0.04144291 -0.01799541 0.15662687 -0.09395837 0.09625975 -0.14665979 0.053163175 -0.31415296 0.019457579 0.058498584 -0.033117164 -0.5620949 0.35368034 0.083069496 0.09495416 -0.26351407 0.35636565 -0.0951228 0.29506537 0.16210134 0.39461744 0.21022011 0.11880033 -0.016320202 -0.003403135 -0.34442654 -0.03189111 0.281166 0.4523133 0.00013432141 -0.12279724 -0.21616554 0.28483987 -0.23740831 
moments 0.094119 0.2061367 0.24431704 0.12219214 0.15572262 0.09825931 0.2806602 0.07205938 0.0041139224 -0.22017069 0.0032514879 -0.01477813 -0.12392317 -0.512642 0.17556189 -0.022597747 0.24770248 0.10046656 -0.26666394 0.11192706 0.13210641 0.07592039 -0.0792729 0.099159926 0.24917243 -0.04698797 0.2732183 0.12025758 0.16145392 0.48198435 -0.41172108 0.31167713 0.37851998 0.1987888 0.042689636 0.2918094 0.47747517 0.0417463 -0.123396136 0.31656557 -0.19776508 -0.12102485 0.12303222 0.23626441 -0.16336423 -0.13888925 -0.04995058 0.013995949 0.14147086 0.044828724 -0.093127586 0.09414688 -0.09970078 0.18800627 0.39598343 -0.27672172 -0.22073703 -0.039853107 -0.2622755 -0.026926054 0.32274312 0.61039954 0.029287778 0.23387411 -0.29802087 -0.02343448 0.3034528 0.17610785 0.13327299 -0.15191822 -0.17529221 -0.2865141 0.2255059 0.22644436 -0.0117523605 -0.09620151 -0.30600706 -0.10180864 -0.15624942 0.041754443 0.46199068 -0.13343874 0.020705026 -0.27305284 0.5040299 0.14745948 0.0108260345 0.29468516 -0.07884633 0.069810316 0.104240365 -0.1542307 0.4172771 0.2820436 -0.14529744 0.15503196 0.10882322 0.21210219 0.13674028 -0.045003466 0.14794102 -0.14472204 0.015473565 -0.0062382882 0.13349509 -0.14782903 0.10465143 -0.15598777 0.1886498 -0.5949344 0.041153964 -0.10420239 -0.19837174 0.008481507 0.044562403 0.11933823 -0.017274778 -0.049338322 -0.087184854 -0.09415258 -0.0148037495 -0.14816253 0.3068387 -0.21262386 0.30365258 -0.2579785 -0.14463052 -0.008185999 0.34927744 0.22767176 -0.3739388 -0.5671547 0.008974774 0.104584895 -0.0059098983 0.083241634 0.14206871 0.26618734 0.045847602 0.23236668 -0.044823147 -0.4480628 0.033756863 0.25746337 0.011835384 -0.14789452 0.25022307 -0.03947994 0.16551232 -0.17867185 0.3840354 -0.07463282 0.10693095 -0.40023196 -0.040445562 0.018013591 -0.25514457 -0.19741476 -0.022219133 0.09318944 0.3505509 0.43720067 0.2531798 -0.18620922 0.08682203 0.020060254 -0.14576101 0.15299651 0.30438113 -0.2599536 -0.115733206 -0.08880201 -0.25274295 -0.14897609 -0.14200382 0.3909499 0.20325918 -0.0104382895 0.48725405 -0.17935015 -0.0349545 -0.16397034 0.22244549 -0.15025689 0.20578466 -0.1411183 0.6062406 -0.0642312 -0.49177483 0.06739284 0.0076466817 -0.032993574 -0.22461504 0.122807726 -0.1918533 -0.19685267 0.19416194 0.05864927 0.18379065 -0.1959717 
cast 0.21174219 0.14350125 0.23655763 -0.109545 0.06226683 0.029145107 -0.05325901 0.1862825 -0.5709346 -0.3479006 0.21803609 -0.0636442 0.33024046 -0.101540044 0.22134075 -0.10631257 0.2898347 -0.11700735 -0.112832256 -0.041468773 0.0045545944 -0.1428551 -0.20606717 -0.04360015 0.12336132 0.101431474 0.24769652 -0.27442497 0.2790424 -0.047394812 -0.4152942 0.17575827 0.27441445 -0.13471796 0.38618776 -0.1226778 -0.1987759 -0.35130224 0.15890312 0.032829523 -0.0049751583 0.12432492 0.024790727 -0.09551779 0.13097842 0.23634945 -0.25243136 -0.24177401 0.2626777 0.3207659 -0.10605987 0.014269182 -0.06794212 0.21532725 0.44554493 -0.1352361 -0.3975951 0.16681091 0.22727895 0.08815144 0.17932224 -0.074123025 -0.028241314 -0.2987604 -0.1805901 -0.22318865 0.009686524 0.05454784 0.17782733 0.076020025 0.11958464 -0.31396827 0.29690674 0.06898187 0.167953 0.29184836 -0.2643287 -0.21139131 0.33079407 -0.015201703 0.09640725 -0.03158218 0.037079725 -0.054006048 0.15472539 0.13690056 0.21439326 -0.093971826 0.050127823 0.17066187 -0.012447227 0.487207 -0.040729243 0.1667119 0.09573763 0.23099765 0.02420489 0.14131068 0.26528057 -0.047302227 0.3139843 0.02516187 0.061738413 -0.3874209 0.27529502 0.27046043 -0.21651594 0.23888499 -0.01856482 -0.015696995 0.042722628 -0.10959363 -0.051621735 0.014788897 0.14108047 -0.14188871 0.08271388 -0.111443065 0.059489675 -0.014896648 -0.2085992 -0.22420055 0.16577028 -0.20825815 -0.21358007 0.25400043 0.029236315 -0.21286994 -0.10794418 0.13571455 -0.13450721 -0.22024648 0.10934692 -0.19881846 0.04705842 -0.2977704 -0.19204997 -0.15848172 0.39543116 -0.23932286 -0.12521097 -0.06221839 -0.012104536 0.17606188 -0.24844278 -0.46866915 0.30426767 0.10205344 0.1065355 -0.0850626 0.06728024 -0.13258326 0.27758425 0.20673469 -0.2868968 0.10250994 -0.073101096 -0.24973562 0.1334913 0.026506335 0.19276525 0.20715222 -0.041301396 -0.3826597 -0.12072508 -0.12448473 -0.0584411 -0.26524818 0.16878891 -0.16818689 0.16332361 -0.179485 -0.017705083 0.15216488 0.36168787 0.19028537 -0.26351017 -0.28831795 0.1215769 0.3750276 -0.047035698 0.21699809 0.1841831 -0.3114305 0.07588753 -0.25433463 0.20834514 0.35757494 0.26963237 -0.21940011 0.20804636 -0.27327868 0.1781734 0.16018441 -0.117318824 0.12396397 -0.06906604 0.17905264 0.06269289 -0.16955075 
actors 0.15391253 0.26369062 0.28114974 -0.06990068 -0.13820131 0.087002315 -0.12821917 0.28501287 -0.35697693 -0.3885189 0.50661355 0.14479375 0.09750675 -0.20104572 0.5298457 -0.32402393 -0.07268058 -0.31653735 0.020544803 0.033658348 0.21404251 -0.3090118 -0.22623198 0.43159494 0.11221218 0.06137482 0.38188714 -0.31075352 0.42813003 -0.07095603 -0.24610864 0.42616743 0.24984547 -0.19764163 0.4898279 0.012016499 -0.086086996 -0.05074873 0.25967237 0.1651147 0.024576383 -0.05338921 -0.12713146 0.11889305 -0.07250451 -0.11007744 -0.13026515 -0.32181904 -0.0049809837 0.22519174 -0.004716132 -0.1520754 0.08298459 0.15348466 0.17859054 -0.34579366 -0.047239237 -0.062305808 -0.21684805 -0.08739866 0.32168612 -0.1942624 -0.021097766 -0.26625896 -0.27620322 0.014710709 0.008334965 0.22376215 0.23926748 -0.12705097 0.07767061 -0.23906183 -0.029153699 -0.027550284 0.048422985 -0.029311517 -0.02993888 0.02395208 0.14669503 0.11439445 -0.1431435 -0.06136528 -0.09617594 -0.08503642 -0.13645776 0.376773 0.40474832 -0.18018289 -0.040438578 0.021573639 -0.20829107 0.25111774 0.10954823 -0.018917743 0.007579839 0.21338043 -0.045982435 0.17630975 0.26418546 0.015514829 0.5329778 0.024955617 -0.06737666 -0.30524662 0.25598267 0.0069066174 0.10493873 0.1314064 0.15724449 -0.23024654 -0.03505309 -0.13272925 -0.042476576 0.071497776 0.1317778 -0.12913401 0.47091946 0.0004934423 -0.023381662 -0.16666971 -0.42686877 0.16571283 -0.05085282 -0.27683622 0.251844 0.27450413 0.08799567 -0.2589114 -0.21353927 0.09523775 -0.0514925 -0.28555322 0.09739746 -0.32194683 0.17172207 -0.11623647 -0.1667817 0.04419069 0.2859056 -0.12173549 -0.36914024 -0.2837051 -0.02957562 -0.09023674 -0.16368708 -0.28279105 0.13374011 0.12526412 0.25409767 0.0039022083 -0.08691725 0.06428287 0.29283103 0.16310693 -0.14158249 0.04629083 0.18254183 -0.34612793 0.12592663 -0.09123801 0.22681396 0.08760914 -0.094208576 -0.56840897 0.123702765 0.080423236 -0.080272496 -0.3181632 0.1531323 -0.5065886 0.3217772 -0.09813822 -0.48409376 -0.07465142 0.05788706 -0.0044893757 -0.2717058 -0.17148747 0.095741935 0.25527027 0.04244703 0.17167012 0.06315813 -0.09864932 -0.031691268 -0.3131115 0.10618038 0.3386989 0.1629671 -0.19234544 0.3787981 -0.028493568 -0.1645555 0.33476046 -0.111174196 0.0992187 0.013319921 -0.09075205 -0.01817997 -0.16361757 
script 0.17373511 -0.08943932 0.20872746 0.13642068 0.16533299 -0.07999954 0.13495491 0.16138838 -0.20166473 -0.18816063 0.28835887 -0.32083094 0.07251969 0.118444435 -0.055511277 -0.14995813 -0.06048465 -0.23699078 -0.3449372 0.1324561 0.13885634 0.2977071 -0.11814286 0.13511074 0.024796747 -0.106538385 0.30319387 -0.18244483 0.22252144 -0.17269604 -0.22712497 0.062312767 -0.02914005 0.07849197 0.3632455 0.031264998 -0.2801868 -0.28683522 -0.12013078 -0.14314982 -0.051896617 0.012724975 0.17114721 -0.17166524 0.00077733817 0.0684161 -0.16253296 -0.12880993 0.08558613 0.13609292 0.0061888616 0.23079816 -0.25300503 0.016276853 0.041262988 0.012229165 -0.32448834 -0.0023696013 0.18319084 -0.059572935 0.116825245 0.13576932 -0.16333158 -0.067820646 -0.2599463 -0.061219353 0.21418463 -0.06466704 0.24226132 -0.02975373 0.10771285 -0.34160563 0.31636122 -0.021397753 -0.12562978 -0.20277326 -0.16172257 0.056784574 -0.03863563 -0.12414916 0.45478028 0.18443166 -0.055722002 0.19648893 0.02844674 0.09641942 0.039677136 0.02932858 -0.14905141 0.018965693 0.033555835 0.013877568 -0.3185358 -0.020183178 0.016223514 0.5052743 0.07229446 0.12928806 0.48828533 -0.22695662 0.11732559 0.19595622 0.14975417 -0.10296951 -0.0079446 0.22117363 0.29981402 -0.15495381 0.082144625 -0.14168648 0.20075683 -0.060778745 0.024668094 -0.17574292 0.14570569 -0.027775815 0.33656844 -0.14995228 0.11163873 0.59516233 -0.5055346 -0.14807191 -0.17295446 -0.24308097 -0.0215764 0.41165176 0.3174778 -0.08264439 -0.042833824 0.42274728 -0.29362282 0.0288392 0.016917393 0.23139124 0.11099587 -0.15064825 0.28403026 -0.2508578 0.08401297 -0.0779836 0.009236534 -0.05099749 0.10639868 -0.1037761 -0.07288938 -0.3474984 0.34999514 0.09879529 0.5186727 -0.056761805 0.087774895 -0.3335585 0.105409324 -0.13021961 -0.025552325 0.092889965 -0.2647158 -0.03785508 0.03000556 -0.1898112 0.19405857 -0.16299105 0.09351931 -0.4594552 0.2537378 -0.053476382 -0.05736047 -0.17732844 0.07729232 -0.15863499 0.08727066 -0.06425668 -0.02266796 0.27604315 0.038282737 0.15797429 -0.077618964 -0.29918775 -0.120116465 -0.09324584 0.029573513 -0.37985507 -0.05649154 -0.09791175 0.1773947 0.10213998 0.22162852 -0.13810529 -0.04154897 0.1208872 0.04933201 0.056565244 -0.07319144 0.06310422 0.10012371 0.1952773 0.0774391 -0.010559883 0.24246663 -0.3644439 
actor 0.37372234 0.24299638 0.17109455 -0.010030135 0.49442068 -0.18983495 -0.14576729 0.20290884 -0.4247181 -0.4587507 0.63534164 0.24548776 0.003163263 -0.30830804 0.41304323 -0.31738433 0.12332891 -0.26863846 -0.23024999 0.045419607 0.12825656 -0.45826742 -0.27060008 0.13558167 0.0997859 -0.31333742 0.28931335 -0.25751948 0.67420256 -0.4282077 -0.21414053 0.34215108 -0.030333098 -0.12810329 0.2207888 0.10893209 -0.35976842 -0.37536886 0.14368972 0.21945986 0.1069851 0.037818894 0.15173046 0.017063597 -0.15131594 -0.04314019 0.08661344 -0.37223053 0.09234558 -0.047890004 -0.0640249 0.21370676 -0.15114427 -0.19678615 0.24830961 -0.2676743 0.19554858 -0.009939864 0.010053374 -0.019141654 0.08278639 -0.19934618 -0.075815044 -0.15064183 -0.046285134 -0.124793164 -0.1538676 -0.015956042 0.40768507 0.14813985 0.069079 -0.17819645 -0.11567451 0.31749332 0.029588707 -0.054251447 0.07021543 0.26355737 -0.055020597 0.017485198 0.025358764 -0.21254839 0.0319846 0.15764384 -0.19432813 0.23174627 0.39336434 -0.20689693 0.0031858988 0.16476364 -0.06926505 -0.17767489 0.367447 -0.013802982 -0.049921297 0.025684305 -0.23572205 -0.08982197 0.076135665 -0.05562853 0.35433304 0.06455041 -0.23783103 -0.44225344 0.12316052 0.3672685 0.3295597 0.0027344858 0.34521502 -0.120028295 -0.3544652 -0.2375555 0.18547763 0.20896436 -0.24345371 -0.17332955 0.31195575 -0.227354 0.27832112 -0.17006645 -0.002180315 0.05251084 0.09240091 -0.12483625 0.24051873 0.34688008 -0.083971284 -0.30617422 -0.5592734 0.113341555 0.13845819 -0.28582117 0.28705445 -0.03759079 0.20810816 -0.46944258 -0.18795967 0.15540186 -0.042833824 -0.4410727 -0.27928296 -0.31405783 0.1790019 -0.099061854 -0.2827311 -0.09107984 -0.046070818 0.10059264 0.16274631 -0.07784616 -0.09510035 0.17819777 0.26311317 0.1442249 -0.02967891 0.15829124 0.048989218 -0.2855737 0.29066414 -0.18917304 -0.17814653 -0.16028193 -0.24677809 -0.23658623 0.12090662 -0.34097078 -0.36285284 -0.38209492 0.02193424 -0.41365883 0.30814704 -0.4152154 -0.27951518 0.124307305 -0.0022759626 -0.028244073 -0.15006433 -0.06498491 -0.031080028 0.14147267 -0.047852788 -0.07886716 0.17467603 -0.23566501 -0.15978585 0.15621889 -0.07102785 0.2928191 0.36988908 -0.21901295 0.041623082 -0.014301805 -0.058405135 0.34360465 0.2605632 0.024947556 -0.20720267 0.12769191 0.18538728 -0.050938822 
director 0.34185278 -0.08802556 -0.0015711262 -0.1000325 0.28156286 -0.2511496 0.19304517 -0.06596679 -0.5240329 -0.21725245 0.36922538 -0.38697383 0.007707981 -0.00052068126 -0.011484684 -0.1481403 0.05384843 -0.29547253 -0.27884614 0.03414598 -0.19126578 0.24031578 -0.15215065 0.38986868 0.25536773 0.19570588 0.33202934 -0.2625979 0.30970153 -0.36282268 -0.17312355 0.1485819 0.2966017 0.24633372 0.19740511 0.4516186 -0.07313397 0.008070054 -0.08043811 0.37208045 0.22655159 -0.46453193 0.28869793 0.04409014 -0.13767113 0.15775006 0.039825518 0.07912037 0.22439353 0.07621879 -0.023009965 -0.12481142 -0.03710427 -0.17121616 0.011913796 -0.17524904 -0.050282534 -0.047427006 -0.265816 -0.05539549 0.4254047 -0.12313847 -0.12740605 0.013683039 0.054886326 0.0008903266 -0.21572775 -0.014012636 0.038912017 0.086126804 0.0513518 -0.5491248 0.07548439 0.23715621 -0.28450322 0.019241873 0.056188744 0.099263966 -0.0088163465 -0.003174951 0.22948143 -0.014047161 -0.009886535 -0.08780437 0.039682157 -0.25904298 0.015681742 0.018800324 -0.3929921 -0.2735901 0.09959439 0.033223465 -0.15407379 -0.4664962 -0.14576684 0.06872898 -0.31290638 -0.15511708 0.5340942 -0.057397164 0.43875533 -0.044333857 0.02946371 -0.050805774 -0.12578271 -0.10232548 0.21613605 0.023164205 0.2770457 -0.10177828 -0.074638054 0.17903416 -0.12423454 0.1832009 0.03914481 -0.15790188 0.32930323 0.012424059 -0.028133495 0.20279442 -0.17713358 -0.27023283 0.07746479 -0.09145437 -0.15541758 0.22854795 0.22073998 -0.10569097 -0.4929409 0.19146115 -0.24116911 0.27320737 -0.099450834 -0.07969791 0.106573 -0.07396863 0.14073335 -0.024628222 -0.10789235 0.27090633 0.10817604 0.040034994 -0.1594431 -0.1646703 -0.035614565 0.0128163 -0.027587075 0.34461504 0.12592402 -0.45140892 -0.08078439 0.09336694 0.03579782 -0.07578103 -0.18627083 -0.05577971 0.17916442 0.067603745 0.64602625 -0.023915352 -0.07331548 -0.3668765 0.2460998 0.10637961 0.10273704 -0.28480825 -0.008509131 -0.508524 0.07562533 -0.17679311 0.02821483 -0.2580174 -0.011689546 0.22309053 0.16348717 0.04820602 0.08933374 -0.21229336 -0.0803423 0.12971339 0.16862261 -0.1624966 -0.1163396 -0.26057953 -0.01980022 0.20029394 0.19624504 0.23876639 0.3180561 -0.22241357 0.24444115 0.18252224 0.24801497 0.34199694 0.36794686 0.18260138 -0.14748038 0.053908493 0.15760016 -0.019399753 
music 0.15585534 0.3748581 -0.1467147 0.014608474 0.347483 -0.3693444 -0.04537401 0.3589578 -0.03943188 -0.05325379 0.13583553 -0.17137471 -0.17263746 -0.33672768 0.4116361 -0.124481745 -0.027294178 0.040399425 -0.0517252 -0.3574592 -0.17649953 -0.119668394 -0.006109713 0.10399367 0.17333362 -0.27620354 0.33592963 -0.29238814 -0.02372011 0.19256008 -0.02587423 0.030527126 -0.2796249 -0.07710784 -0.011974943 0.21690747 -0.097889386 -0.21655606 -0.0017777676 0.22374786 0.045482326 -0.12027476 0.3345892 0.14623718 0.14977953 -0.011103875 -0.24823318 -0.011889758 0.07691152 0.30181888 -0.0578981 0.016871244 -0.1931499 0.15253496 0.0075217793 0.22353919 -0.1268514 0.02571343 0.14045437 -0.08759718 0.058840673 0.00767797 0.028404571 -0.23886769 0.024942849 0.26153883 -0.10454402 -0.12150078 -0.12874497 0.04249035 -0.021650506 -0.23305874 -0.06865577 0.24804646 -0.06367519 -0.04988622 -0.12433772 -0.08333206 0.05227049 -0.031323913 0.30200958 0.12733182 -0.22597463 -0.12364237 0.025685988 -0.02239885 -0.023298383 0.04023494 -0.42288256 0.18316874 -0.07356658 -0.049506105 -0.40025416 0.37195662 0.004610202 0.38818392 -0.17990547 0.21638994 0.3476753 -0.17816603 -0.025757547 -0.059464592 0.017856056 0.09704928 -0.00032489919 0.101988584 0.17898616 0.029346524 0.02251667 -0.29481748 0.15531166 -0.24936819 0.283866 0.017886946 -0.16260307 0.18968403 0.15526895 -0.06457372 -0.32807785 -0.11653793 -0.32255918 0.15466677 0.12009037 -0.24544309 -0.40421674 0.013398581 0.39558747 0.40734273 -0.13121897 0.40976536 -0.04035348 0.33304524 -0.06930621 -0.13051082 -0.041743543 -0.10620722 0.041109238 -0.096190244 0.03307638 -0.12124509 -0.34372896 0.0390228 0.08255603 0.105359875 0.38311374 -0.028059304 0.1899186 0.09622149 0.24022602 0.21842964 -0.26797342 -0.1203076 0.084092 -0.40151674 -0.23749486 0.07790173 0.13652816 -0.10582141 0.26284206 0.12258318 0.35569894 0.117531784 0.23715091 -0.37945527 0.25002688 -0.07495214 -0.022074409 -0.4298367 0.5051228 -0.27193412 0.28784555 0.12780836 -0.15486665 -0.30059147 0.040039357 -0.04342199 0.07472947 0.23398735 0.28462222 0.0839534 0.5253797 -0.15481573 0.40278882 0.008237835 0.35060948 0.17122035 0.29493415 -0.025642155 -0.023244733 0.13274725 0.2608414 -0.22155172 0.30961344 0.14901191 0.07544737 -0.4134069 -0.1833046 -0.00050746975 0.23400928 -0.18503205 
score -0.026549835 0.20564675 -0.13144152 0.2345061 0.7283246 -0.19204378 -0.07574534 0.57195646 -0.15545245 -0.0015159011 0.145184 -0.37898514 -0.23745823 -0.49342415 -0.07764942 -0.038055044 -0.12229048 0.13455643 -0.19460382 -0.17509852 -0.1972017 0.15363471 0.073509 -0.13802971 0.19524066 -0.09824308 0.25114852 -0.62029517 0.33086288 0.1344542 0.14708704 -0.07612579 -0.31992486 -0.029992968 0.15455493 0.12291724 -0.30169708 -0.5709668 0.14386484 0.2840508 0.022338912 -0.07954816 0.4908051 0.23754714 -0.109215595 -0.18279372 -0.24467021 -0.040442266 0.1742812 0.5544498 -0.10536435 0.2921268 0.0029884002 -0.065608084 -0.0059310407 0.26192346 0.036721267 0.12159462 0.11847097 0.028289272 -0.07538706 -0.124943264 0.000903763 -0.107624374 -0.071241796 0.1716635 -0.253907 -0.23319781 -0.005058955 -0.15557757 -0.02103301 -0.41503945 -0.04439062 0.76008606 -0.11574132 0.013814558 -0.37379938 -0.30908248 0.266681 0.21241285 0.19467923 0.14136955 -0.1977052 -0.146098 0.021159578 0.005654535 0.12638085 0.025372794 -0.5213516 -0.0027961214 0.017007966 -0.13004467 -0.2527942 0.32426092 -0.051726125 0.20649226 -0.16508752 0.028221866 0.20154212 -0.070765026 0.2758349 -0.08924806 -0.026960747 -0.078785084 -0.026761219 -0.011767902 0.42379344 0.025371943 -0.026834978 0.019692058 0.17079158 -0.007659839 0.2985189 0.06950742 -0.14863446 0.09679563 0.18407843 -0.09111259 -0.26790133 0.3375138 -0.2854981 -0.0052503054 0.21915874 -0.14787892 -0.4387211 -0.25972152 0.2720648 0.16228889 -0.054729015 0.6955088 -0.070042215 0.42056665 -0.045690935 -0.17218341 0.10021699 0.100683056 0.24752755 -0.009041354 0.2789541 -0.24369459 -0.15177529 -0.044025436 0.04667816 0.26016143 0.19611426 0.04044226 0.3454764 -0.08700075 0.19733319 0.15997604 -0.016028445 -0.05286881 -0.10983414 -0.36744136 -0.31356764 0.2706786 -0.3987858 0.11489065 0.121723846 0.18266335 0.32017955 0.1329476 0.16889971 -0.5967585 0.22574286 -0.033310317 0.31254303 -0.39242637 0.56990916 -0.015919726 0.43968847 0.028773746 -0.15595499 0.2679513 0.04471521 0.03410608 0.1503154 -0.2321416 0.32224208 0.26338553 0.62363535 -0.26619276 0.5652503 -0.31748012 0.3072229 0.005464008 0.17136702 0.03800579 0.063664846 0.40213585 0.50044465 -0.33933413 0.31483072 0.13121565 -0.12940559 -0.41023633 -0.1628324 0.17981581 0.4678559 -0.38018212 
direction 0.3637724 -0.04563134 0.06281406 0.15122226 0.3966912 -0.22963515 0.047616474 -0.005864349 -0.53036964 -0.1523779 0.33240265 -0.3872802 0.12934087 0.031108022 -0.06833824 -0.19451325 0.12714995 -0.3906656 -0.1281213 0.008882082 0.16299272 0.1924301 -0.4126803 0.113401756 -0.0014849743 0.19228892 0.35046062 -0.32062224 0.29186693 -0.29985487 -0.30551735 0.10428785 -0.021325676 -0.14037552 0.31485394 0.29532605 -0.33944738 -0.15614934 -0.120898455 0.20807244 0.22944057 -0.2673022 0.26711273 0.026670117 -0.10668741 0.2513479 -0.17362702 0.041564 0.37792143 0.045938116 -0.15577449 0.10100572 -0.2675329 -0.005522758 -0.028791595 -0.26488858 -0.4292652 0.10695724 0.0075979643 -0.29573065 0.12346741 -0.048020177 0.06620039 -0.0021185824 -0.01832642 -0.14132543 0.008086713 -0.11186445 -0.22002174 -0.14106302 0.12480431 -0.597793 0.06537337 0.35074595 -0.3962374 -0.167607 -0.11496597 0.10180628 -0.025553137 -0.021540506 0.37203336 0.101941004 -0.054497056 0.099163935 0.18581061 -0.10210645 0.2772196 -0.039486878 -0.18125656 -0.2447557 -0.16971064 0.073033914 -0.11746688 -0.106357224 -0.03184968 0.45793784 -0.109997824 0.23587638 0.38544554 -0.47729594 0.19904818 -0.08031099 0.24687248 -0.14805342 -0.08500616 -0.0850748 0.15521558 0.11222546 0.3523238 -0.13702536 0.2516152 0.052188553 0.09084793 0.33970764 -0.010726497 -0.3542782 0.23842455 0.019219663 -0.046232313 0.42877313 -0.378801 -0.41284037 0.08715706 -0.24268554 -0.21393201 0.16915561 0.32766917 0.2913508 -0.38980415 0.41958207 -0.27648413 0.20020993 -0.12046883 0.42393976 0.26301825 0.18403174 0.20195477 -0.48083752 0.010458678 0.18044966 -0.17917202 0.2874782 0.037892707 -0.06643902 -0.09593003 -0.391283 0.18331689 0.12632997 0.6066138 0.047730513 0.01685415 -0.09998114 0.116769046 -0.13172896 -0.110638574 -0.2955225 -0.18054266 -0.068059035 0.41616672 0.20669194 -0.19590063 0.013498542 0.39791515 -0.2629915 0.28284097 -0.12590927 0.23743525 -0.12777425 0.2764767 -0.069257736 -0.044772718 -0.0741609 0.14815319 0.0775985 0.192927 -0.09176733 0.013854872 -0.2152264 -0.1474495 0.15766674 0.30787 -0.26494038 0.11383964 -0.4796428 -0.19569324 0.056799475 0.09193233 0.09755509 0.11875487 0.3211748 0.36629117 -0.090452395 0.25072762 0.073627956 0.4078278 0.11306483 0.26017925 -0.042012386 0.05325049 0.12668364 
style 0.31866732 0.035984337 0.015407805 0.1267783 0.28386968 -0.35350734 -0.05165209 0.20173824 -0.40302292 -0.02455304 0.1257668 -0.04452541 0.015154681 -0.1944716 0.07897381 -0.07470109 0.014511126 -0.20960338 -0.05757586 0.009578444 0.2782535 0.2699603 -0.16018683 -0.0069860327 0.0010706926 0.31589264 0.29335535 -0.28914616 0.34222054 -0.16296175 -0.034342393 0.14443734 -0.23342024 0.039526664 0.17699195 0.24517266 -0.210122 -0.05760504 -0.010590728 -0.0066191508 0.28300458 -0.09774387 0.079916835 -0.120290056 -0.12186091 -0.09533658 -0.19471219 0.20007193 0.46411842 -0.092935316 0.046260133 -0.05597962 0.10006138 0.22372098 0.0033365556 -0.15029328 0.022377819 -0.00551582 -0.024518117 -0.06977985 0.10131083 -0.07367995 0.031326447 0.4072114 -0.0433605 -0.050493207 -0.07799956 -0.011038995 -0.4129386 -0.23872037 0.048270833 -0.16061582 -0.16287455 -0.052631646 0.051662363 0.3239697 0.14055662 -0.091467574 -0.26442257 -0.28531483 0.4618906 -0.024296356 0.2624431 0.2810667 0.17167675 -0.27674446 0.57122964 0.2517494 -0.36405393 -0.0036231813 -0.016855776 0.026510945 -0.14319092 -0.10789561 -0.26450774 0.036368355 0.0134250615 -0.1323677 -0.06324498 0.26901308 -0.07401416 -0.14936557 0.29874304 0.028661888 -0.037043013 -0.13697352 0.08368241 -0.27814138 0.06304555 -0.3441611 0.1667335 0.05187189 -0.15317416 -0.21430323 0.08806678 -0.026835017 -0.04657814 -0.004664163 0.35533246 -0.11451362 -0.29295656 -0.13931572 0.16091396 -6.086503e-05 -0.020855071 -0.12999506 0.063646905 0.21425398 -0.12552875 0.45121372 -0.21367164 -0.09799571 0.12580827 0.19668262 0.28352782 -0.2247503 -0.09668083 0.0016821893 0.09788266 -0.17675528 -0.28401113 0.36703244 0.13330793 -0.1404683 0.22629353 -0.06786523 -0.13699374 0.0998173 0.32234725 -0.028585086 0.20705347 -0.07387274 -0.058742356 0.052688304 -0.05190002 -0.1003847 0.16254194 0.14875053 0.27365485 0.21243997 0.26994836 -0.019065803 0.12779428 -0.090217955 0.1848116 0.16828227 -0.030153537 -0.02085046 0.8041064 0.12981012 -0.3641509 0.1165794 -0.23342949 -0.031250115 -0.006373481 -0.19921868 0.18282543 0.16511503 0.07937556 0.19935045 -0.078875944 -0.32027778 0.25136787 -5.284395e-05 0.09960911 0.13763614 0.35331613 -0.045374934 -0.14034402 -0.24558528 0.31425053 -0.17546704 0.006077258 0.04829536 0.0022026382 0.06355969 -0.04878668 0.15900072 0.135447 0.3859474 
roles 0.009218061 0.31245822 0.6914805 0.12681256 0.36531416 0.19360945 0.37825793 0.00526712 -0.4911094 -0.046749234 0.0766899 0.19714151 0.41232198 0.16704166 0.5737119 -0.048900463 0.023070501 -0.36743894 0.17026044 0.017286092 0.042244468 0.023712574 -0.1532026 0.37460205 0.6136369 0.04372622 0.44054493 0.14825265 0.8797424 0.03655921 -0.19320105 0.33343104 0.081414275 -0.07483177 0.6150298 0.11033212 -0.074957475 0.15240203 0.13819969 0.061114486 0.007400417 0.3588273 0.121559985 0.066072546 -0.15629312 0.07315552 -0.14470237 -0.42870268 0.071806565 -0.22050418 -0.11697541 0.03739838 -0.004717076 -0.17824273 0.40129375 -0.17489552 -0.33358058 -0.3282807 -0.014030682 0.21819483 0.14254798 -0.0736001 -0.012675561 -0.14965843 -0.1520592 -0.26040685 0.12960899 0.23518561 0.38776016 0.1174856 -0.16893531 -0.12082341 0.0785353 0.2682793 0.31983954 0.2497684 -0.20158486 0.14349595 -0.14547823 -0.09579977 -0.20604931 -0.5521657 0.16928187 0.027758913 -0.02089195 0.36676803 0.55761284 0.16077444 0.101195626 0.29043868 0.05885014 0.19205031 0.30972987 0.35843685 0.13732749 0.32182705 0.08370495 -0.016043402 0.15441464 -0.008478273 -0.060444325 0.08805401 -0.25918916 -0.22636282 -0.19030897 -0.028909402 -0.0740976 0.105217 0.052204285 -0.514841 0.120544426 -0.2148231 0.01201293 -0.006218246 0.09509537 -0.16018632 0.15324287 -0.042932004 0.020159716 -0.3015433 -0.13430512 0.21386571 0.63314736 -0.07390709 0.08666078 0.1143411 -0.028684426 -0.25339577 -0.12731582 0.30030814 -0.098260626 -0.41097805 -0.06992824 -0.0360141 -0.04798228 -0.1808967 -0.20679156 0.0047604013 0.38811517 -0.0889281 -0.41903606 -0.1273986 0.004666979 0.24436605 0.18767637 -0.20852719 0.26480666 0.08580902 -0.09278888 -0.3035667 -0.25323367 0.32780042 0.22660471 0.14557491 -0.040963355 0.12911965 0.13820083 -0.13282306 0.01921192 -0.09850162 0.059755586 0.13320345 -0.09570831 -0.38925102 0.17871606 0.18691213 -0.009328226 0.051105898 0.06046806 -0.532838 -0.0706656 -0.15504134 -0.17791249 -0.04511391 -0.042988323 -0.08256468 0.16055782 0.09918836 0.3186837 0.080178946 0.027462298 -0.080203585 0.2629828 -0.2851389 -0.30934864 -0.26770398 0.17175788 0.10625321 0.31367645 0.06424364 0.094300404 -0.10025604 0.0121799605 0.25574586 -0.15879132 -0.22413203 0.094238974 0.03328748 -0.0943373 -0.24214898 
dialogue 0.078807704 0.11911742 0.15524192 0.1546555 0.0067216503 -0.058435522 0.12563491 0.24234541 -0.26560313 -0.28994027 0.018419873 -0.061012402 0.12379719 -0.27949306 -0.072115056 -0.027916567 0.03762703 -0.14210331 -0.163937 0.024877131 0.2480231 0.35702884 -0.17918211 -0.15275778 0.15941444 -0.17361437 0.48969388 0.27558276 0.12741606 0.23077632 -0.45785326 0.3368869 -0.025656851 -0.08441127 0.13720298 0.040279843 -0.19844425 -0.06860505 -0.26873475 -0.10757327 0.027249748 -0.08566125 -0.1418077 -0.06152148 -0.06534041 -0.18371402 -0.28555092 0.010012614 -0.1938029 -0.09580972 -0.04103156 -0.02954528 -0.15516773 0.3012048 -0.12561809 -0.19834074 -0.2889808 0.020064384 0.1723302 0.03277992 0.10011882 0.038622256 -0.11587799 -0.19361761 -0.0041614897 -0.088805586 0.23606412 0.05079936 0.32580167 -0.12514965 -0.056141876 -0.15863018 0.010039604 0.12760045 -0.26274458 -0.06613909 -0.1805343 0.012926754 -0.14210673 -0.054845206 0.66737205 -0.10156359 0.20750047 0.06415256 0.009525903 0.041973587 0.23226514 0.17427793 -0.3576123 0.05564851 0.21157506 -0.007845625 0.009135175 -0.06781033 -0.02314803 0.5376515 0.16626374 0.29059237 0.1753998 -0.27913135 0.07082733 0.06622443 0.2695428 0.08726947 0.52168375 0.14085041 0.33801025 -0.0991717 0.15607114 -0.3783455 0.15397303 -0.24173695 0.31607604 0.0018399175 -0.022633754 0.1359605 0.12689961 -0.29368407 0.2665256 0.18647783 -0.4662614 0.115834065 -0.26696315 -0.37027922 0.0069332533 0.19134831 0.3960261 0.097690806 0.061706122 0.24571547 0.044638067 -0.06374214 0.090654306 0.09167182 0.07231574 -0.090209514 0.3349465 -0.08155777 -0.04889385 -0.068273745 -0.48277918 -0.060833164 0.007592504 -0.055664815 -0.12233062 -0.28503382 0.30038056 0.01529044 0.7138346 0.34811118 0.18525535 -0.2109733 0.073369935 -0.31933758 -0.03698231 0.003667719 0.07023319 -0.09331583 0.116268605 0.034386054 0.5009156 -0.13025948 0.0965541 -0.49650165 0.11385013 0.065948665 -0.32097903 -0.17702454 0.45081577 -0.16658145 0.092166744 0.07705387 -0.06294104 0.12390697 -0.054086618 0.015582894 -0.07504706 -0.06296532 0.042584743 -0.3010948 -0.21286304 -0.31153682 0.09829785 -0.0595233 0.23061804 0.04108144 0.15597844 -0.22813301 -0.23254387 0.09864289 0.03474317 -0.13379166 -0.14793526 -0.036336377 0.236795 0.05089794 0.1651872 -0.17313053 0.13155673 -0.10279134 
cinematography 0.07584429 0.03567289 -0.0028131995 -0.14832748 0.360086 -0.21773788 -0.4527685 0.24923705 -0.4671034 -0.21535017 0.01501895 -0.6051073 0.1607937 -0.28938368 0.34096366 -0.30470887 0.34774205 -0.091007456 -0.2947402 -0.11902154 0.3660971 0.1588225 -0.26985043 0.16686346 -0.003753341 -0.03937682 0.21574207 -0.35324597 0.024636839 -0.3118158 -0.06479923 -0.078069516 -0.3312243 -0.06690762 0.052765008 0.15144962 -0.29853505 -0.4675359 -0.15166144 0.32975432 0.16499977 -0.17862108 0.45394453 0.11677182 0.04041512 0.18845326 -0.43376374 0.0021915454 0.4651425 0.21817242 -0.057297636 0.17445916 0.08506992 0.1689288 0.086620845 0.20784423 -0.35540715 0.2833554 -0.22971258 -0.114034854 0.13835 -0.64488995 0.068777606 0.0030977763 -0.20972347 0.06401068 0.1879981 -0.20946924 -0.23679979 -0.033028513 0.025298089 -0.2872032 0.014224547 0.52616256 -0.21880452 0.04816819 -0.293206 -0.2945678 0.14818479 0.1293512 0.4783394 0.085942656 -0.14244395 0.04220781 0.2846173 0.040507037 0.29610118 -0.16442285 -0.3414432 -0.09475127 -0.2575968 0.22741985 -0.08583548 0.35149294 0.3328237 0.30386496 -0.03527102 0.112491176 0.2830206 -0.16819097 0.49920315 0.34822595 -0.060929306 -0.07575294 -0.004990567 -0.023355484 0.47736883 0.09236861 0.016836153 -0.07531617 0.15229791 -0.39238846 0.13570261 0.26352417 -0.06734223 -0.0924627 -0.0011167092 -0.12880719 -0.098484695 0.4887656 -0.41794273 -0.25775996 -0.25611317 -0.39353988 -0.09699482 -0.06180185 0.3779685 0.058918554 -0.11726087 0.37207857 -0.0036887198 0.18012047 -0.13608922 0.1931455 0.05281195 0.05091677 0.043285783 -0.3435174 -0.27122167 -0.22315034 0.011800802 -0.022602389 0.08803859 0.12074308 0.17752147 -0.2313887 0.15923524 -0.043216225 0.27044848 -0.0017243703 -0.040818904 -0.25492626 0.058164626 -0.10609995 -0.08069262 -0.1905957 0.048508033 -0.09437324 0.4081091 0.116652146 -0.15590996 0.34091696 0.45850018 -0.3406135 0.20887063 -0.13627364 0.28370324 -0.18059625 0.6982094 -0.39584297 0.028985834 -0.049752336 -0.13239413 -0.16621123 0.44278425 -0.04314648 0.1318029 0.05225675 0.104536414 0.34622085 0.6993667 -0.2763535 0.4987598 -0.356712 0.07228776 0.1202154 0.21223544 -0.08285103 -0.25621465 0.0017175764 0.53168786 0.02290795 0.05738763 0.2768157 0.15668209 0.03511268 0.007773703 0.16246933 0.11095421 0.00087648374 
thriller -0.14177898 -0.12880227 0.20817016 -0.28149056 0.34159285 -0.19977084 -0.09806601 0.108094394 -0.25881618 -0.35078603 -0.044273723 -0.20358856 0.4132088 -0.05575748 0.18793258 0.06530035 -0.016173039 0.19119139 -0.051009335 0.26579374 0.036535792 0.3690106 0.115145855 0.14172493 0.14128779 0.11227685 -0.03871786 -0.1023781 0.3217455 -0.23476182 -0.20080778 -0.13300137 -0.2166738 0.24308202 0.32315913 -0.15077685 0.24591771 -0.22394507 0.19779928 0.25187373 0.19076762 0.17910534 0.36533812 0.1675473 -0.12087904 -0.12425929 0.09339911 0.07355601 -0.2903969 -0.15921043 0.22963831 0.35703152 -0.017972432 0.22617209 0.19703548 -0.23457883 -0.15360172 0.1366713 0.27067238 -0.10408101 -0.1306127 0.08972472 -0.2522833 0.266041 -0.054988842 0.005060851 -0.1077534 0.10169982 -0.24639662 -0.043668218 0.17528851 -0.013579346 0.16137962 -0.060696512 -0.20425268 -0.17480579 -0.25721326 -0.3207148 0.024970215 0.054907616 0.061184842 0.04867846 0.22974075 0.47824773 -0.049555548 0.011717466 0.26989847 0.4213134 -0.47911587 -0.3607623 -0.12147513 0.08985989 0.07683082 -0.29322982 -0.07941769 0.17769048 0.20614497 -0.08172638 -0.1377863 -0.30531883 0.41006824 0.1766748 0.37609723 0.0861958 0.19250938 0.32013598 0.2925013 -0.28212023 0.3829684 0.13838026 -0.03239643 0.05595941 -0.05355002 0.024045322 0.0029208383 -0.03623414 0.36089617 0.2713873 -0.119751886 0.3900098 -0.24559477 -0.21158145 -0.26008815 0.10470109 0.22931018 0.21277747 0.13332835 -0.14708005 -0.08373671 0.18676881 -0.13178346 0.12663257 0.2709631 -0.0813429 0.1871644 -0.43139255 0.14617416 0.12705119 0.6113655 -0.4443935 -0.21157885 -0.24596182 0.029653903 -0.12851006 0.061648272 0.3495013 -0.28894874 0.20297249 0.17853867 -0.34870675 0.60023004 -0.1355837 0.2064226 -0.3016653 -0.31034768 0.71060675 -0.47095942 0.21616939 0.4510842 0.10962614 0.29662967 0.213651 0.20357464 -0.18360706 0.40516737 -0.05506715 0.06613715 -0.19958428 0.03610036 -0.13950637 -0.06755163 -0.3105724 0.18345228 -0.28047156 0.004362668 0.1507727 0.23699266 -0.343863 0.14534928 -0.1043385 0.28751758 -0.021725895 0.18006694 0.0029825135 -0.06403512 0.18263592 0.3763734 0.43895522 -0.31685856 -0.02982058 -0.06617637 -0.40552947 0.22425684 0.27525634 0.2692797 -0.24307711 -0.2586314 0.091871895 0.22692962 -0.20189358 
drama 0.28862754 0.21834448 0.16340074 -0.20010799 0.24012035 -0.29543468 -0.005558538 -0.102533475 -0.3155657 -0.40730518 -0.094894655 -0.0312616 0.11523681 -0.18691675 0.37773386 0.20298132 -0.11181007 0.19762659 -0.07866771 0.19928801 0.057655223 0.23056206 0.11014193 -0.008214796 0.15338007 -0.107932635 0.037814286 -0.110009916 0.22876407 -0.1843518 -0.1171214 0.060638152 -0.07016125 0.031297524 -0.03695557 -0.08634128 0.47315222 -0.345662 0.057845816 0.12337848 0.19084749 0.015351327 0.30435288 0.11164013 -0.115801975 -0.012853145 -0.07675517 -0.0050283843 -0.1651647 -0.07783278 0.03819262 0.21786349 -0.096685365 0.11218257 -0.002085544 -0.18131506 -0.32387304 -0.15553144 -0.092367776 -0.18884964 0.17490745 0.3205975 -0.10470716 0.19742884 0.112389214 -0.049324118 -0.011775249 -0.09885957 0.23530981 -0.0007553116 0.15225513 -0.3834135 -0.093308195 -0.37434283 -0.14527482 0.06429048 -0.18344289 -0.18918335 0.30212122 -0.07422689 0.33679032 -0.25178987 -0.07137362 0.20507802 0.19708255 0.021461282 0.22706154 0.42102295 -0.30879775 -0.3203198 -0.105339475 -0.099516846 0.13244373 0.2510369 0.075583726 0.099986866 0.0050539807 0.015726455 0.1282503 -0.16186354 0.17222357 -0.0039887903 0.52214104 0.14890845 0.2354565 0.35361618 0.25245088 -0.29042292 0.12961061 0.1919157 -0.0038830906 -0.08616164 0.15065326 0.26631883 -0.01091382 -6.898456e-05 0.04056709 0.039597932 -0.17741983 0.24482298 -0.258235 -0.33681706 -0.1979936 0.12834333 0.10937215 0.23158658 0.015112778 -0.034952413 0.14120352 0.18219633 -0.06655057 0.28512424 0.046128385 0.025169954 -0.0584602 -0.21973088 0.45708433 0.03406017 0.18107764 -0.29945064 -0.22029124 -0.15001075 0.17445454 -0.33925927 0.017905686 0.5189964 -0.0026987034 0.16005377 0.13759437 -0.21882749 0.1768918 0.20753458 0.008977449 0.10000683 -0.39346755 0.39376333 -0.13735698 0.24611837 0.590713 0.28173935 0.12113418 0.2350716 -0.16053528 -0.09033346 0.51785505 0.14621148 0.14512998 -0.040609762 0.07935153 -0.22620136 -0.13782245 -0.26113406 -0.17320226 -0.4671534 -0.14096898 -0.04654382 0.25682214 -0.52534926 0.17356066 -0.06270063 0.16937895 -0.25068924 0.27010468 -0.023683539 0.114833385 -0.08995354 0.37464434 -0.07524331 -0.22042584 0.11697291 -0.09673826 -0.31435367 0.09792469 0.10966025 0.3512238 -0.04529821 0.22735478 0.20306444 0.2347157 -0.13721538 
moment -0.13518156 0.19256489 0.05685635 0.061066985 0.06899855 -0.0066011604 0.2414125 0.094516955 0.078796014 -0.10213132 0.23265861 0.17861472 0.19527353 -0.2980518 -0.37193513 -0.12187572 -0.23013456 -0.14971738 0.0526568 -0.26078442 -0.20931005 -0.2935767 -0.24517693 -0.38296863 0.04180061 -0.14029038 0.11810427 0.1277176 0.2369929 0.059543654 -0.38973677 0.34604135 0.40455765 0.13060078 -0.44504905 0.22763957 0.4114656 0.08063449 0.17769118 0.5262825 -0.05610248 -0.10397842 0.105867796 0.05602405 -0.14536895 -0.13431233 -0.012192921 -0.085346855 -0.1170237 -0.22872722 -0.22106802 0.3265473 -0.20122829 -0.013217754 0.12265979 -0.19931866 -0.022924058 0.3326637 -0.21449712 0.035263874 -0.05801307 0.32330632 0.05743536 0.070743725 -0.2663824 -0.20998606 0.08685739 -0.016883135 0.09036331 0.14886445 0.05742598 -0.3445301 -0.030524962 0.35287967 0.06516384 0.09195195 -0.34644789 -0.049588457 -0.3941556 -0.016071 0.19404493 0.054559972 -0.052919608 -0.2835705 0.20847902 0.23914047 0.0735688 -0.062250108 0.040749934 0.07181432 0.20769854 -0.29403123 0.30999377 0.04852053 -0.030620921 0.038851097 0.059742585 0.12165132 -0.043145012 0.105324626 -0.092007056 -0.19316731 -0.13703729 -0.06394873 -0.08505687 0.058846053 0.3949161 0.05949248 0.17067173 -0.45110267 -0.17401493 -0.012395955 -0.18626128 0.04824458 -0.2169594 0.10748106 0.12375036 -0.35310048 0.26247177 -0.14455318 -0.20291917 -0.0159012 -0.09353494 -0.07026667 -0.09174103 -0.20991635 0.10431963 -0.09080996 -0.062289532 0.29747444 -0.26950446 -0.35105577 -0.012085301 0.024707563 -0.27690846 -0.19066052 0.16257422 0.1822404 -0.046295967 0.18184248 -0.13038743 -0.23874089 0.15401238 -0.087436095 -0.13034296 -0.119094476 0.023573315 -0.03518615 0.15362126 -0.21685039 0.23495416 -0.08975693 0.06163658 -0.11006068 0.2328362 0.006158063 -0.22568545 -0.18638934 0.04967471 0.18496992 0.27521244 0.20481166 0.09611375 -0.111322634 0.1791103 -0.14807625 0.13858594 -0.071791716 0.2924754 0.075483836 0.17796764 -0.06854384 -0.04453088 -0.119049944 -0.08739878 0.214987 0.46282208 -0.31461582 0.50354236 -0.26959538 0.18077564 0.060558017 0.14848009 0.079589106 0.07108295 -0.10325205 0.39188653 -0.0561296 -0.16659366 0.43344814 -0.094064735 0.016285684 -0.0062718326 0.06029724 0.0388195 -0.013122997 0.0640966 -0.08013009 0.07527569 -0.108076185 
actress 0.1927954 0.35258904 0.35227543 -0.15952781 0.49946845 -0.29983026 0.006346815 0.09909099 -0.4464187 -0.22045478 0.69862485 0.024006696 0.1707616 -0.43101203 0.32516563 0.06954334 -0.087467074 0.02268031 -0.024168732 0.32868767 -0.17620213 -0.5236684 -0.03199364 0.23419547 0.06719103 -0.17455736 0.4520455 -0.36355484 0.43508077 -0.38700166 -0.2737901 0.28463003 0.01820009 -0.0040690685 0.077273324 -0.07866573 -0.18412627 -0.7178939 0.17382273 0.52488196 0.14260858 0.05039363 0.10887058 -0.21507418 0.10524545 -0.10173225 -0.03383487 -0.49061865 0.3778943 -0.22049887 -0.38614866 0.13576873 0.1747177 -0.39748302 0.078345045 -0.5039101 -0.26548192 0.38155094 -0.14340176 0.009926596 0.2335584 -0.27851328 0.15550381 0.093500555 -0.060434733 0.06281177 -0.051452506 -0.05345488 0.4758399 -0.19983663 -0.06917603 0.24616994 -0.17418425 0.033084217 0.033255972 -0.065238036 -0.19011474 0.155815 -0.19042529 -0.16108346 0.03952255 -0.033400357 0.22398546 0.2161731 -0.25140837 -0.28980923 0.282843 -0.077413216 0.004294077 -0.05256234 0.30191252 -0.3189088 0.3205246 -0.0025679301 0.09958397 0.40911508 -0.030686019 -0.20325516 0.23122874 -0.19963223 0.24292934 0.21300516 0.11660699 -0.726319 0.078282736 0.57448924 0.1623941 -0.009820408 0.6187646 -0.5680976 -0.21416369 -0.52385545 0.103925616 0.054483235 0.15845625 -0.006616259 0.26120436 -0.116986744 0.03206073 -0.0030398702 0.2193123 0.0783402 -0.3722122 -0.110319875 0.3846384 -0.058094565 0.17629376 -0.34190226 -0.24727438 -0.10132538 0.10373454 -0.23085082 0.28591904 -0.065156534 -0.16305524 -0.697361 -0.32994503 0.026501618 -0.18241705 -0.16809858 0.03495622 -0.24261111 -0.022897556 -0.19994588 -0.15343606 -0.121834464 -0.12955225 0.40774357 -0.006237883 -0.022183515 -0.14810547 -0.03347234 0.25241986 0.16591926 -0.30111757 0.18043746 0.3485475 -0.36857983 0.21903376 0.010454252 0.04456019 0.0023721482 -0.3252713 -0.38178107 0.24761699 -0.26406363 -0.06922352 -0.013544718 -0.1996375 -0.37523642 0.46071655 -0.17311333 -0.070885755 0.07468488 0.07739965 -0.12986511 -0.46700278 -0.023271106 0.20843224 0.30849952 0.021182457 0.21471101 0.18188015 -0.35474068 -0.0816256 -0.112507194 0.081127316 0.29324654 0.47423518 -0.30019993 0.18909095 -0.03599139 -0.15988976 0.1509383 0.37445375 -0.120753065 0.08718202 0.38965896 -0.5589341 -0.1578515 
atmosphere 0.06811386 0.36083922 0.096760616 -0.09967472 0.46500593 0.0017346992 -0.27010232 0.48074675 -0.6053908 -0.15659855 -0.049695037 -0.19114545 -0.08523662 -0.26023006 0.004313349 0.0043630633 0.2821062 0.29953146 -0.3594277 0.047356956 0.027986104 0.39216003 -0.24568012 0.17218912 -0.53585184 0.08230778 0.030371742 -0.43907383 0.32333094 -0.016206989 -0.20595498 0.22821966 -0.14761445 0.5124026 0.12865406 0.35539642 -0.04897895 -0.3387866 -0.1775597 0.0762153 0.08568395 -0.2136242 0.36397377 0.13790357 0.016527982 -0.21958905 -0.12591946 0.16578017 0.16913873 0.12493835 -0.28572643 0.44940022 0.1347678 0.46759897 0.029422434 0.3177081 -0.39015442 -0.23022927 -0.13162762 -0.021121453 -0.0060313027 -0.34985518 -0.17529558 0.29191095 -0.30028048 0.016461406 -0.08892751 0.10591606 -0.09715904 -0.13041109 -0.1859192 0.088947505 0.04494266 0.31083927 -0.020995507 0.37831396 0.012190682 0.025481876 -0.028848259 0.1288595 0.45247808 0.17880304 -0.030656394 0.010985559 0.59750515 -0.19111593 0.2411433 0.37203428 -0.44793266 0.1380931 0.10122562 -0.20291092 -0.19120927 0.064776495 -0.02317196 0.09559676 -0.18814772 0.20213424 -0.20446771 -0.14579146 0.4030495 0.086957425 0.15564907 -0.047873177 -0.038561653 -0.016022205 0.19366874 -0.0014381151 -0.02862938 -0.06534976 -0.061745897 -0.015809052 -0.11579961 0.19720839 0.320059 -0.104774676 0.14885123 -0.011434373 0.057708718 -0.1175712 -0.34180516 -0.24980654 -0.22873783 -0.3091993 0.23033214 -0.14602457 0.12554891 0.2035794 -0.1798656 0.2025037 0.097933404 0.16998598 0.17731805 0.13792615 0.3864174 -0.022557436 -0.23850507 -0.032480493 0.2730598 -0.22794607 -0.39695132 -0.044210665 0.11174077 0.1948707 0.13781163 0.17163399 0.024943104 0.018672343 0.35646442 0.09351569 0.2695532 -0.23399767 -0.22189976 -0.33688474 -0.25947833 0.038827296 -0.3887208 0.07985363 0.044086244 0.041295607 0.30338132 0.445954 0.07931618 -0.16208185 0.32970902 0.043388963 0.0131042935 -0.03073675 0.50683856 0.1053943 0.015977826 0.15327577 -0.18459286 -0.6410468 0.20531562 0.2477869 0.3086323 -0.07635138 0.048472762 -0.014070155 0.6870767 -0.16850242 0.100194566 0.0961469 0.017951973 -0.12472401 0.07559097 -0.12598695 -0.051355988 0.09696697 0.13051628 -0.3527058 -0.020320203 0.050146233 0.15655781 -0.009266498 0.17946696 0.18188377 0.19657534 -0.06565459 
genre 0.093121044 0.060849894 0.10205712 0.1418397 0.62172824 -0.123208806 0.044456694 0.089002915 -0.257215 -0.45210838 -0.020735577 -0.10514851 0.15042277 -0.3046935 0.1979923 -0.039178707 0.112027675 0.13541532 -0.043742776 0.25208145 -0.041623056 0.4379366 -0.07321435 0.11336004 0.29351625 -0.105628476 0.09579429 -0.27186194 0.14112595 -0.13587426 -0.049124725 0.31032485 0.2349899 0.28802666 0.24479198 0.12480201 0.27906805 -0.1697939 -0.024880804 -0.048633564 0.26829368 0.14578718 0.052524753 -0.05006649 0.17544885 -0.26500744 -0.04248816 0.034555204 0.105891764 0.016078444 -0.043514065 0.07707528 0.025940312 0.118824385 0.12519093 -0.4368192 -0.24135113 -0.43069965 0.13031155 -0.11897996 0.12652352 0.09768475 0.11958577 0.16494672 0.12636727 -0.10662709 -0.11484557 0.026047805 -0.16540658 -0.062702425 0.24037486 -0.07153196 -0.08930134 -0.08892498 0.4107689 0.092652544 -0.097932674 -0.24650085 0.050295122 -0.34890965 -0.28602645 0.026489697 -0.20973681 0.18587202 0.47305563 -0.057218187 0.5092164 0.06514874 0.060098976 -0.1315606 0.37354097 0.08492669 0.2238132 -0.36766678 0.22343461 0.077653095 0.32083637 -0.43627605 -0.05075551 0.22324571 0.32206026 -0.106148735 0.10337905 -0.2182564 0.1494319 0.02116345 0.14536563 -0.26961645 0.073862 -0.16536011 -0.09281414 0.11412508 -0.2796925 -0.18862325 0.067343384 0.06522524 0.45674628 0.2950753 0.10773165 -0.0780378 -0.35617298 0.0058307084 -0.124381416 -0.099788114 0.16577576 0.28222778 0.19527909 0.022107169 -0.13764866 0.1680445 -0.4293195 0.07552276 0.25884932 -0.122518495 -0.23226644 -0.12278708 -0.19663586 -0.2622184 0.14088959 -0.15301156 -0.18765588 0.15677853 0.34051278 -0.031634107 0.070472136 0.1794818 0.13199075 0.04178988 0.09449282 -0.46508986 0.36190647 -0.2704874 0.16170609 -0.22646435 0.11194085 0.3220191 0.27675015 0.06367333 0.34798038 -0.054125838 0.41484094 0.01732951 0.32986504 -0.14926636 0.35938507 -0.23813495 0.12946454 0.16598977 0.2281775 -0.15461811 -0.0652873 -0.118901454 0.103546634 -0.099059336 -0.08451763 -0.10465096 0.06924968 -0.08049861 0.357344 -0.11188863 0.117050774 -0.040807657 0.17444415 -0.16752636 0.0849489 0.07445416 0.45892715 0.17765993 0.09574735 0.22251303 0.27124068 -0.09928844 0.42150602 0.1746682 -0.09856861 -0.012341652 -0.3782591 -0.077397585 0.21353094 0.045339357 
lines 0.1873801 0.2269044 0.41298935 0.6303343 -0.2611028 -0.041578136 0.57619524 0.38093427 -0.015853675 -0.18782696 0.24781136 0.036663104 0.07770916 -0.15775318 0.045941256 -0.030353386 0.2200274 -0.14573967 -0.12928805 0.15263398 0.33066776 -0.076535344 -0.10395919 -0.04472212 0.47684598 0.17396085 0.34787807 0.23942205 0.35661858 0.19448923 -0.6174536 0.11431149 0.16162732 -0.16563348 -0.025119485 0.1911971 0.03128633 -0.018522324 -0.18330485 0.02232334 -0.0041079745 -0.010307501 -0.3865998 -0.051673893 -0.34481427 -0.016153103 -0.26671326 -0.18670942 -0.11495149 -0.08752855 -0.31749108 0.049209766 -0.054108128 0.14854334 -0.28164506 -0.10656239 -0.10638219 -0.09965018 -0.1687024 0.08666111 0.20250751 0.071001746 -0.07614941 0.15850855 -0.1426129 0.1424447 0.40462255 0.29048166 0.3900692 -0.22509895 -0.21411552 0.019745186 0.24793561 -0.083949275 -0.10621694 -0.12824386 -0.388598 -0.1960283 -0.25971434 0.12906031 0.48128513 -0.41239098 0.045416284 -0.32336295 0.0686003 0.50169253 0.10055675 0.022561217 -0.18447204 -0.07309104 0.27799982 0.024556583 0.2011747 0.14732291 -0.07943717 0.35432723 0.12578999 0.14854571 0.28929302 -0.38802415 0.11222223 -0.04057257 0.1706268 0.23785785 0.1932478 -0.007460082 0.104555435 -0.10996645 0.29264203 -0.37586543 0.021807374 0.24318224 0.31575623 -0.02746244 0.051825527 0.10672834 0.3012454 -0.17253971 0.3247278 0.019257883 -0.3365444 -0.06977832 -0.09230778 -0.25915256 0.32333714 -0.04856242 -0.17188266 -0.03159155 0.019118816 0.37551478 0.0043482147 -0.42353886 0.11468504 0.12782173 0.0316602 -0.030985234 -0.03023038 0.12550533 0.3229599 -0.13232784 -0.4980528 -0.12036533 -0.24949394 0.038652435 -0.3086186 -0.13697046 0.33881035 0.11605014 0.3827521 0.041056957 -0.16582224 -0.00733741 0.03421849 -0.207047 0.025359664 -0.15241885 -0.06378063 -0.28349593 0.03492746 -0.1878522 -0.09049677 -0.121365935 0.059444986 -0.5447362 0.16343224 0.18978217 -0.37554953 0.0047125015 0.36414894 -0.27379677 0.25610456 0.13799937 -0.1572812 0.15419923 -0.041201245 0.124265976 -0.19200262 0.11602551 0.17713602 -0.1965784 -0.3787958 0.07792629 0.04602374 0.06008644 -0.026183382 0.067275956 0.39781356 -0.114645064 -0.4022238 0.13318853 0.021778645 -0.0989516 -0.50418985 -0.21937709 -0.08954996 0.16917974 -0.3558799 -0.14730366 -0.0036843384 -0.13527533 
budget -0.09562013 -0.29785907 0.14071292 -0.2925085 0.040146865 0.07845224 -0.33270764 0.4485528 -0.6367884 -0.43798727 0.07190097 -0.111377664 0.6522106 -0.123892836 -0.4425278 -0.20435496 0.14846602 0.013019606 -0.3880825 -0.14486286 0.0037871476 0.5543564 -0.13091998 0.17170061 -0.12570032 0.16739993 0.4415477 -0.061970323 0.14002886 0.0838215 -0.37184188 0.15530802 -0.2969546 0.39229798 0.25041437 -0.17564307 -0.25892422 0.110038474 0.13790284 -0.45163515 0.31402373 -0.070211925 0.05573724 0.15939617 -0.04191513 -0.089577116 -0.31038836 -0.2528597 0.789798 0.3860653 0.16480456 0.27760604 0.17317215 -0.2705362 0.18118013 -0.36747545 -0.017083304 -0.32919574 -0.07965913 -0.067973256 0.1439931 0.4782475 -0.529617 0.019640036 0.21537407 -0.2055371 -0.19933085 -0.14343968 -0.014758461 0.17944098 0.13079754 -0.13801067 0.13413766 0.12666135 0.29373816 -0.22046264 0.1930688 -0.26904202 -0.03197115 0.0046607936 -0.0043092538 0.33921295 0.03288607 -0.18896243 -0.034578454 0.08318278 0.6118993 0.4110573 0.18313295 -0.17823854 0.17352517 -0.0665387 -0.063013636 -0.2399972 0.09611485 0.20127575 0.06436441 0.029978845 0.26576173 0.14854446 -0.064335 -0.06997572 0.5145932 -0.33973038 0.14959374 -0.1313825 0.5289935 -0.27613235 0.07380159 -0.26819295 -0.09123375 0.016334534 -0.7325511 -0.052679647 0.12926027 -0.3209631 0.3881187 0.25617844 -0.059800897 -0.27285028 -0.5889887 0.042329554 0.14419931 -0.35729465 -0.09283382 0.1871825 -0.21654959 -0.36968073 -0.36938655 0.17440733 -0.14767139 0.1902773 0.17224728 -0.67313087 0.49789375 -0.2685993 0.29147175 0.09486207 -0.13276635 -0.11651033 -0.08396067 -0.20167196 0.08322398 -0.58006114 -0.06855402 -0.042682897 0.30808493 0.0824015 0.12510741 -0.26663646 0.2100915 -0.1567846 -0.090023115 -0.04076432 -0.3245126 0.4506139 -0.08393945 -0.26901156 0.5012264 -0.20702954 -0.091703504 0.5055107 0.10168725 0.12907584 -0.047508426 0.40964314 -0.07632472 0.28280997 0.48980626 0.32628894 -0.10123644 0.5319264 -0.2598175 -0.0864777 0.1503169 0.16692966 -0.11268558 0.07608999 0.61588836 0.6065652 0.23073691 -0.13234797 -0.20875016 -0.29107264 0.10882291 0.30378598 0.07654213 0.13018669 -0.03019165 0.119457915 -0.008210169 0.06610112 0.21669133 -0.17012125 0.31789532 0.4175192 0.008336579 0.12759554 0.18776077 -0.02683529 
production 0.33351895 -0.089447774 0.34024084 -0.77695423 0.24100555 -0.00935906 -0.33186027 0.1544777 -0.39872128 -0.079746686 0.12540385 -0.09110199 0.30382672 0.1574758 -0.12831342 -0.098696776 0.029029159 -0.15956494 -0.43987703 -0.038281627 0.11470777 0.33863086 -0.16935056 0.44081333 -0.37588537 0.15582323 0.42162505 -0.2692755 0.061818507 -0.2584338 0.015380938 0.22336806 -0.013034543 0.046696123 0.15371789 -0.047414772 -0.22817668 -0.32627484 0.036713872 0.111398466 0.29616183 -0.33086595 0.093482725 -0.054403372 0.045646362 0.065813646 -0.30515403 -0.23022205 0.36901715 0.3045207 -0.054036677 0.15785371 -0.09074666 0.09603305 -0.16736865 -0.08232125 -0.27757603 0.12423738 0.12806764 -0.37969655 0.24198961 0.053490937 -0.17127708 -0.049588297 -0.18111697 -0.08162674 -0.17572242 -0.25140345 -0.24500126 -0.20616777 -0.078347966 -0.22722101 0.012761253 0.25119546 0.095848806 -0.042990167 -0.046112236 -0.20947133 0.07566135 -0.15411636 0.27656478 0.5735873 -0.0077042137 -0.03780769 0.20109133 -0.145292 0.100126594 0.2676429 0.012909555 -0.13635801 -0.09425381 -0.013702379 -0.1962783 -0.34714517 0.1828266 0.2801357 -0.072768085 -0.122897096 0.2950435 -0.0790623 -0.21590334 0.11092086 0.060392246 -0.16526711 0.29838875 0.10255639 0.40225765 0.15216656 0.0057595316 -0.2862475 0.31298998 -0.20896867 -0.06862388 0.14644872 -0.1581204 -0.21193472 0.1705719 -0.19286862 -0.07781753 0.05368779 -0.5711852 -0.23211691 -0.15117793 -0.34249392 -0.19344407 0.15164532 -0.1071362 -0.15715292 -0.02608167 0.09669239 -0.06223726 0.052904323 -0.060088072 -0.008689669 0.31479958 -0.32988253 0.38248348 -0.1682584 0.1610194 -0.41673252 -0.02109311 -0.08146488 -0.085870445 0.15567362 -0.05518355 -0.33828858 0.6243521 0.016188296 0.029784529 -0.12829839 -0.25547487 -0.2637997 0.075020954 0.2148709 -0.25825265 -0.072428055 0.26693708 -0.05483336 0.26645514 0.11217217 -0.39848837 0.043543916 0.37757462 -0.13407917 -0.17745776 0.063183665 0.019643852 0.016145177 0.48758784 -0.03635862 -0.05928823 0.18093385 -0.0024437497 0.056664467 0.23479588 0.39362147 -0.20819734 -0.1198377 0.43146268 0.46045923 0.2469362 -0.26285768 0.020801341 -0.2822009 0.22346348 -0.04578225 0.048757512 -0.014043478 -0.48593903 0.0930189 0.06533506 -0.07784597 0.3721922 -0.20186798 0.074428044 0.30280244 -0.20952277 0.14496255 -0.016824948 -0.16774647 
tale 0.1682584 -0.1269319 0.10361598 -0.061175272 0.2714086 0.16087162 0.04800015 0.0552221 0.008182538 0.1403155 0.37644306 -0.15241243 0.013760198 0.045095373 0.2297361 0.07689563 -0.6359108 0.0654037 -0.36204943 -0.35024962 0.024450233 -0.06423732 0.27792647 0.15436268 0.08869743 0.013294831 -0.060441863 0.27714697 0.2187048 -0.4923557 -0.23623428 0.14102863 -0.15256651 0.4983142 -0.18349352 0.13765891 0.350824 0.046180747 0.17390326 0.1305124 0.006950651 0.13517456 -0.049964145 0.22735028 -0.27956575 -0.11332956 -0.06348411 -0.11708023 0.10351973 -0.03030419 0.112757735 0.45346904 0.010457567 -0.09048638 0.031473096 0.24779272 -0.094900504 0.12826301 -0.24624294 0.025746392 -0.08583343 0.06512389 0.10069209 0.4115748 -0.22411968 -0.046107683 -0.045609247 -0.058080044 -0.13233595 0.07435336 0.13650997 -0.25502443 -0.014832463 -0.1469785 0.1926279 0.40202275 -0.2637658 -0.050504033 0.13604864 -0.026601821 0.0916456 -0.01199303 0.28669393 0.32312906 0.35897604 -0.062979296 0.025524752 0.4710279 -0.5524341 -0.5586052 -0.04940647 -0.02688306 -0.05410647 0.16869742 0.06557542 -0.14432143 0.09007687 -0.094534196 0.064905964 0.053817328 0.06662489 0.26533115 -0.019258447 0.41408306 0.14555345 0.15865912 0.1309143 -0.08926422 0.09154773 0.15659672 -0.12698387 0.1838432 0.00091214257 0.019803818 0.12863229 0.00038110514 -0.25813568 -0.063014865 -0.14381532 0.15892 -0.32284653 -0.19520006 -0.21030052 -0.12682019 0.03463035 0.0858332 -0.044945206 0.03620912 0.23810762 0.44677144 -0.42840165 0.27098015 0.44541872 -0.18315074 -0.13845615 -0.1793469 0.13054484 -0.16503233 0.18881755 -0.517363 -0.16721125 -0.2654982 -0.046216078 0.23592438 0.23634197 0.16065125 0.13445698 0.1715707 0.23680604 -0.05148058 0.19029553 0.02579393 -0.24349642 0.27424473 0.20718673 0.20932399 -0.32220232 0.2797606 0.23970088 0.05210638 0.17671876 0.0050313044 -0.110363826 0.16566263 0.50076807 0.09206382 0.008866356 -0.08176331 0.12525143 0.079759374 -0.2758501 0.24055055 0.2148398 -0.21010126 0.3755067 0.26540712 0.046562668 -0.042293694 0.37011495 -0.31381038 0.02388564 0.095128685 0.05206658 -0.29366562 0.04982112 -0.15443885 0.3850806 0.08982665 0.15193853 -0.35209703 -0.0432992 -0.09700527 0.23783584 -0.18448375 0.15829913 0.26549283 -0.16745932 0.2232133 0.37489137 -0.36460555 
screenplay 0.31025463 -0.15315048 -0.018866677 0.05633108 0.33744287 -0.009619209 0.068629816 0.2030777 -0.24586855 -0.08509027 0.19913483 -0.49111694 0.35041988 0.12539813 0.0042256843 -0.06374298 -0.18733753 -0.14484614 -0.45965075 0.028698841 0.031012356 0.26476815 0.024349196 0.040079616 0.25081083 -0.093222275 0.45423692 -0.095185354 0.25747028 -0.3257112 -0.24094605 -0.031810034 -0.045469377 0.1387856 0.18900537 0.18842405 -0.20581363 -0.31037986 -0.13151753 0.018283345 0.13694666 -0.20665856 0.09236334 -0.006707183 -0.052480064 0.05666262 -0.33465713 -0.085017554 -0.053282306 0.19359128 0.14178555 0.2370822 -0.39994952 -0.062915534 -0.033603832 0.0043480783 -0.16353777 -0.05185239 0.09776089 -0.12799664 0.29016054 -0.21026778 -0.07314687 -0.050739706 -0.13666795 0.08358568 0.171254 -0.29126307 0.3700609 0.0005629317 0.21231206 -0.4825415 0.05795679 0.19473149 -0.25753614 -0.06462599 -0.24101986 -0.15608157 0.18272655 0.011256365 0.4610882 0.10339651 -0.12228247 0.08798659 0.030637821 -0.03098208 0.082348876 -0.15440309 -0.28266498 -0.08445019 -0.035140768 0.08290892 -0.19037712 -0.14804718 0.13597122 0.5651075 0.08548541 0.15827604 0.6670694 -0.19796021 0.18326017 0.1922372 0.1782206 -0.27822572 -0.24510744 0.3438191 0.2932823 -0.06116427 0.34883884 -0.1052272 0.13065982 0.081596956 0.050450906 -0.24157241 0.13913998 -0.26227418 0.48909962 -0.1089067 -0.05758245 0.6938656 -0.4720952 -0.08127726 -0.021838255 -0.32851484 0.07814574 0.40472433 0.3007947 -0.09966723 0.15155913 0.4113552 -0.25673807 0.14736909 -0.06277776 0.41791332 0.17799923 -0.27178648 0.43775705 -0.14577842 -0.035601653 -0.16877176 0.24403259 -0.1427508 0.15352316 0.000883955 0.048734426 -0.24382758 0.31849042 0.21277487 0.47527397 -0.22914764 0.06173062 -0.18202922 -0.07066312 -0.18611383 -0.115764394 -0.12722157 -0.2944306 0.13531022 0.13930118 -0.2340877 -0.0437705 -0.17192386 0.03594205 -0.33129176 0.22404869 -0.15607725 0.010947168 -0.25656074 0.024626052 -0.21597342 0.1760919 -0.2037003 0.048739813 0.28413463 0.025884127 0.18175016 0.1827453 -0.358651 -0.17912333 -0.1644778 -0.024428409 -0.23500207 0.14296712 -0.28412783 0.13283388 0.25018215 0.23986612 -0.2955119 0.25078422 -0.055877607 0.23672476 0.1934973 0.10676415 0.36248383 -0.047011252 0.088800885 0.022568373 0.16341375 0.095568426 -0.1356547 
act 0.019512389 0.2950683 -0.017578023 -0.3170664 0.28202307 -0.15222009 0.3280737 0.14421527 -0.21276121 -0.3125386 0.1331779 0.09273808 -0.08426426 -0.2723947 -0.07547022 -0.2270886 -0.2312019 0.009420052 -0.3055481 0.26020175 -0.23706654 0.045395818 -0.17065763 0.2970292 0.11523738 -0.24735036 0.2682503 0.08110009 0.28551802 -0.0036047623 -0.06121466 0.36731339 0.27887493 0.2630044 0.13623577 0.00091926235 0.2454178 0.09705996 0.15205023 0.16333571 -0.36733726 0.30179805 0.010080213 -0.09944762 0.24188523 -0.12216543 0.03323238 -0.20195043 -0.14195502 -0.08067042 0.09454059 -0.118090324 0.004629327 0.13606133 0.2823566 0.16197301 -0.38574642 0.24261978 0.058261745 -0.034674685 -0.11206779 -0.2002877 -0.17308845 0.007990739 -0.18337324 -0.23585261 -0.0825962 0.12731954 0.14613345 0.06954466 -0.12925537 0.28474236 0.01964479 -0.10777421 0.1373019 -0.057514615 0.023405818 0.02805891 0.09716462 0.0047545084 0.097424924 -0.14193761 0.5331588 -0.07291512 -0.120662995 0.17510442 -0.027717564 0.21464628 -0.010100026 0.06467531 -0.360801 -0.283076 0.07277856 0.07919148 -0.26294813 0.20591521 -0.2023055 0.1400112 -0.12254097 -0.10271363 -0.04210011 -0.13662346 -0.11946557 -0.10828582 0.11983767 0.34237555 0.2867126 -0.19245823 0.7367196 0.059986487 -0.032332502 -0.06020178 0.20170535 -0.17320383 -0.007918719 -0.09411205 0.11651278 -0.11228248 0.33937496 -0.034505088 0.0936514 -0.09507192 0.1509295 -0.18122068 -0.16366372 -0.07723796 0.03071652 -0.24754009 0.18496399 0.123910666 -0.22021382 0.03511862 0.014899132 -0.12720384 0.14877096 -0.032103922 -0.05445927 0.015572715 0.46558216 0.120905735 -0.45793474 0.05570113 0.10129685 -0.08948524 -0.37976062 -0.31303844 -0.015271017 0.26380247 0.06920015 0.06024285 -0.11665256 0.4571392 0.18803222 0.23901291 0.37032384 -0.17382045 0.1888419 0.045839973 0.1210794 0.14056838 0.23583563 0.07538433 -0.099396266 0.06940294 0.06333423 0.09568495 0.119521275 0.17429735 0.035583854 0.27402598 -0.12368725 0.03406698 0.14315793 0.057001773 -0.11111838 0.34982178 0.10485355 -0.21980393 0.042138074 -0.115179956 -0.051888857 -0.39358082 -0.1338304 -0.12215512 -0.32986197 -0.046830483 0.21842214 -0.15005039 0.08310638 -0.14271373 0.19970594 0.0026999742 -0.35064557 -0.23504473 0.030706523 -0.04227812 -0.03501769 -0.0930933 0.69566196 -0.42403907 
premise 0.06076049 -0.2918266 0.17475803 0.11718636 -0.042780522 -0.30493724 0.06485098 0.4654282 -0.4540031 0.14835925 0.25379452 -0.33943507 0.1618723 0.13268416 -0.23194519 -0.03246561 0.16211082 0.052712746 -0.5046522 -0.09990523 0.22686887 -0.06922927 0.2632002 0.12594613 0.12851425 -0.2017231 0.047904767 -0.0022166963 0.106257424 -0.2041132 -0.27829546 0.2500849 -0.019716866 0.40749213 0.1694061 0.0718137 0.07256038 -0.29213643 -0.25530362 -0.44481933 -0.325889 0.21624771 0.29171622 0.12175782 0.29533523 -0.16474177 -0.25577298 0.119726084 -0.057579163 0.020474644 -0.23745604 0.36850673 -0.22158825 0.017846594 0.022427224 0.09664347 -0.0785968 -0.039936386 -0.016370898 -0.017225925 -0.030521596 -0.06505647 -0.08541294 0.03984326 -0.36591357 0.011643204 0.17033185 -0.0054571875 -0.045060992 0.047657643 -0.09446583 -0.027039092 0.42656997 -0.28440055 0.020681454 0.3017488 -0.13625677 0.08836027 -0.09166496 -0.146284 0.26495776 0.020273916 -0.0385521 0.004198076 0.05068964 -0.032962006 0.15872021 0.46170872 -0.21242902 -0.2369554 -0.39851072 -0.17413306 -0.19690345 -0.32627207 0.24359934 0.27600154 0.19747812 -0.15293205 -0.002268216 0.14191361 -0.098591655 -0.050391633 0.11483296 -0.06233625 0.08545435 0.26422223 0.3562918 -0.23500945 0.21588092 -0.1704024 -0.18825334 0.022896145 -0.31538746 0.039309278 0.38093618 0.11633484 -0.08827915 -0.035220314 0.23566173 0.2662148 -0.44107023 -0.32123154 -0.20293622 -0.1464772 0.062360022 0.18505464 -0.14425811 0.035870027 -0.10311578 0.56002194 -0.2933305 0.015109049 0.4715638 -0.16016477 0.1814915 -0.32190058 -0.029754613 0.05381061 0.28962043 -0.14649746 -0.12397905 -0.05702659 0.042556576 0.2110011 -0.096191615 -0.02311874 0.19796334 0.13800582 0.12826177 -0.44502243 0.20915665 -0.2470113 0.27969182 -0.22996105 0.01749094 0.4061559 -0.33100435 0.22904956 -0.38383257 -0.097456515 0.19208388 0.15806897 0.033756167 0.012429761 -0.05485268 -0.078462735 0.22294842 0.19325104 0.058330074 0.103205554 -0.11306143 -0.1405741 -0.055082142 0.060676903 0.03152505 -0.032838684 0.023310417 -0.25323597 0.014135752 -0.21074608 0.06806683 0.013026487 -0.034557868 -0.24047428 0.054116134 -0.10591511 0.57695764 0.021018447 -0.033587404 -0.06358075 0.36956155 0.02708489 0.1570995 -0.25293818 0.1376485 0.06929042 -0.15657386 0.16317569 0.15439346 -0.49673596 
sequences 0.044935387 0.19468017 0.25947183 0.09124099 0.089492135 0.11236371 0.17123248 0.17348795 -0.051164337 -0.38141778 -0.66829014 -0.013160611 0.08405396 -0.39058897 0.18431123 -0.41166493 0.12852177 0.06781626 -0.31663308 -0.18482135 0.51495427 0.2571681 -0.22511654 0.023861663 0.3958133 -0.16454677 0.14428319 -0.03521766 0.21402967 0.008868046 -0.20131913 0.22341216 0.2479458 0.34870964 0.0013044802 0.22442292 0.08151891 -0.17621878 0.060931716 0.3725155 -0.3011751 -0.23217249 -0.004741729 0.2729668 0.12058683 -0.32733682 -0.23517913 0.08278578 0.083608925 0.29194987 0.204589 -0.033915203 -0.15414475 0.40886453 0.027853116 -0.27368286 -0.087052934 0.20254907 -0.32259533 -0.20663762 0.10078007 0.41998604 0.114631176 0.29896197 -0.28914836 -0.13345672 0.25327015 0.05178316 -0.181059 -0.48576644 0.10837245 -0.2924572 0.095784456 0.13448 0.043593816 0.017125204 -0.050569467 -0.24748398 -0.061501127 0.2354988 0.39776906 -0.16182186 0.21570651 -0.07032589 0.0812716 0.23602323 0.10554063 0.44869804 -0.049611624 -0.35535482 -0.12609176 0.40254486 -0.22973242 -0.102497146 -0.12108958 0.23243748 0.060887355 0.13485636 -0.011323515 -0.24964878 0.23818958 0.07427656 -0.014589966 -0.10873716 -0.0337325 -0.27427912 0.4224038 -0.32211772 0.5245123 -0.24584292 -0.016666003 -0.18150479 -0.09098488 -0.09775216 0.17651828 0.07152318 -0.18255839 0.12742816 0.17484125 -0.16697098 0.1656494 -0.09871376 0.11735808 -0.4653504 -0.14327566 -0.41538835 0.12381896 0.24087662 0.27437356 0.30310634 -0.038499203 -0.45276305 0.09203872 -0.051782094 0.087692566 -0.013208638 0.2420788 0.09356074 -0.11357263 -0.045860324 -0.15343755 -0.16383576 -0.13659793 0.04937198 0.13140026 -0.21115631 0.1325985 0.15604095 0.037869263 -0.27528206 0.2219286 -0.10080435 0.12204862 -0.3937065 -0.1172121 0.026773125 0.0026148993 -0.17127165 0.043382574 -0.10385908 0.15199722 0.62152153 0.3727196 -0.44659203 0.35222784 0.15352774 -0.02620292 0.009208415 0.30216703 -0.2283083 -0.24483734 0.031743255 -0.17463289 0.114407115 0.29251075 0.2739464 0.3037566 0.1287033 0.40280247 -0.22403552 0.1826073 -0.22192803 0.19216383 -0.062338263 0.26251575 -0.3344143 0.07158296 0.19627604 -0.46911198 -0.1263744 0.4212417 -0.115633175 -0.030802011 0.32633194 0.13240203 0.018173102 -0.02178818 0.07288297 0.22854842 -0.11023412 
shots 0.008786588 0.034290023 0.22921008 -0.14846201 -0.11808878 0.061862852 -0.114021964 0.43337816 -0.124269225 -0.2600754 0.071803235 -0.3128997 -0.05606637 -0.23727302 0.08079662 -0.36990374 0.2435251 0.26565427 -0.400644 -0.19413234 0.5693183 0.23671517 0.09424418 0.3324387 0.33798313 0.0928518 0.12135031 0.16149767 -0.25275084 0.041622438 -0.31880835 0.095420234 0.15903306 0.33473966 0.13424489 0.3041185 0.085087426 0.04615725 -0.09101889 0.22500676 0.17692778 -0.21448909 0.28974774 0.023377225 0.120246485 -0.0779987 -0.35912803 0.0370669 0.49992326 -0.043364923 -0.15419395 -0.03295599 -0.18425359 0.15785925 -0.1801224 -0.011181422 0.31616357 0.30073613 -0.24821524 0.031857826 -0.14390706 0.021060465 0.18757933 -0.10804585 -0.069896996 0.2011173 0.36077124 -0.21586463 -0.2877679 -0.09952435 -0.1254301 -0.056249283 0.044171654 0.22519982 0.14642966 0.44454712 -0.008993216 -0.17742383 -0.36083812 0.1514563 0.24283132 -0.34081852 0.4588607 -0.36730435 0.30901623 0.6586508 0.12672795 0.34906211 -0.26720175 0.16900992 0.18204089 0.18983306 0.024909744 0.03652203 0.3161731 0.03771579 -0.25959426 -0.019082444 0.25945458 -0.29591128 0.29813957 -0.2143615 -0.114680976 0.31388903 0.13921188 -0.6856052 0.41627866 -0.3232752 0.40988675 -0.0624481 -0.14356713 0.062113766 0.08372874 0.19412605 0.087097235 -0.018121453 0.16627252 -0.15944524 -0.18187493 -0.08045111 0.05185177 -0.14738709 0.121359706 -0.26352146 -0.19828361 -0.4712438 0.18085782 0.18838438 0.26294506 -0.2567832 0.031940505 -0.31307083 0.17586021 -0.10824043 -0.17823918 0.012581961 0.08352433 -0.22332396 -0.23893785 -0.01345499 -0.08379785 -0.18907957 -0.025149873 -0.3291762 0.30383357 -0.33765823 0.03441507 -0.115101665 0.035186417 -0.0852701 0.06386875 -0.10867684 0.23208159 -0.2987808 -0.28603074 -0.06170205 0.03294344 -0.09517132 0.08874938 0.42788777 0.5219258 0.6699674 0.27224237 -0.072375625 0.5395877 0.13399969 0.16242154 0.19424593 0.5328576 0.083138525 -0.13287567 -0.26144356 -0.5607726 -0.21751475 0.4582288 -0.18516912 0.10653373 0.21942592 0.32736865 0.3487685 0.2572902 -0.28782317 0.13768381 -0.14177504 0.3208604 -0.056625944 -0.050329573 -0.069380075 -0.43393734 -0.3313532 0.27054513 -0.11583086 -0.2808929 0.27590266 0.06761142 -0.10059847 0.2385902 0.031962857 -0.11272293 -0.10113716 
shot -0.10677459 0.23866273 0.24237944 -0.18182112 -0.20733953 0.21677159 -0.18836388 0.30619746 -0.25059623 -0.5301648 -0.11224742 -0.30430913 0.33577383 -0.2362294 -0.24591431 -0.20916936 -0.10451869 -0.07410753 -0.30165893 -0.029112048 0.23669502 0.18133242 -0.065548405 0.04586188 -0.059164967 -0.07779555 0.061185043 0.18723623 -0.21849793 -0.17811237 -0.19852747 0.080416374 0.22721931 0.12115596 -0.3810983 0.090378135 0.041477118 -0.22696683 0.15374626 0.51149863 0.47534722 0.041148078 0.4144595 0.14439662 0.22646186 0.018420355 0.03139294 -0.16239524 0.5018697 -0.20570303 -0.1419876 0.18218395 0.075697705 -0.21273465 -0.009273039 0.33110002 0.36051878 0.25766915 -0.024916632 0.03684584 -0.36575687 0.007191082 -0.0034143531 0.21567443 0.078641795 -0.03269435 -0.023394316 -0.2174522 -0.079321556 0.059231073 0.027328385 -0.09249081 0.029094556 0.18904302 -0.06056527 0.42570445 -0.07369272 -0.17253925 -0.2940694 -0.07985968 0.185157 -0.04270722 0.20856588 -0.1469754 0.093509786 0.5341389 0.22368489 0.09242163 -0.29244095 0.17724602 0.12681092 0.31874457 0.021152044 -0.024365079 0.34998786 -0.22719441 -0.2744117 -0.43979353 0.25743726 -0.16614965 0.16003972 -0.26481357 0.004632125 0.049770385 -0.2526648 -0.22936687 0.6504992 -0.12949316 0.308415 0.07596366 -0.05292881 0.092156425 -0.009166828 0.07195145 -0.06159059 -0.11976335 0.17137492 -0.100361496 0.25993797 -0.24015133 -0.07529373 0.036210712 0.34727386 -0.09375692 -0.3833255 -0.090216696 0.19486487 -0.09291907 0.089859545 -0.3271415 -0.012475312 -0.2441182 -0.2478748 0.0071023656 -0.016554818 -0.27125162 0.16694872 -0.3494215 -0.24092501 -0.29938126 -0.062839635 -0.025149897 -0.04126476 -0.007292936 -0.054054618 -0.18863723 0.16401854 -0.090979405 0.18495914 -0.35739666 0.117758654 -0.16216132 0.07279688 -0.14840275 -0.017030764 0.009131642 0.14376335 -0.2550254 0.035966363 0.26231587 0.19736716 0.23121317 0.2797394 -0.10677814 0.24461287 0.10065322 -0.06665954 0.1975728 0.30110547 0.17897262 -0.2111713 0.05999894 -0.2802407 -0.23826073 0.3189598 0.10402316 -0.042515468 0.083666936 0.2724781 0.16653067 0.25302827 -0.23693623 0.065569334 -0.21258181 -0.022197561 0.0709344 0.29018015 -0.10716909 -0.1017759 -0.30241373 0.05913667 0.19630967 -0.22117066 0.060301363 0.13993208 0.03441913 -0.13256535 -0.25305292 0.036675286 -0.17982453 
theme -0.08420473 0.36886886 -0.013453214 0.09451377 0.2457906 -0.30854663 0.07761214 0.554242 -0.028419646 0.2139208 0.2329222 -0.17297225 -0.073667064 -0.12642281 0.003431019 -0.08687916 0.39108568 0.05346122 -0.28857046 -0.29779398 -0.05009974 -0.29428574 0.44344148 0.27850676 0.26130506 -0.13821213 0.33323392 -0.45520023 0.22247933 0.13777512 0.0043003447 -0.16916361 0.1264402 0.3795434 0.10229335 0.11021587 0.07364325 -0.33964038 -0.12949479 -0.20122954 -0.34690937 0.21289986 0.5441194 0.13732357 0.02521794 -0.12660757 0.033157304 0.17908578 0.0439276 0.454437 -0.286784 0.1567732 -0.20368461 -0.30722687 0.33598953 0.15173277 0.30314702 -0.055186372 0.14195332 0.020945534 -0.570281 0.15080756 0.067300506 0.13111168 -0.2405144 0.09598418 -0.01312406 -0.30082074 -0.07679835 -0.1858713 0.002874163 -0.3231067 -0.017764065 0.048186824 0.21931644 0.22196768 0.11461296 -0.13286847 0.17243724 -0.007821186 0.28777865 -0.041075543 -0.25185692 -0.0072992984 0.28362098 0.07268675 0.012279944 0.40316793 -0.38672405 -0.21659838 -0.10355823 -0.0031478503 0.15599133 0.30466363 -0.26135042 0.14490649 0.09041833 -0.33508846 -0.14071117 0.05765289 -2.9803225e-05 0.06938716 0.3023272 0.01352716 -0.004498785 -0.036302526 0.12635331 0.02395089 0.06325185 0.06926826 -0.21637811 0.027438104 0.24080636 -0.17035332 0.33921838 -0.009524297 -0.0938772 0.10298531 0.20302548 0.057463933 -0.5264335 0.008263098 0.14715016 0.07905725 -0.26252407 -0.20075968 0.25655147 0.18018007 -0.14775668 0.7904457 -0.2360596 -0.06760402 0.19373628 -0.6012488 -0.35830468 -0.15682077 -0.033522084 -0.030952312 -0.02773218 -0.24082632 -0.3958793 0.20344266 -0.024372187 0.055241734 0.23592943 0.08629363 -0.011848665 0.037700396 -0.07010877 -0.08718867 -0.10335692 -0.28438628 -0.13086332 -0.16948693 -0.11555668 0.24152194 0.040057644 0.21563864 0.06755697 -0.10620565 -0.13529032 0.17179407 -0.07568266 0.043271475 0.17317575 0.020717109 -0.041348226 -0.2899449 0.3283674 0.46699828 0.19032763 -0.19914909 0.030830985 -0.38789853 0.09297461 -0.35784706 0.3418205 0.24427891 0.1604907 -0.22669612 0.16136737 -0.18675442 -0.024658129 -0.05414751 0.008976982 -0.049849145 0.65000224 0.18268928 -0.19502406 0.010190065 0.4419086 -0.08261647 0.15712172 -0.3332443 0.072644636 -0.20819528 0.12410708 -0.034511443 0.37106368 -0.36731663 
sequence -0.22243583 0.03583195 0.08137723 -0.028257769 0.3587011 -0.34273636 0.20973334 0.2015854 0.091962256 -0.24642059 -0.48244238 0.19606894 0.12957214 -0.19360955 -0.05014125 -0.1137477 0.1566631 0.16403322 -0.19659191 -0.30687788 0.03927522 -0.111795254 0.03221867 -0.020707475 0.15713665 -0.36242056 -0.08582068 0.09393503 0.2099202 -0.077380806 -0.25731125 0.028829182 0.23455162 0.41843092 -0.35711196 -0.072243765 0.1602789 -0.30135393 0.32930404 0.6215954 -0.279507 -0.012833424 0.060635827 0.32665616 0.20019388 -0.10272912 -0.036018606 -0.019372009 0.13679515 -0.041952204 -0.035736453 0.21494053 -0.21287312 0.20240018 0.21542396 0.021379868 0.24508128 0.4135695 -0.107421346 -0.10506167 -0.27230695 0.27567932 -0.0024724342 0.2121837 -0.27288803 -0.27431777 -0.0007219178 0.0050169583 -0.37581322 -0.066133685 0.10598793 -0.330315 0.05973667 0.3178585 0.052020952 0.1288091 -0.052337095 -0.047459964 0.03848914 0.30142432 0.5215052 -0.17658263 0.35465628 -0.0067952685 0.106059656 0.16908203 -0.17491749 0.23812877 0.032510437 -0.38345376 0.0056858677 0.29469416 -0.11180363 0.0111187585 0.042682465 0.24856974 -0.07393351 0.002549534 -0.112529375 -0.060618207 -0.019176109 -0.31510818 -0.0133998515 -0.11881435 -0.06433138 -0.14987288 0.46181834 -0.055272 0.6400809 -0.3189432 -0.30617458 -0.31617674 -0.14793168 -0.03033663 0.19704184 0.17917988 -0.19935295 0.03187189 0.67464685 -0.30262673 0.028952055 -0.11242142 0.2360363 -0.21113181 -0.22222768 -0.6193544 -0.120428346 -0.06023983 0.44217148 0.20659947 -0.02101829 -0.24193479 0.14470118 -0.18139155 -0.057211332 -0.18066204 0.16378553 0.14946148 0.047611315 -0.16105236 -0.114489354 0.14413713 -0.08016608 0.04914528 -0.05744174 -0.31455067 0.14619672 0.13923885 0.014578194 -0.26505983 0.1521728 -0.2676391 0.10457676 -0.39668477 0.12776335 -0.10326706 0.16233921 -0.15227556 -0.064696744 0.078946844 0.16445446 0.40676346 -0.04830766 -0.20238966 0.2876823 0.0969356 -0.026828254 -0.2677033 0.20028909 0.10498737 -0.049466684 -0.3012441 -0.08691227 0.031558737 0.31657365 0.38116303 0.5419054 -0.13256902 0.30618554 -0.30161193 0.26120463 -0.19933589 0.17230207 -0.11742792 0.083840266 -0.05724367 0.1574878 -0.061195906 -0.37083873 -0.07618092 0.19401327 -0.036449254 0.048178006 0.0022332608 0.2536008 0.10280649 -0.1368047 0.04324101 0.19160925 -0.41581464 
tone 0.29082876 0.6383028 0.20997785 0.18120493 0.44592714 -0.5032614 0.24379496 0.41208023 -0.54505765 0.16154365 0.24441527 -0.204145 -0.15222786 0.06888223 -0.07608753 0.17654935 0.0223208 0.17191191 0.08835646 0.33638328 0.02945353 0.4220384 -0.044558015 0.4091282 -0.05796347 0.39542973 0.4522939 -0.10987972 0.5058058 -0.14708467 -0.25519574 0.143762 0.07712453 0.3268438 0.10244905 0.33318383 -0.0520189 -0.56235236 0.30573326 0.057102993 -0.050541442 -0.036565535 -0.16213937 0.09973673 -0.465598 0.028098403 -0.047814324 0.11691989 0.17146112 0.23928563 -0.38574946 0.035597704 0.04297212 0.4105432 0.46699652 0.1326075 -0.08727518 0.15597306 -0.08961557 0.030922988 0.070752956 0.17090614 -0.33554345 0.19818962 -0.11522766 -0.29298395 -0.21616416 -0.19255307 0.11962536 -0.14930801 0.047777012 -0.060416605 -0.058005862 0.37654385 -0.18174967 0.35900688 -0.080841385 -0.008273312 -0.05129495 -0.12020778 0.4995784 -0.1315218 0.008889334 0.11145222 0.46812254 -0.30359808 0.5061125 -0.14938346 -0.3283274 -0.018773811 -0.22754307 -0.2868899 0.17761426 0.059335332 -0.42961207 0.16459474 0.06956507 -0.17777684 -0.07083616 0.12508453 0.36643773 -0.34587887 -0.100735016 0.1832623 -0.051394477 -0.06593182 -0.047302675 0.08567319 -0.33956826 -0.05334239 0.48723915 -0.31747147 -0.2516516 0.28808662 -0.2500614 0.22639786 -0.32421473 -0.1032338 0.11391034 -0.0819424 -0.4466437 -0.20997965 0.23899588 -0.013257011 -0.26041627 -0.10284155 -0.12562692 0.114695184 -0.2819866 0.3289991 -0.20725691 -0.091348566 -0.052392967 0.22129363 0.08942737 0.009059263 -0.10945803 -0.063843414 0.0054246183 -0.3452938 -0.33876768 -0.12860589 0.40897158 0.08246978 -0.077727616 0.019917632 0.29707482 -0.026338173 0.3262334 -0.038342483 0.03502186 -0.16276054 -0.06323229 -0.20396322 -0.13484977 -0.26061708 -0.028415779 0.0037919334 -0.05951745 -0.046301898 0.25158274 0.39291003 0.086985305 -0.12858391 0.09081117 0.1950542 -0.04437264 0.23080172 0.2892448 0.5672955 -0.042314477 -0.018047636 0.105715595 -0.2583717 -0.033681624 0.05869536 0.5851992 0.1322 -0.000523382 0.10120404 0.15018411 -0.15254614 -0.017338384 -0.04971794 0.021329721 -0.004020007 0.19967484 -0.3066056 -0.20595989 0.06768535 0.43088478 -0.37643987 -0.17499048 -0.23182026 0.35306945 0.34621993 0.2879804 0.11199316 0.29063454 0.04818825 
battle -0.0016901732 0.45816737 0.195395 -0.34442165 -0.09841959 0.11553802 0.017874299 -0.049693145 -0.21692139 -0.32894328 -0.010014569 0.011582333 0.3646167 -0.26757228 0.16251402 -0.24112482 -0.1275378 0.31187275 -0.31811282 -0.39342594 0.1084332 0.12004694 0.070879556 -0.063686386 0.1552904 0.13028459 0.35208887 0.104429044 -0.21709234 -0.0483335 -0.048269395 0.24725434 0.2719866 0.10450198 0.072013795 -0.41484153 0.33340266 -0.089884214 0.22232482 0.44805965 -0.036762796 -0.14929809 0.093844265 0.42864656 0.17503853 -0.38667148 -0.34623715 -0.03437191 0.16120757 0.29572368 -0.20258045 0.12568109 -0.48552302 0.2830297 -0.054277677 -0.14335251 -0.0071498603 0.28927553 -0.36361095 0.078633495 0.1109444 0.11988925 -0.37952885 0.2257804 -0.17922789 0.21656093 0.38188663 -0.06968717 0.16935945 -0.2120754 0.08800472 -0.13150868 -0.11865717 0.10222677 0.34723702 0.37940803 0.08049898 -0.3538666 -0.20315987 0.09085962 0.4150437 0.37541112 0.26348004 0.13288938 -0.13238174 0.24394992 0.022684097 0.18080762 0.15499435 -0.40622187 0.028221888 0.46626863 0.047051758 -0.14165883 0.20911205 -0.2704944 -0.05102673 -0.011149445 -0.012195281 -0.021490872 -0.10755364 -0.1374655 -0.015372844 -0.15957166 0.3749223 0.08679639 0.50526637 0.017315594 0.26759297 -0.1003419 -0.1902063 -0.13058117 0.41236788 0.34700724 0.1549093 -0.26048186 -0.19023891 0.054301593 -0.07948864 -0.23483607 0.31204134 0.15753841 0.29817885 -0.2928937 -0.055668686 -0.09754642 0.14932159 0.29819188 -0.15386912 0.14306977 0.29121596 0.102979735 0.14756839 0.23802231 -0.18561478 -0.27748904 0.10416363 0.011063332 0.04399123 0.14797589 -0.13328335 0.0054106903 -0.24101709 0.08749783 -0.18193527 -0.20111859 0.05459022 -0.12699167 0.17652099 -0.18498021 -0.119489126 0.6194559 0.04035596 0.073824696 0.12503648 -0.20047574 -0.1710734 0.44327942 0.63585865 -0.24829984 -0.14186469 0.4969962 -0.33903673 -0.079577304 0.04937409 0.054660745 0.058021773 0.076692656 0.25441003 0.14048345 -0.38832042 -0.057798743 -0.20524387 0.14001073 -0.24117878 0.24589382 0.3101781 -0.23326448 0.18086074 -0.14739642 0.15703274 -0.24680531 -0.111135595 -0.11398652 0.09768706 0.044671167 -0.032331087 0.14277786 -0.18565662 0.009533782 0.03804816 0.05063919 0.21855435 -0.100661926 -0.044389255 0.24066396 -0.11426273 -0.040790606 -0.0110233305 -0.30835935 
acting 0.26773193 0.05777736 0.112393275 -0.052657496 0.09177954 -0.17762896 -0.25889423 0.09849685 -0.34996378 -0.32124203 0.3638592 0.0008397658 -0.11247767 -0.035095494 0.10861314 -0.3834431 0.10533573 -0.3097391 -0.12705791 0.087020494 0.25695688 -0.17400305 -0.23547275 0.06391631 -0.031485975 -0.2743585 0.43575504 0.01671018 0.32755393 0.15412715 -0.30779132 0.17174675 -0.042707007 -0.37136292 0.120519176 -0.18149889 -0.085635096 -0.14918476 -0.038875982 0.23320746 0.028747207 0.21458904 0.07419752 -0.0541093 0.15142418 0.066521466 -0.20326899 0.04635545 0.2693563 0.26385894 -0.013071814 0.1108603 0.058855746 0.27177855 0.1398897 -0.18482399 -0.50312227 0.12866028 0.17234276 -0.02550033 0.15360056 -0.28593278 -0.06896195 -0.12739725 -0.31241778 -0.16168155 0.22207838 0.17180687 0.043354705 -0.010819864 -0.035074443 -0.050376978 0.16193478 0.40579242 -0.08918376 -0.3840331 -0.17308399 0.103208475 0.07635691 -0.1454446 -0.050680608 0.2788879 -0.036063585 0.23486008 -0.16413948 0.08964595 0.36444882 0.02073335 0.10521726 0.2576586 -0.043243457 0.21259804 0.055544805 -0.022437261 0.28699812 0.46749607 0.008080793 0.36228997 0.42640728 -0.19966745 0.1869087 0.049773403 0.08853326 -0.21821888 0.26419798 0.36905167 0.036854874 0.08798239 0.174504 0.038012214 0.23128578 -0.08281475 0.213063 0.07065314 -0.02646252 -0.16208711 0.18845132 0.032683145 0.111554146 0.08797105 -0.34835258 0.062769 -0.100460246 -0.2912039 0.07237024 0.15832987 0.14401135 0.005982736 -0.18654191 0.21252823 -0.02421576 -0.15771578 0.20289145 0.11507808 0.2481315 -0.3117884 -0.15371923 -0.1497533 0.0058693253 -0.25166932 -0.16166706 0.09469784 -0.09739335 -0.001426201 -0.14023845 -0.2906512 0.04812901 0.027103577 0.3861869 0.14528014 -0.1845561 0.0902615 0.27830303 0.24787849 -0.18034054 -0.15914665 -0.23642297 -0.062930346 0.15950328 0.05764438 0.14226185 0.27256417 0.076607026 -0.51006246 0.23971198 -0.1503711 0.018044299 -0.12854995 0.3992188 -0.29008034 -0.01086911 -0.01742215 0.054347947 0.14625943 0.1683298 -0.13608006 -0.17104594 -0.14511286 0.33834344 0.12041435 0.16644317 -0.29137117 0.34898442 -0.23402202 0.11128928 0.04627891 0.21739915 0.17034467 -0.045456626 0.066663876 0.017126618 -0.12537497 0.054022387 0.10280587 0.02086907 0.07461376 0.08463309 -0.009034 0.04812344 0.0030866042 
comedies 0.29371154 -0.21912359 0.47211078 0.18421848 0.46998864 -0.42105967 0.32871556 -0.1697782 -0.049512707 -0.018506555 0.042689133 -0.36425775 -0.40947047 -0.29345354 0.72211576 -0.23537423 0.17060952 -0.29075024 0.01214004 -0.005057888 0.14954367 0.14288864 0.1419081 0.28803673 0.6362312 -0.031013941 0.26618406 -0.2617836 -0.07623897 -0.15662588 0.005117983 0.29574674 0.20640872 0.10021357 0.5647393 0.037887547 0.56164646 -0.10187763 -0.16715175 -0.064031854 0.32362446 -0.092625424 -0.52039444 0.26664102 -0.18123063 -0.47442636 -0.11097728 -0.034945354 -0.120604105 -0.09990056 -0.038817924 -0.08209751 0.4421919 0.018635469 0.0875485 -0.38762233 -0.03674414 -0.5088325 -0.21126428 -0.47872403 -0.03708937 0.32821262 -0.1410591 0.10988374 0.041588854 -0.28557667 -0.034071352 0.6361548 0.080619335 -0.03374155 0.18589199 -0.35410145 -0.0108634895 -0.16181575 -0.035642873 -0.4493125 -0.104815386 0.028487116 0.16129291 -0.2686482 0.021462474 -0.37595412 -0.03928447 0.1023655 0.18755382 0.45123425 0.19101799 -0.025523167 0.32741806 0.17968409 0.017414447 -0.006652664 -0.070139304 -0.030105313 0.060957026 0.09050217 0.12282327 -0.12808827 0.23129557 -0.22516762 0.28663075 -0.092316486 0.0006092379 0.14461437 0.28042573 -0.20073137 0.17435943 -0.49052116 -0.07027483 -0.49686038 0.009991677 0.09041002 0.0994543 0.11303515 0.07928004 -0.08449129 0.008615712 -0.12681486 -0.018471511 0.50088996 -0.26962298 0.15562207 -0.22243537 -0.46377355 0.25048026 0.06511149 -0.009496087 -0.7837656 0.10236543 0.103598505 -0.4581079 0.019396614 -0.17491703 -0.20382574 -0.21866097 -0.1878984 -0.1365887 0.021440577 0.43937016 -0.17811994 -0.67121565 -0.37600312 0.25000006 -0.04075654 0.3023142 0.12073996 -0.16025895 -0.21461809 0.24745877 -0.18368976 0.40906337 0.04463802 -0.07379696 0.050317857 -0.30729052 0.42270198 0.054140348 -0.0019032108 0.015493039 0.13217972 0.18682629 0.04694239 0.2675979 -0.20354486 -0.03296533 0.37358838 0.09694412 -0.08471115 0.31987932 -0.19716989 0.40912548 0.017766217 0.03184066 -0.21183105 -0.14846444 -0.038728986 0.013651397 -0.58285147 0.84953237 -0.017701726 -0.17423636 -0.27111852 -0.16346957 -0.40530846 0.1263106 0.035052776 0.3810007 -0.0669078 0.14842057 -0.33729318 0.13207068 -0.2000988 -0.105078675 0.53300995 0.51938313 -0.30777726 -0.21431695 -0.34371346 0.20109375 -0.29606315 
