lyrics -0.035889905 0.2385788 0.10817857 0.09881244 0.12075676 0.2612823 0.12229131 -0.27693623 0.14156352 -0.03403271 0.14173904 -0.232002 -0.20479633 -0.12874933 -0.29111174 0.2593482 0.095402434 0.3758371 -0.17076705 0.20235853 -0.18084332 0.029121257 -0.15190399 0.010667598 -0.35619944 0.118047334 -0.046662193 0.07522764 -0.16495141 0.16191977 0.14275134 -0.11369558 0.20761853 0.36795554 -0.32984218 -0.101430215 -0.023863094 0.44464368 0.21817361 0.066605225 -0.1296467 0.11785758 -0.0147325415 -0.18606992 0.295705 -0.09802049 0.15263084 -0.0020922136 0.034023784 -0.14627315 0.10491608 0.33726627 0.081323825 -0.24071065 -0.21481317 -0.24548802 -0.085923985 -0.018415596 0.091823064 0.079324394 0.09910556 -0.034419276 0.019187309 0.0711516 0.09604707 0.1791319 -0.024427831 0.057632826 0.33210692 -0.15791401 -0.034683038 -0.05483704 -0.19388647 0.0280811 0.40309158 0.020921642 -0.089737155 0.17644013 0.035252187 0.08901499 0.03806779 -0.52608335 0.011871423 -0.3254811 -0.10501094 0.3677832 -0.069580786 0.3863498 0.11233935 -0.122361384 0.4728073 0.26820192 0.19885255 -0.06487636 -0.053872544 -0.28135267 0.15677145 -0.0942018 -0.2771353 -0.13350299 0.2186841 0.059198797 0.17771693 -0.030568723 0.06567213 0.0059704003 -0.15297364 0.0746317 0.03743474 -0.12455081 -0.106764644 0.40575522 0.015564405 0.075111814 0.036515377 0.0037215296 -0.3587305 0.2997329 0.070699155 -0.076366484 0.05114743 -0.024494387 0.0038299123 0.017898792 -0.031377517 0.21185938 0.30246675 0.199074 0.15006652 0.45210776 0.03581499 0.03906632 -0.05312 -0.39905813 0.3085845 0.0022780576 -0.13143197 -0.03979557 0.20651409 0.13732105 -0.08792623 0.08603231 -0.19091232 0.15627714 -0.15149046 0.24100389 0.13811147 -0.15050231 -0.02923369 0.21262859 -0.015887646 -0.079949744 0.21545431 0.3928715 0.13989863 -0.07382533 0.1921521 0.013572647 0.18548714 -0.02532747 0.50697476 0.0058557256 0.13234639 0.16083607 0.013050473 0.22908603 -0.06502218 0.0025062242 -0.41806495 -0.0325947 -0.10336244 0.26952663 -0.120066114 0.10634331 0.10290018 0.21321665 -0.19606663 -0.0646498 0.024814345 0.056521453 0.013972117 0.12287471 0.019235067 0.23696728 -0.10908951 0.109603114 -0.240087 0.1266949 -0.25511742 0.29022902 0.1229012 -0.26310456 0.0031581905 0.01218797 0.047051143 0.21310847 -0.17745163 -0.12424287 0.05350635 -0.09639336 
rock -0.016398057 0.23522 -0.2705385 0.037628904 0.14515208 -0.035674613 -0.28101656 -0.18034317 0.258258 0.13294186 -0.10196477 0.032980807 0.02896559 -0.095010795 -0.2004939 0.238035 -0.025435463 -0.19114304 0.31914327 0.39983043 -0.059204396 -0.20958176 -0.117630385 -0.32664165 -0.18349436 -0.15788376 0.26933607 -0.13789208 0.03138718 0.022182316 -0.58157516 0.17756628 0.41934118 0.04262256 -0.12076901 0.13082619 -0.34336516 0.1087569 -0.0019559215 0.03131415 -0.2706515 0.04804488 0.11506787 0.30241814 0.29248103 -0.20715009 -0.16145425 0.06785346 0.3815819 -0.08312987 -0.01977038 0.28899977 -0.15272848 -0.3502345 -0.15687948 0.12884742 -0.08711498 -0.22506224 0.43867737 0.39644665 -0.055108756 0.19203264 -0.10911895 0.058494452 0.0042476994 0.14131223 0.029172977 0.16530466 0.2311666 0.036410633 0.26447958 0.05735857 -0.18990913 0.14991944 0.38862532 -0.25139543 -0.05080688 0.0905407 -0.094811395 -0.10201142 -0.1588338 -0.31813994 0.1573382 -0.44571704 0.058460377 -0.42014408 -0.09920695 0.27292806 -0.03753174 0.23840527 0.24275078 -0.041674756 0.17343749 -0.113720864 0.07249814 -0.027533192 0.35361382 -0.22685006 -0.0024641117 -0.20207334 0.0029223894 -0.038053837 -0.010804262 -0.23856165 0.13196856 -0.11526204 0.09761085 -0.04936539 -0.15529838 -0.031118296 -0.055800416 0.24382429 0.15574987 0.20523362 0.030561829 -0.033470016 0.074634925 -0.077958964 -0.059889786 -0.106704526 -0.04477494 -0.03697569 0.21323441 0.0037083577 0.04027812 0.19320193 0.00401681 0.14223196 -0.065338716 -0.10829572 -0.22491048 0.20320936 -0.14584282 0.06271775 0.017446019 0.1567829 -0.024141338 0.03435207 0.12586966 0.14096949 0.23233467 0.16678874 0.15800585 -0.13861114 0.0020815562 0.20394595 0.50489193 0.339032 -0.0008994249 -0.051826406 -0.11726235 -0.08122192 0.1774358 -0.35953686 -0.058657102 0.31004795 0.3030135 0.17696908 -0.0024125774 -0.05810451 0.05192714 -0.39220566 -0.09665598 0.025129998 -0.03619228 -0.11093609 -0.07350652 0.15263584 -0.067374006 -0.038744748 0.015620225 -0.11158333 -0.0680536 -0.02532585 0.20343259 0.20223926 0.13948941 0.10294045 0.052164942 0.067199506 -0.29622537 0.08530521 0.22147076 -0.083250776 -0.021773523 0.26390436 -0.13409685 0.011747621 -0.28678548 0.031684775 -0.15180846 0.53207415 -0.09403949 -0.04815476 0.13163593 0.033258453 -0.22779635 0.26045257 -0.028503519 -0.13293259 
voice -0.025524309 0.11515263 0.24174325 -0.05623088 -0.052424856 0.27311623 -0.18556324 -0.25532326 0.17746665 -0.1108985 -0.02465526 0.20882048 -0.07455044 -0.11534188 -0.37589356 -0.07790588 0.17275584 0.32065865 -0.074614644 0.10307952 -0.07234761 0.08248152 -0.08656719 -0.30713004 -0.25915357 0.196341 0.3824838 0.052385513 -0.020177862 0.13293074 0.16299053 0.15864305 0.23291038 -0.06342753 -0.25519982 -0.055243492 -0.1104054 0.16473912 -0.17355922 -0.20373045 0.056157105 -0.07276274 0.012786733 -0.2170219 0.204064 -0.32442033 -0.12571387 -0.13423628 0.20076106 0.17346355 0.029267453 0.015581179 0.060277686 -0.25930893 -0.45673338 -0.25799146 0.27059415 0.05428711 0.15677543 0.027396692 0.04371079 -0.06282563 0.20960595 0.008191771 0.28449285 -0.02888371 0.4777711 0.09287119 0.23097861 -0.13124658 0.2506354 -0.018746894 -0.34435248 0.07109146 0.2630623 -0.2911668 -0.20020394 0.024485558 -0.3167028 -0.03463065 0.31810004 -0.48700538 -0.29153824 -0.0030515557 -0.02444693 0.17917708 -0.11065195 0.32069498 0.3389857 0.1473474 0.32617423 -0.38510317 -0.06219475 0.087520026 0.03948545 0.029859591 0.07165967 -0.25891745 -0.38410258 -0.20483519 0.282127 -0.27304554 0.09969978 -0.27866158 -0.32082802 0.18354428 0.0012996107 -0.010614643 0.07659385 -0.12004293 -0.20661682 -0.025234275 -0.11895733 0.30759934 0.11411775 0.13326114 -0.051980596 0.20184834 0.16294064 -0.119054586 0.04042324 0.013248536 -0.33782274 -0.20329368 -0.05579482 0.4376021 0.41975003 0.2085466 0.17267808 0.104955584 0.21147841 -0.2997057 -0.048458852 -0.14460653 0.25661895 -0.19491309 -0.26647598 0.23536469 0.21709293 0.349502 0.16080813 0.07176868 0.13559142 0.22182015 0.3668764 0.42104176 0.01381542 -0.31139386 0.37007773 0.22123572 0.046359852 0.064650096 -0.07814307 -0.00049803796 0.57606906 -0.2895582 -0.020326281 -0.08422584 0.24156605 0.36635554 0.14804345 -0.10793422 0.06418203 -0.18546431 0.13789956 -0.1918302 0.15408416 0.22882316 -0.13750887 0.17827368 0.19017303 0.16583323 0.2528108 0.29818705 0.15319481 0.28350434 -0.1380912 -0.27402613 -0.058600076 0.05537851 -0.6502362 0.024486322 -0.031302433 -0.24508728 -0.08428259 0.1446905 0.16452652 0.038657863 -0.17114712 0.11213693 0.13275917 -0.09352079 0.16726775 -0.0056242635 -0.15769258 0.026504371 0.10747554 -0.15333606 0.08320465 0.041017298 
pop -0.1689814 0.19987823 0.059254486 0.010783065 0.14402774 -0.075979866 -0.17013445 -0.19856863 0.021990575 0.061108112 0.07840102 -0.34275815 -0.22997817 0.05231218 -0.09733739 0.20694338 -0.249456 -0.12732553 0.1629894 0.117525175 0.24010755 -0.06411352 -0.11903768 -0.1755188 0.11152523 0.08958585 0.044994805 -0.15693188 0.02164481 0.28524745 -0.37035236 0.22664234 0.17662239 0.15915203 -0.014516392 -0.19870809 -0.14395581 0.23897612 -0.056067362 0.18491678 -0.01609967 0.2164807 0.2488302 0.013679273 0.13529661 0.035961628 0.0005496609 0.3098877 -0.019027486 0.13243026 0.13240337 0.09404181 -0.04076546 -0.29810667 -0.24925612 0.14376874 -0.08242591 -0.12122058 0.5247639 0.35351434 -0.07965408 0.07817872 0.29329136 0.073184684 0.21050687 -0.011305643 0.11079036 0.13665017 0.057270776 -0.24021298 -0.03517549 0.29082647 -0.17897691 0.1201838 0.2603329 -0.122031264 0.012228002 0.023700023 0.0856534 -0.07113379 -0.14445202 -0.3647464 -0.20346352 -0.43398222 0.0509622 -0.33729237 0.006857855 0.2001799 0.2128126 0.2542111 0.19356458 0.0057581887 0.16816196 -0.08891015 -0.14727895 -0.17062695 0.40213162 -0.1277267 0.012380206 -0.3559797 0.06122518 -0.18914121 0.13879073 -0.07424441 0.07987655 -0.12951837 -0.120732225 0.109157205 0.09986626 -0.28321353 -0.14795648 0.25767007 0.25965133 0.17041194 -0.08518662 0.056815594 0.15232562 0.26738402 -0.051153895 -0.050521564 0.23793057 0.10162733 -0.0018842168 -0.07060209 0.04565566 0.069704756 0.037083533 0.2199821 -0.07068203 -0.044813458 -0.41994232 0.19611284 -0.06855231 0.2549189 -0.2424816 0.063977055 0.11120619 -0.04563704 0.55667365 -0.023352072 0.101709835 0.026929865 0.13693185 0.24296948 0.015389459 0.30382347 0.24611676 0.22139592 -0.112909555 -0.07725952 0.28224885 0.17406492 0.2866487 -0.26642105 0.24856584 0.14269629 0.25846693 0.07538222 0.27490708 0.052184764 0.090114266 -0.009384321 -0.12383722 0.092621185 -0.11160899 -0.2089479 -0.104765594 -0.0392541 -0.28990343 0.1900598 0.020340279 -0.018823862 -0.1899598 0.018578736 0.28256494 0.00083564944 0.019779747 0.25805032 0.14306976 -0.053265356 -0.24574211 0.17336625 0.22084689 -0.19453423 0.16585359 0.17086788 -0.19919728 0.11226093 -0.30819416 -0.012445687 -0.05578097 0.38250473 -0.06812322 -0.011693676 -0.121175 -0.11212434 -0.19007841 0.20752777 -0.025610378 -0.11273857 
band 0.010772314 0.07400407 0.021738864 0.03384145 0.011840296 0.037637677 -0.021092013 -0.18557188 0.53892636 0.25683486 0.14200355 -0.072367 0.08455868 -0.14366706 -0.2925196 0.012909646 0.024607383 -0.0646875 0.03502579 0.2449737 -0.1884287 -0.21858816 -0.060635805 -0.3184445 -0.38122892 -0.043068737 0.11310782 -0.006136373 0.03901085 -0.065472856 -0.1943043 -0.00050672324 -0.0102721015 -0.023658102 -0.251677 -0.10349754 -0.2573392 0.028279815 0.011881505 0.07047297 -0.16865781 0.07581734 -0.08704345 0.29134235 -0.0105474405 -0.114263594 -0.18834355 0.059012327 0.32083288 0.08235247 0.30333278 0.06817471 0.24644835 -0.0048926137 -0.018121658 -0.04994234 0.06574437 -0.33579302 0.17332017 0.15714185 -0.07605221 0.24876598 -0.21871383 0.08076534 0.1158561 -0.041964184 -0.10102135 0.029642716 0.21817276 0.0952636 0.14924118 -0.20342425 -0.046372302 0.244828 -0.29617193 -0.21170789 -0.23299061 0.09666098 0.0080670575 -0.17716347 0.30768463 -0.17038095 0.35639796 -0.20961636 -0.02336385 -0.38389805 0.0109471 0.046768904 0.22945489 0.09491069 0.18586622 0.15386418 -0.30126894 -0.12447352 0.2148614 -0.081406906 0.002520587 -0.07311312 0.14162453 -0.37166843 0.13527423 -0.3664236 0.17504938 -0.14720465 0.08788127 0.13670042 0.38191664 -3.3917495e-05 0.040426172 0.11325472 -0.11869711 0.11355317 0.23721784 -0.22879706 0.07273553 0.043859124 -0.230181 -0.03696634 0.16005003 -0.009601496 0.06349273 -0.050076038 -0.3042424 0.08566421 -0.33860433 0.097366646 0.13693176 0.13728717 -0.06391943 0.31367353 0.060248576 0.43165904 -0.15929459 -0.016192108 0.2260697 0.27847958 -0.32299364 -0.07847357 0.15905282 0.2930782 -0.12521817 0.020845586 -0.11735266 0.15306339 -0.19929077 0.044186573 0.13492113 0.105933934 0.18592022 0.21387702 -0.3377782 -0.043992035 0.3131947 -0.09893667 0.37747425 0.3008541 0.019568166 0.04668936 0.0734469 0.09774992 0.18553534 -0.1966049 0.038012005 0.12998588 -0.073144 0.27997473 -0.105204366 0.006611087 0.059793063 -0.0985601 -0.1434771 0.03848363 -0.10568587 -0.31778234 0.31059495 0.15357888 0.119014695 0.12053234 -0.035720866 0.075474605 -0.33276 -0.19610232 -0.0047729528 0.007713665 0.27866215 0.047229294 -0.04608647 0.028829943 -0.046959657 -0.02520826 -0.2331448 -0.06545755 -0.009142743 0.2906326 0.12278837 0.08966075 -0.17254245 -0.08359953 0.047470767 -0.04932389 
guitar 0.037095565 -0.0014080714 -0.12076612 0.10616059 0.095569916 0.4178032 -0.027628148 -0.081297204 -0.12923135 -0.17833489 -0.04883004 0.024023725 -0.21852681 -0.20350759 -0.014422084 0.0760978 -0.11940475 0.30229136 -0.24686983 -0.0043611275 -0.21767636 -0.012257344 -0.19729894 -0.24687505 -0.34579214 -0.069875054 0.46247658 0.097717546 0.1664394 0.020549528 -0.04140693 -0.014265629 -0.034015223 0.104018904 -0.087140575 0.16369063 -0.17523816 0.11093981 -0.13766968 -0.06310119 -0.17728738 0.0019165494 0.21140724 0.09559655 0.18455644 -0.5973672 0.18274204 -0.20857796 0.053398505 -0.11219585 -0.08323801 0.15215388 0.023196653 -0.4262107 -0.30873287 0.3173159 -0.1353461 0.05555245 0.16626424 0.108830206 -0.02543816 0.13228612 -0.14324091 -0.10518217 0.14680485 -0.23401748 -0.066706605 -0.033453993 0.19713402 -0.109552786 0.4131092 -0.2736952 -0.118194655 0.23946832 0.19637094 -0.38570035 -0.057910226 0.13898641 0.14902698 -0.2832394 0.18438357 -0.55850226 0.19898109 -0.19969212 0.059375577 -0.11929376 -0.072857216 0.09960611 -0.059609726 -0.10699285 -0.24701993 0.23348635 -0.099379815 -0.03104108 -0.113791995 -0.14542772 0.23092066 -0.04554669 -0.3569677 -0.49538478 0.20408191 0.026328314 0.03821223 -0.24046434 0.13406499 0.0578223 -0.02435708 -0.3922426 0.028009519 0.31866264 -0.21869905 0.4519598 -0.16076306 0.19324994 -0.082790345 -0.19658785 -0.09825325 0.20674777 -0.064338066 0.19654982 0.017962923 -0.16248125 0.04261538 -0.15991464 -0.43087327 0.49662146 0.10952061 -0.023076179 -0.25594628 0.14234349 -0.12449712 -0.017854862 -0.30574378 0.19028145 0.22764191 0.0151585555 -0.058959365 0.012513684 0.13349444 0.56709695 0.22698542 -0.03897464 0.32442883 -0.18474153 -0.17369394 0.118341364 0.048665967 0.16850519 0.060469523 0.4152539 -0.07621842 0.014285814 0.31823435 0.034568567 0.074792214 0.0030127792 0.19767423 0.107379295 0.11324212 0.41004816 -0.07952923 -0.36757958 -0.1044772 0.05961893 -0.0679126 -0.39711988 0.091530606 -0.09113519 0.35137576 -0.0058074608 0.05524693 0.08918839 -0.04885752 -0.27933854 -0.042724907 0.16015251 0.107908785 0.21841872 0.042993374 0.095065825 -0.3170605 0.15045753 -0.21771055 -0.29319704 0.06527988 0.31077006 0.033627458 0.06451345 -0.36636648 0.17292799 -0.0663841 -0.1631491 -0.043797642 -0.30034894 -0.14492767 -0.12171972 -0.14936396 -0.24902804 0.14167576 -0.20060988 
beat 0.11880405 0.1190516 0.07889947 0.011189121 0.15597412 0.17778158 -0.12501332 -0.24131283 0.22148435 0.1979735 0.01798707 -0.12659258 0.040547427 0.32015184 -0.006511131 0.031946704 -0.041192427 0.060038827 -0.28184697 0.11325939 -0.19198704 0.03408251 -0.064065345 -0.31965524 -0.050035737 -0.09483974 0.13130058 -0.18027446 -0.21793081 0.033771995 0.23776802 0.028985495 0.19152758 0.2818297 -0.13307811 -0.21893299 -0.08286512 0.47701234 0.039115835 0.0708856 -0.030933246 0.0029209948 0.2611227 0.12348197 0.14696483 -0.36821234 -0.090126015 0.118214846 -0.12226635 -0.24407427 -0.028347762 0.0035827109 0.054002628 -0.14422224 0.07763609 -0.23395798 0.03904257 -0.3830987 -0.10755193 0.046779726 -0.056639653 0.20922701 0.12450437 0.08162356 0.43696776 0.10460496 0.12816826 0.30056563 0.24933068 0.20415074 -0.15068682 0.0046706256 -0.40032175 0.3599572 0.36235258 -0.012265669 0.23023711 0.28362754 0.34379396 0.04515135 0.054004624 -0.48860478 -0.04414574 -0.15311366 0.24295741 0.10662012 -0.010510069 0.48824826 -0.0745688 -0.117264144 0.20810013 0.044210043 -0.06885318 0.049742017 0.056405004 0.37731463 0.31778094 -0.085067384 -0.4208467 -0.3628954 0.18959616 -0.09546927 0.030473795 -0.043808147 -0.09231955 0.2020366 0.06470064 0.35346058 0.21596548 0.18553586 -0.21695141 0.12766257 0.17087416 0.16941091 0.028771682 -0.26601258 -0.22200546 0.16671519 0.2594813 -0.06810188 0.16601887 -0.13829488 -0.16728407 -0.42285147 0.27127445 0.30743536 0.36253452 0.18298607 -0.14813836 0.1893168 0.1823632 0.08471511 -0.22963421 -0.33208773 0.22976989 -0.28747854 -0.18926175 -0.005367294 0.25656635 0.22291224 0.040079765 -0.22173075 0.3039689 -0.058077153 -0.06587854 0.22166511 0.19173555 -0.01274634 0.015472385 -0.11004897 0.07872963 -0.26884177 0.09180058 0.00133117 -0.024945654 0.16116162 0.16254307 0.3466844 -0.3532802 0.03109956 0.060433757 0.16249305 0.07881659 0.08980284 -0.07117424 -0.013482897 0.18752325 -0.10441142 -0.21974683 0.01074274 0.14890876 0.11630318 0.09249391 0.31503698 0.11432784 0.6003206 0.09088952 0.04919221 0.20509058 0.09077568 -0.36033687 0.02834337 -0.06840023 0.020181643 0.12806366 0.107960336 0.004987278 0.041791137 -0.022917269 -0.075812906 0.019510318 -0.0705843 -0.21808062 0.09199259 -0.22211923 -0.11603636 -0.0400436 -0.087457314 0.28445584 -0.15301989 
beats 0.23966724 0.09648853 -0.034398794 0.11476758 0.08816827 0.3255407 -0.13670199 -0.06930083 0.27686146 0.11576652 0.18681423 -0.20760795 -0.048782155 0.1683238 -0.007453314 0.12422308 -0.26369748 0.113608934 -0.2820202 0.031184878 0.120832756 0.062117983 -0.047848538 -0.19198422 -0.011197827 0.20443346 0.16644935 0.032575544 0.016756445 0.08136332 -0.00788163 -0.026517048 0.14496092 0.49312836 -0.35236508 -0.040102914 -0.00563314 0.43690097 0.1820754 0.14402844 -0.17239751 0.2051301 0.17265666 0.029787738 -0.16675332 -0.24745072 -0.044197287 0.21291283 -0.13669524 -0.045288913 -0.10194983 0.27261794 0.016679093 -0.17724991 0.14105442 -0.1233773 -0.10603871 -0.22724722 0.068890676 0.30145925 -0.13106005 -0.19851315 -0.11768563 0.11523773 0.05176305 0.114910595 -0.068086356 0.20543337 0.29069722 -0.16544022 0.03870628 -0.07433961 -0.120122045 0.092510454 0.52289003 0.16587608 0.08194527 0.17250332 0.22685367 -0.00981688 -0.06980775 -0.5974099 0.08072469 -0.2112596 0.08861867 0.14763106 -0.20421629 0.43228638 0.20652278 -0.15571226 0.38252053 0.10561246 0.26563206 0.15535748 -0.07995005 0.12565342 0.19102657 0.14775142 -0.35987568 -0.15402564 0.17596091 0.07543294 -0.034703452 -0.08671722 0.017874766 0.08726996 0.07989385 0.053702798 0.23251311 0.1620379 -0.0029322621 0.3225485 -0.021661382 0.23593415 -0.25756636 -0.13098387 -0.1687185 0.20996147 0.19207776 -0.022076018 0.0046460973 -0.11582712 0.24915573 -0.36873797 0.3452385 0.15954913 0.2519872 0.17047842 -0.087778166 0.33415613 0.023151226 -0.13458802 -0.35449737 0.072833575 0.28555623 -0.37649584 0.029530467 -0.25226057 0.030951576 -0.027555667 0.03552412 -0.08489211 0.40254208 0.0013018824 0.051313262 0.31571662 0.04609527 0.003043469 -0.09373137 -0.14666757 0.04636484 -0.23647583 0.031763107 -0.09825897 0.29588297 0.09244676 0.11256508 0.061274003 -0.35944837 0.104612194 0.41706008 -0.088751204 -0.08013701 0.057921756 -0.06810146 -0.036676418 -0.08009199 -0.053412635 -0.030550888 0.3055716 -0.019872287 -0.03178329 0.06719262 0.3204855 0.039982464 0.30383343 -0.0031232925 0.28073245 0.14736909 0.23877369 -0.19174603 0.18917966 -0.16741903 -0.07943551 0.17517836 0.31972188 -0.38401625 0.029616144 0.35355338 -0.096692055 -0.15468882 -0.35009283 -0.12182519 -0.11132449 -0.29430258 -0.2000885 -0.22413695 0.022497801 0.29924718 -0.3030352 
vocals -0.06720592 0.14776604 -0.014877087 -0.080722585 -0.19864954 0.33687532 -0.11769022 -0.16535158 -0.040983874 -0.15259221 0.10565546 0.09641393 -0.039225135 -0.17718574 -0.102926925 0.04887621 -0.1436076 0.29380035 -0.17445883 -0.0851823 -0.24042071 0.10461502 -0.3211131 -0.13409482 -0.2577422 0.09396965 0.19665895 0.16739574 0.049859863 0.18621285 -0.16000792 0.10537992 0.264278 0.2672436 -0.2332714 0.15500167 -0.24603137 0.30381086 0.002156761 -0.12173949 0.029330693 0.09097039 0.026608773 0.034844935 0.012083388 -0.56166095 0.25303084 -0.0030953698 -0.067668565 0.014564943 0.09409845 0.36998373 0.20053045 -0.15604275 -0.4495215 -0.048316825 0.045338698 0.038419362 0.19715479 0.24809445 0.10038512 -0.00934531 0.054135643 0.047993176 0.091881156 -0.018813564 0.039568745 -0.23667018 0.41192827 -0.12298326 0.35277387 0.01979907 -0.19252118 -0.04063567 0.25318733 -0.17372279 -0.16330168 -0.2019936 -0.095351085 -0.35220551 0.20694466 -0.69064325 0.04265331 -0.0087141665 0.16615507 0.09407377 -0.15093835 0.12182229 0.41076416 0.019190937 0.2981927 0.086418204 -0.006089088 -0.026949855 0.14828417 -0.17921302 0.22820947 -0.13712797 -0.34242946 -0.24376252 0.34021494 -0.043997087 0.25568306 -0.18332861 -0.2307707 0.027175546 -0.033329144 -0.17651589 -0.016972732 0.00016438481 -0.10929357 0.23977172 -0.07595975 0.12542115 -0.18648747 0.008602811 -0.16845521 0.298748 0.2312489 -0.028125266 -0.19467285 -0.04851599 -0.14152674 -0.26167586 0.03616108 0.26142082 0.12701209 0.2833819 0.17110263 0.440768 0.19504392 -0.14390223 -0.09077658 -0.08892066 0.31565586 -0.13286968 -0.13910465 -0.023714254 0.012261575 0.20044829 0.08791091 -0.026366765 0.08220835 0.1578932 -0.009761963 0.41921166 0.13021354 -0.34022304 -0.063132964 0.27222306 -0.034526985 -0.082892224 0.09536179 0.0124275815 0.3609928 -0.045324508 0.11364853 -0.16565591 0.24407995 0.1390177 0.31023863 -0.0032539205 -0.05182982 0.015138815 -0.03311808 -0.23234166 0.093767375 0.14870445 -0.19165042 0.2829742 0.17911753 0.07257762 0.018676981 0.10457488 0.18325324 0.39464754 -0.10145348 -0.041754413 -0.008148974 0.17723407 -0.38688672 0.1909039 -0.025810594 0.020947346 -0.102131076 0.31866497 -0.056281727 0.1815788 -0.12011577 0.12666745 -0.010510973 -0.29324323 -0.16244493 -0.21546187 -0.044454757 0.18901137 -0.22566408 -0.19766329 0.25502145 -0.12552091 
rap 0.107011214 0.08281056 -0.050956722 0.14622433 0.07665304 0.09612536 -0.20245698 -0.40327734 0.21146682 0.14564277 0.159114 -0.2667328 -0.02403658 0.056728374 -0.049375795 0.5008452 -0.1914321 -0.31510946 0.26605543 -0.039050244 -0.009144526 0.27910307 0.20804898 -0.10334708 -0.1380325 -0.12768972 0.26290283 -0.025193363 0.042520564 0.18419404 -0.1563434 0.13214928 0.10298258 0.24785903 -0.062383424 -0.30893636 0.124025166 0.27777842 0.30351952 0.21764547 -0.07915626 0.18362935 0.18817045 0.057324078 0.16497613 -0.19706677 0.15588881 0.2686444 0.30814034 -0.1763808 -0.045507062 0.2853811 -0.21799402 -0.21566339 0.055857822 0.095093586 -0.025685696 -0.36346722 0.18539816 0.49901074 -0.26453158 -0.038620923 0.085784234 0.14930373 0.22501695 0.31528795 0.2850044 -0.050650064 0.010012078 0.1240507 -0.21675628 0.068168886 0.09169429 0.16088559 0.28984812 0.059499905 0.10251578 0.36345777 -0.08431038 0.08783043 -0.20036256 -0.26678413 -0.027315859 -0.4758903 -0.10355225 0.014583454 0.16229294 0.25615823 -0.042190213 0.3933681 0.07834254 0.022594495 0.34421986 0.21450669 -0.06296498 -0.05003336 -0.11205762 0.10889391 -0.025938198 -0.27534965 0.087339595 -0.29039234 0.00017324879 0.27563882 0.34983423 0.0475961 0.038346577 -0.14460354 0.053194527 0.19474235 -0.057931926 0.1499106 -0.088973 0.22875755 0.14867274 -0.11799518 -0.030972054 0.010852627 -0.01921749 -0.16679661 0.07579686 -0.024073021 0.22828512 -0.11305353 0.18815716 -0.022894453 0.15671962 0.46663222 0.04088875 0.14063045 -0.0994275 -0.022054257 -0.12987298 0.43582347 0.06704812 0.15069225 0.12936796 -0.14029408 0.11945646 -0.0318562 0.073425196 0.21136051 0.18872145 -0.05208169 -0.023199823 0.2609553 0.18101422 0.18053249 -0.0868112 -0.054304406 0.17874591 0.21120855 -0.22506551 -0.06353538 0.15224811 0.08037104 0.19180192 -0.061422206 -0.33360267 -0.014017201 0.33706528 -0.22421387 0.17381711 0.24192572 -0.06050116 -0.12827924 -0.07485473 -0.29451126 -0.17486916 0.09926458 -0.16162887 0.0237461 -0.0065936954 0.19782417 0.15255706 0.11714875 0.009720302 0.4045639 0.22811487 0.047476243 -0.33394286 0.13343696 0.06333091 -0.2967713 -0.06927682 0.14574014 0.005766134 0.2597251 0.14968061 -0.5227844 -0.15658468 0.49455544 0.12971033 0.30577806 0.08480294 0.080966435 -0.0069729765 0.117450766 0.03395507 -0.17529146 
artist -0.079677954 -0.120601065 0.3517905 0.048984416 0.11124078 0.18012333 0.01614216 -0.43220484 0.2852116 -0.0035137862 0.11576354 0.10013401 -0.05509882 -0.04641149 -0.32202432 0.35963354 0.17579849 -0.0409019 -0.09013376 0.20247303 -0.061360408 0.34802663 -0.12517518 -0.18646616 -0.101912685 -0.15676408 0.3535549 -0.05616269 0.2010935 0.16785173 0.16469577 -0.09070548 -0.21671888 0.05603986 -0.16620293 -0.4126316 -0.3643536 0.24232663 0.165169 0.034082413 -0.19063519 0.16915454 0.052964043 -0.03701068 -0.2761664 0.023305576 -0.28890648 0.1600728 0.40763626 -0.10757132 0.09416993 -0.08633836 0.32415628 -0.054859865 0.0719395 0.018379364 0.1710733 0.016657518 -0.07510341 0.319497 -0.032715656 -0.060379993 0.08836842 -0.23805805 0.17117034 0.062230926 0.18208751 0.2637538 0.018802607 -0.09472534 -0.044441227 -0.054520007 -0.3267762 0.70394397 -0.064593926 -0.41978258 -0.23871718 0.41538244 -0.13833572 0.015851121 0.02556654 -0.17317428 -0.1054636 -0.1367788 0.024425805 -0.028830584 -0.039591096 0.19603068 0.24524802 -0.0716955 -0.13869658 -0.14391562 -0.21611531 -0.13087095 -0.12830973 -0.06912796 -0.09664931 0.015069375 0.08716778 -0.18114272 0.05106344 -0.49685073 -0.084362 -0.15959589 0.04355418 0.1283822 0.095806904 0.048968196 -0.0038045608 0.14096709 -0.1507251 -0.065153815 0.16698447 -0.00015751702 0.20125642 0.08693065 -0.2147384 -0.049071703 -0.0057152454 -0.18310255 0.14414339 -0.16212815 -0.22679728 0.067561835 -0.24232396 0.17239557 0.3791546 0.43332452 -0.020280194 0.09338601 0.08542629 0.31152642 -0.07450603 -0.2516687 0.3172158 0.30057117 -0.35702872 -0.119929545 0.15541725 0.25921363 -0.17266913 0.14422092 0.09899882 0.19730327 0.19699124 0.054860618 -0.013046514 -0.10511452 0.020969912 0.10554484 0.06916416 0.05452143 0.21676329 -0.27767792 0.5236882 -0.0053923875 -0.1757109 -0.2508371 0.06582243 0.24231023 0.28880063 -0.16108578 0.0034491122 0.32006904 -0.3011256 0.33001074 0.15120403 0.06931625 -0.1052846 0.060724597 0.17444251 0.16541374 0.088428736 -0.03736051 0.1872602 -0.037674375 0.017354077 0.0849186 -1.4774055e-05 -0.30060154 -0.3093464 -0.07779113 -0.28850067 -0.119005725 0.07931793 0.14194322 -0.21035221 0.007449059 0.0607159 -0.1885342 0.12096619 0.09243823 0.16395773 0.45264828 0.08324817 0.012543047 0.21879075 0.05989127 0.15133964 0.038267683 
stuff 0.31866837 -0.032618843 -0.012268206 0.08798911 0.17182265 0.30022863 -0.19479987 -0.27443734 0.34425285 -0.0021988114 0.025243863 -0.19227067 0.27928296 -0.18849447 -0.08950939 0.021343842 -0.39527443 -0.18894628 0.25210983 0.21665704 -0.18031028 -0.22225043 0.0695039 -0.027654963 0.11357922 0.040300068 0.3207309 -0.054761045 -0.30297482 -0.031169293 -0.12338336 0.024053393 0.17542894 0.17630301 0.066663325 -0.08082623 -0.11406343 0.081175275 0.12781435 0.0067538 -0.27466005 0.1094995 -0.17793022 -0.1157732 -0.14743322 -0.09274757 -0.021942263 -0.009961288 0.1653675 -0.2838468 -0.4036828 -0.15343 -0.13232942 -0.048243415 0.12136911 0.07367333 0.028831854 -0.1776404 0.059220526 0.21120353 -0.0030180009 -0.13550383 -0.16943738 -0.35761014 0.2615075 0.09469419 0.1369597 0.033483796 -0.041497327 -0.0041383966 0.13460223 -0.28429192 -0.23681737 0.32116893 -0.023295667 -0.15891075 -0.21901006 0.27056807 0.3663438 0.14613265 0.13481466 -0.09836904 0.32242253 -0.23105705 0.14065188 0.11439626 -0.2966766 0.22824977 0.3429537 -0.2871292 0.13189298 -0.013483798 0.23756045 0.20477864 -0.1568935 -0.05199908 0.14235039 0.019097924 -0.15316044 -0.27352506 0.26569587 -0.17847362 -0.013332599 0.008848684 -0.069023535 -0.36234537 0.04594811 -0.050849535 -0.14218162 0.041679785 -0.17966935 0.07810673 0.054068502 -0.04486046 0.03473367 -0.053545434 -0.25251544 0.2681291 0.049977884 0.08162244 0.46904093 -0.29320055 -0.15209135 0.13625719 0.0712542 0.43837485 0.14147559 0.15915793 0.10020962 0.0504039 -0.10726598 0.096074596 -0.25884894 0.2274403 -0.2168709 -0.0921505 -0.0057348236 0.030456448 0.15270841 0.32118332 -0.026684944 0.09751624 -0.008796772 0.23419073 0.09356382 0.20495352 0.23909655 0.15966438 -0.22919537 0.11987767 0.11411074 -0.18647255 0.001677453 -0.1543618 0.117506996 0.06327331 0.17280783 0.032612853 -0.18482648 0.27224138 0.32347795 0.13461968 0.045364283 0.08095045 0.07111597 -0.1295177 -0.107698575 0.13218392 -0.05913039 0.19228682 0.08029306 -0.3114368 -0.038583644 -0.1345632 0.06898654 -0.062216446 0.22318903 0.08113929 -0.06459743 -0.013262607 -0.32107547 -0.09504382 -0.08348726 -0.209289 0.18112153 -0.09705885 -0.22828269 0.109479204 0.25166923 0.23735318 -0.0079611335 -0.158588 -0.14889345 0.19968657 0.18095216 -0.16825783 -0.17112935 0.09689498 -0.14948848 0.0032934372 
material 0.21570842 0.012804115 0.0522963 0.15139411 -0.025783338 0.44950467 -0.22987434 -0.10211841 0.27971908 0.1510578 -0.039110504 -0.008883663 0.1718835 -0.05542364 -0.17858814 0.1432985 -0.23343801 0.09719461 0.5371342 0.072986424 -0.13425769 -0.03754433 0.08649059 -0.14471717 0.053061157 0.14107083 -0.0040361458 0.013390274 0.031064859 0.08275594 -0.19959207 -0.02499611 0.02559703 0.19810288 -0.046512786 -0.12801148 -0.20840496 0.00078287884 0.09901012 0.1029455 -0.16596323 -0.03948884 -0.0400475 -0.3997923 -0.16671357 -0.009009677 0.05552712 -0.16786389 0.22227502 0.010470187 -0.2800924 0.005130345 0.041756045 0.1514988 0.09133589 -0.042069037 0.12627442 -0.106685355 0.124138996 0.21196234 -0.038668524 -0.14174047 -0.36301413 -0.4902645 -0.013992429 0.14995255 0.070635565 0.004126605 -0.15564756 0.03599861 0.0141605055 -0.031127756 -0.2549528 0.30903277 -0.01877331 -0.081471205 -0.27273858 0.019564778 0.2166503 0.10811368 0.14346221 0.07371479 0.04919547 -0.19840848 0.21276405 -0.017622607 0.055722397 0.16558032 0.12684427 -0.14228015 0.17539687 -0.16009916 0.15074725 0.28014028 -0.20197389 -0.12839404 0.1565978 0.05100769 -0.32448557 -0.07651379 0.34740812 0.11850008 -0.17761813 0.07053339 0.079526305 -0.33244848 0.20650838 0.19870627 -0.07683822 0.082322374 -0.080622464 0.03867423 0.069907114 -0.035790846 -0.14987844 0.24773842 -0.078221604 0.15305826 0.04519627 0.08950214 0.3328156 -0.33757874 0.17744474 0.12621544 0.0052546207 0.24711047 -0.03818229 -0.18824027 0.3759638 0.023489228 0.14560717 0.080661364 -0.32706082 0.17979315 -0.26544613 0.007957821 0.016750526 -0.19654933 0.043794874 -0.050652362 -0.08080282 0.16254999 0.036370724 0.4320484 -0.044898666 -0.12638071 0.11024692 -0.23398556 -0.03622176 0.32600456 0.08109967 -0.1767747 0.22075282 -0.26652402 0.27301136 0.025218256 -0.07545471 0.10505567 0.13653 0.26142612 0.06922797 0.24167444 -0.06889121 0.17197789 0.09450953 0.04963375 -0.27819383 0.117663294 -0.0063521257 0.5886949 -0.1509968 -0.110110976 -0.1008285 -0.07224454 0.034937304 -0.12139777 0.23286484 0.14107691 -0.10404146 0.25416282 -0.54853946 0.046883505 -0.11077421 -0.17321411 0.06522719 -0.10824954 -0.48138836 0.31607744 0.08203303 -0.018641023 -0.29655394 -0.13909389 0.22510512 -0.026881646 0.049411364 0.09131773 -0.06448045 0.10042385 -0.016685195 0.11814798 
solo 0.016955538 -0.09958745 -0.03213629 0.3301073 -0.023610864 0.27136296 -0.16009064 -0.010760211 -0.4196489 -0.22987124 -0.26668882 0.060824282 0.24764682 -0.28432688 -0.045097314 -0.003221195 -0.29308093 0.35733825 0.3440416 -0.008111268 -0.042592943 0.07441737 0.13941363 -5.2373172e-05 -0.15051986 -0.13003953 0.40149602 0.1800248 -0.05248805 -0.01716333 -0.20912611 -0.22534111 0.08052927 0.17584679 -0.14751327 0.048383202 -0.13878462 -0.1910915 0.05560052 -0.10408643 -0.20729837 -0.11128712 0.34312147 0.20893195 -0.13917093 -0.10893754 -0.22771052 0.08963288 -0.02949042 0.086585805 -0.060961742 0.24345365 0.15237918 0.004406991 -0.19111204 0.12263701 0.14087167 0.36042672 0.11981539 -0.13651487 -0.23474772 -0.058255844 -0.41552275 -0.19826517 0.26639107 0.034111146 0.38791767 -0.05311898 0.082177565 -0.40488097 0.08928601 -0.17352019 -0.05870944 -0.0044457074 -0.20087513 -0.31823727 -0.22184554 0.19138773 0.2671998 -0.16128708 0.120995045 -0.30474263 -0.1426013 0.22678895 0.29553673 -0.0031195602 0.26678544 0.34473976 0.221074 0.14402917 -0.19054723 0.27026525 -0.16709933 0.100126095 0.04305502 -0.17129152 0.1388888 0.21384133 -0.20136113 -0.5676552 0.27851403 -0.23346716 -0.300083 -0.16732809 0.112238325 0.032893095 -0.029341212 -0.103890084 0.19506879 0.15884833 -0.18193667 0.024678478 -0.10613966 0.23124647 -0.08075292 -0.1789143 0.27878606 0.24640796 -0.2371226 -0.037100777 0.29835147 -0.26841873 -0.2897169 -0.10099876 -0.24083947 -0.005074485 -0.23780806 0.12706117 -0.06266797 0.36161178 0.15338866 -0.12050187 -0.36350942 0.06811151 -0.20093054 0.012011409 0.053643066 -0.23112494 -0.070667036 0.2605117 0.31443152 -0.07244438 0.07854815 -0.028363885 0.012912898 0.056552764 0.068843424 -0.09382417 0.028959718 0.32075992 0.06579989 -0.1442174 0.08837868 -0.29724124 -0.053191274 -0.02158473 -0.13546635 -0.185352 0.30357 0.41691896 -0.047709472 0.1330902 -0.26464793 0.38461483 0.10611746 -0.19169621 -0.16763476 0.3216726 -0.060144335 0.21428539 0.20429413 -0.2378789 0.019206014 -0.44222566 -0.011149192 0.25866136 0.23652215 0.0776496 0.079482324 -0.009373476 -0.1633846 0.13050498 -0.13192528 -0.53327864 0.02540348 -0.07933015 0.04768739 0.19208182 -0.09913003 -0.069784254 0.29804242 0.14514722 0.12340566 -0.22963914 -0.011465118 -0.3147976 0.04139804 -0.39443052 -0.18095727 0.060874388 
tunes 0.14419448 0.09411396 -0.109152354 0.07085433 -0.039076287 0.2988695 -0.05749965 0.067072086 0.20330574 0.046261493 0.10070306 -0.27216196 -0.10781188 0.032029867 -0.36688554 0.011890531 -0.15142158 -0.12076127 0.22018962 0.10807326 0.08328545 0.03049031 -0.19235878 -0.15801921 -0.032389116 0.3208879 -0.039238296 -0.19211492 0.0894669 -0.21989118 -0.016042097 0.007744178 0.15287583 0.17749606 0.07466378 0.139116 -0.37995207 0.23171584 -0.008215374 0.006210825 -0.27044895 0.10846119 0.016103521 -0.12186367 -0.06547873 -0.15308924 0.03601114 0.13224955 0.02304265 -0.2861061 -0.13410184 -0.029787704 0.13077956 0.15347064 0.27565676 0.07616062 -0.24888265 -0.037911132 0.05989187 0.19153929 0.09819565 -0.046378788 -0.11738863 -0.24773134 -0.02697516 0.00011128971 0.20125858 0.032429256 0.15299396 0.04097598 0.06462106 -0.12438342 -0.1087572 0.25055844 0.16935067 0.122972555 -0.049866304 0.10043074 0.21565455 0.1048717 0.04960123 -0.5376719 -0.1191042 -0.3825169 0.22532421 -0.0054356866 -0.20056812 0.14241822 0.2887438 -0.16854209 0.41509002 0.04012073 0.080922544 -0.019972473 -0.4007051 0.12514934 0.26518226 0.069700256 -0.19277261 0.0002723608 0.16122341 -0.06740367 0.0056275437 -0.17190196 -0.057231106 -0.17964025 -0.10909799 0.026142456 -0.041297276 0.12708381 -0.2843194 0.35994658 0.3180458 -0.12100546 -0.2804427 -0.019472344 -0.21480507 0.01953873 -0.10183995 0.043488372 0.14392841 -0.44268796 -0.0427091 0.23585881 -0.010207209 0.29696763 0.13210678 0.25842398 0.19147678 0.121166475 -0.25532353 -0.17313547 -0.2999079 0.06833203 -0.00907786 -0.016865717 0.06555224 -0.25744447 0.34269172 -0.058052473 0.21965007 -0.11310088 0.03691457 0.15240589 0.12447327 -0.11052738 0.322091 0.086875014 -0.1138194 0.007959563 0.13524063 -0.17018351 0.2812501 0.013379418 0.09529173 0.14665847 -0.019954473 0.26826572 -0.0368082 0.30013683 0.16365632 0.0023655628 -0.05869903 0.14312562 0.12277183 -0.16371167 -0.22909676 0.12267556 0.05649047 0.029044122 -0.09267441 -0.0043523307 -0.01046291 0.03315089 0.08289781 0.06695734 0.23508357 0.010469176 -0.041186817 0.115606606 -0.26300108 -0.27626812 0.07486096 0.047745496 -0.095300384 0.14041322 -0.43280792 0.16185138 -0.12029283 0.23796198 -0.23267668 -0.23806739 0.19491246 -0.022687634 -0.075462654 -0.010429754 -0.18422225 -0.024778867 -0.2892885 0.021021167 
talent 0.049842983 0.104950085 0.24481231 -0.08190633 0.20041071 0.49343368 0.102105044 -0.25917867 0.3731873 -0.028234717 0.09095257 0.056731116 0.046172734 0.29350734 -0.34917948 -0.0362417 0.04381463 0.3173617 0.2958305 0.21820553 -0.08774686 -0.10000212 0.12998183 -0.38419476 0.056286965 0.058459617 -0.021937732 0.09466411 0.16915506 0.29763746 -0.033519607 0.2123832 0.15207396 0.28553012 -0.22446474 -0.3443707 -0.09388021 0.08778783 0.14273605 -0.19498162 -0.00031288588 -0.123989634 0.3100748 0.08977486 -0.15840997 -0.1057612 -0.10587594 -0.09613127 0.2122732 0.0997163 -0.18584925 0.016314233 0.10468956 -0.5299604 -0.19111785 -0.20764889 0.2970143 0.08136262 -0.015548253 0.0869079 0.1441516 0.06394067 0.19052511 -0.25354087 0.050811805 -0.10606473 0.37920055 0.059649687 0.2647162 -0.27793315 -0.0135356365 0.06561911 0.08064693 0.16823462 -0.13497883 -0.4097339 -0.14555474 0.20037434 -0.15791056 0.052962385 0.014024549 -0.39506984 -0.24438125 -0.033959772 -0.15289277 0.2807242 -0.06689578 0.20454094 0.32567582 0.016210072 0.346729 -0.13130672 0.034258485 -0.12827066 0.086076096 0.18375538 -0.020876115 0.02823198 -0.23999815 -0.0640323 -0.007472608 -0.1957128 -0.10029483 -0.061694983 -0.09484678 0.06459516 0.3822506 -0.07354696 -0.2950791 -0.31839883 -0.088838555 -0.11160512 -0.034741484 0.40292987 0.13512526 0.43684658 0.17537181 -0.027163364 0.33133364 -0.10942937 0.19984156 0.03214265 0.04060175 0.2554143 -0.38721484 0.37250295 0.32012415 0.32228237 0.22325374 -0.048957277 -0.024678202 0.15806726 -0.2864458 0.32087892 0.13408318 0.24160884 -0.103485644 -0.12989886 -0.11195041 0.2760146 -0.05883813 0.069014914 0.051999427 0.13308331 0.18256934 0.41026175 -0.14174663 0.06934912 0.06274856 0.15451428 0.034106478 -0.08206573 -0.15385205 0.043164443 0.45325702 -0.1256304 0.0054186424 -0.14785038 0.11130268 0.1116787 -0.016116079 -0.4122986 -0.19055416 0.29832423 0.081526 0.18138796 -0.013406902 0.03546465 -0.23492208 0.11615783 0.22579052 0.03566869 0.16366501 0.1571822 0.15827438 -0.34353417 0.33828914 -0.26839146 -0.1357785 -0.0067841853 -0.6867497 -0.39671266 0.0022832872 0.102152444 -0.1088028 0.11429803 0.13265069 0.27191967 -0.25410637 0.10157355 -0.025370598 -0.13312376 0.5427268 0.13249035 -0.17070225 -0.14526045 0.064579174 0.033155825 0.24233946 0.23475696 
blues -0.23168898 0.20715147 -0.29394737 -0.061552122 -0.1034257 -0.14010769 0.36451063 -0.1970414 -0.007459447 -0.007996963 -0.17638905 -0.14540687 -0.00626034 -0.07629803 -0.045362763 0.14544006 -0.12375363 -0.061117075 0.24260658 0.45111567 -0.033447824 0.06011109 -0.17837599 -0.2884863 -0.4081182 -0.44899642 0.6081963 -0.023287855 0.20601194 0.01611245 -0.5823277 -0.18774554 0.18181817 -0.039980736 -0.04424381 -0.007309321 -0.25860444 0.03027747 -0.024894122 0.38562506 -0.004229936 0.1083762 0.32501766 -0.20505093 0.14030556 -0.1963848 0.17539783 -0.03752437 0.341826 -0.34017444 -0.17579012 0.07414861 0.0072136275 -0.08465995 -0.008744703 0.3709671 -0.12037355 0.017495131 0.067880504 0.29622164 -0.19349499 0.19967614 0.12127669 -0.13960572 -0.11842928 0.21784465 0.4333288 0.22474165 0.44766945 0.109586746 -0.07883203 0.0778973 0.21018638 0.6582146 0.15265656 -0.012606359 -0.097509444 0.13431598 0.14132065 -0.024634669 0.027375849 -0.20857958 0.04775242 -0.52134645 0.017285699 -0.2278556 0.015415356 0.16444196 -0.0352763 -0.002806412 0.18993968 -0.029964065 -0.09683777 0.04970736 -0.14162777 0.18569595 0.08613416 0.18434528 -0.2994208 0.03076787 -0.03275586 -0.049572513 0.10647114 -0.13996173 0.24677128 0.33273873 0.27461776 -0.16805795 -0.2044884 0.2890067 -0.021164678 0.35049072 0.10573559 -0.09482228 0.059652537 -0.1581688 -0.12999465 0.009572886 -0.18554981 0.02689958 0.18835105 0.051801685 0.31581733 0.09645805 -0.1830216 0.038147755 0.206259 -0.13458377 -0.13360204 0.0011964892 -0.01593913 0.17098856 -0.05080451 0.2618214 -0.25446188 -0.058484178 0.014198222 0.048003916 0.08499291 0.23881485 0.43924892 0.056728583 0.0026476223 -0.03790159 0.06361465 0.17529973 0.494464 0.25128728 -0.15947238 0.28906727 0.08166602 0.17906414 0.26482308 -0.282142 -0.29278734 -0.07606389 0.21534385 0.2369222 0.34207526 0.11791134 0.21132067 -0.53454417 -0.12370518 -0.17897789 0.09504185 -0.31059226 0.19285874 -0.025714707 0.37939817 -0.21169941 -0.2317423 -0.22128086 -0.23380513 0.022204418 0.42120865 0.17211886 0.16243027 -0.11693359 0.16296051 0.12360258 -0.12133897 0.04501489 -0.13114151 -0.12453382 0.09760861 0.109718025 -0.023999598 0.20474204 -0.52977735 0.27335373 -0.2283115 -0.012574347 0.09192397 -0.09613996 -0.09380725 -0.16026236 -0.16515936 -0.048949003 -0.08673992 -0.006613936 
melodies 0.17519662 0.19772474 -0.08064247 0.12167023 -0.04839438 0.36256802 -0.022014609 -0.09788538 -0.041031178 -0.07116699 0.038462337 -0.2681572 -0.3040963 -0.0062503256 -0.3473481 -0.19740605 -0.023440026 0.53209305 -0.24101721 0.19750245 0.12196828 -0.20565493 -0.18624413 0.01595406 -0.010579199 0.30509174 -0.009713834 0.11860777 -0.13570644 0.09578157 -0.09368284 -0.19014262 0.18224345 0.31910813 -0.38105422 0.00286983 -0.22404921 0.27496687 0.08593349 -0.14097819 -0.19280629 -0.015153807 0.115631245 -0.26462293 0.09222416 -0.093617946 -0.050828584 0.30721906 -0.19364314 -0.16761555 0.022367222 -0.009412378 0.123407036 -0.16925944 -0.3567426 0.036231026 -0.3424271 -0.07413677 0.20219718 0.19364868 -0.0008167685 -0.16680753 0.037954442 0.01708523 0.03264895 -0.172961 0.11414683 0.027433217 0.18242055 -0.21037462 0.20836486 -0.21330234 0.013337217 -0.07610369 0.34570262 0.27110556 -0.034203336 0.13204089 0.008575386 0.0058014584 0.064406864 -0.70199484 0.021461466 -0.22821014 0.21734212 0.10612759 -0.27179903 0.121521816 0.31452322 -0.14777936 0.42960218 0.12909882 0.19721398 -0.13499515 -0.066770524 -0.097582966 0.45528793 -0.014026364 -0.30206737 -0.0880923 0.35069105 -0.057329338 0.051127315 -0.32583055 -0.10306376 -0.12559192 -0.10929787 -0.017342228 0.15779635 -0.0178323 -0.1355293 0.42786822 0.013917471 -0.08997581 -0.30632138 0.1480853 -0.015319753 0.1324258 0.009025015 0.24420732 -0.0155711 -0.097040646 0.015022534 -0.1139055 -0.12902345 0.18250567 0.1445201 0.01902791 0.07493222 0.3012581 -0.060991425 -0.027593022 -0.3296539 0.22652487 0.24357681 -0.12269521 0.0246881 -0.28923947 0.24826661 0.054196898 -0.016200176 -0.05265854 0.12467469 0.22878006 0.01821489 0.23134923 0.05102544 0.07855254 -0.0813046 0.2610213 0.27431494 -0.20362699 0.17386475 0.24235873 0.08287493 0.09634895 0.14924145 0.1531377 -0.113695264 0.16350017 0.2027914 -0.13499793 -0.17775404 -0.015370549 0.1185304 -0.22065902 -0.15020621 0.07135594 -0.098033026 0.1498507 -0.026028296 0.08623111 -0.03401787 0.019869689 0.016137298 0.20096391 0.05782916 0.19930133 -0.05214826 0.007397147 -0.18843383 0.08117538 0.0140063455 -0.007140264 -0.11336418 0.22579701 -0.53201556 0.027762627 -0.23227516 -0.034717187 -0.18843865 -0.303548 0.20966023 -0.3746372 -0.4340346 -0.19754362 -0.06929029 -0.20087905 0.25552458 -0.21011564 
piano 0.119034365 -0.07797865 -0.09864989 0.11286014 -0.02405244 0.20766124 -0.08983343 0.061844435 -0.21548261 -0.26365873 0.065071456 -0.009545474 -0.11030123 -0.017295023 0.093881145 0.3459138 0.008023354 0.17773354 -0.17956544 -0.0678732 -0.0992191 0.20173058 0.02608566 -0.023004709 -0.06617793 -0.13974841 0.2821191 0.14407882 0.05195345 -0.27400336 0.077684775 -0.20450771 -0.01698153 -0.07698894 -0.23787782 0.04553017 -0.22316732 0.17597468 -0.13866282 -0.06559877 -0.1122172 -0.2860906 0.11112768 -0.062077127 0.33344135 -0.29020676 -0.20885938 -0.2427759 0.054404404 -0.13941905 -0.0151749635 -0.025676066 0.060373843 -0.32767642 -0.49477118 0.3345331 -0.24419625 0.20410265 0.041196354 0.14096835 -0.25002918 0.12585701 -0.045124274 -0.1409928 0.12606601 -0.38660297 0.13407022 -0.059598826 0.06696388 -0.12217288 0.09532201 -0.34210014 0.3596826 0.13831204 0.12295447 -0.34855276 -0.3627142 0.169623 0.3764126 -0.07443867 -0.113788985 -0.20411049 -0.0038046215 -0.11195406 0.077611804 0.12226283 0.035562567 -0.0054272544 -0.069984585 -0.43773246 -0.08593084 0.1940253 -0.004877562 0.06145683 -0.14419414 -0.031605374 0.15362069 0.19166224 -0.50306666 -0.590536 -0.024350014 0.07224588 -0.079158254 0.009601154 -0.019695105 0.0069494154 -0.06501867 -0.41654843 0.005015592 0.18082894 -0.39693278 0.27955565 -0.015217143 0.2130475 -0.10597823 0.016019452 -0.067462705 0.09190269 0.086190745 0.0418519 -0.017860617 -0.18672717 -0.0781416 -0.24873716 -0.20918798 0.10341905 0.2900163 0.20929576 -0.06551524 -0.075755164 0.056717284 0.08025362 -0.2706677 0.15234293 0.33250147 0.058782347 -0.15607531 -0.16892026 0.07194899 0.3912815 0.20363338 0.06876759 0.28815493 0.16015606 -0.1473655 0.20757908 0.3291051 0.28577414 0.046409212 0.22258678 -0.15077642 -0.16043836 0.3009098 -0.051642735 -0.03209354 -0.06725965 -0.041933924 0.045493685 0.3975354 0.23565383 -0.07295628 -0.6452337 0.07591472 -0.122671805 -0.018988721 -0.38956955 0.37857825 0.09051638 0.081961475 -0.074021384 0.10061166 0.20230716 -0.038307738 -0.42026877 -0.013836147 0.36808783 0.14788811 0.17626962 0.16135575 -0.008434394 -0.2795342 -0.03586963 -0.06372476 -0.33133256 -0.07199307 0.021863038 -0.22921667 0.3742958 -0.12735114 0.1728359 0.111019425 0.025126934 0.0048076655 -0.43260813 -0.348282 -0.002907326 -0.032707423 -0.48893568 0.110686466 0.13588658 
rapper 0.16282795 -0.004743282 0.18928614 0.09138328 0.116567485 0.2883768 -0.00025147002 -0.54179245 0.5293716 -0.17925048 0.43327528 -0.010228331 -0.1645139 0.21901008 -0.1610963 0.40823472 0.3094709 -0.26819175 0.05519434 0.33598328 -0.08137351 0.56641936 0.0662288 -0.49829173 -0.3301533 -0.028237691 0.402082 0.18840678 0.009213931 0.07351456 -0.09358825 0.2739314 -0.26463467 0.24804044 0.03471336 0.032186568 0.14019826 0.12767087 0.3004756 0.35973883 0.1028643 0.49973705 0.29809225 0.115152866 -0.01972184 -0.05949101 0.09748965 0.16268243 0.28196058 0.26978752 -0.17958175 -0.08068563 -0.09527351 0.03893086 0.45828792 -0.05144908 0.17301722 -0.08282627 -0.049045604 0.53035563 -0.29392657 -0.25676566 0.044301152 -0.017156994 0.16850252 0.23692624 0.43001172 0.1872553 -0.0025042852 0.07453424 -0.058967702 -0.11062661 -0.1802913 0.31415173 0.03947014 -0.13455878 -0.2971725 0.6597702 -0.12979385 0.31548342 -0.142629 -0.078900024 -0.00089632213 -0.053017147 0.007007488 0.12399522 0.113629885 0.3786147 0.113518514 0.32190692 -0.19561379 -0.021564273 0.24607393 0.13093328 0.1271427 -0.25998908 -0.0010542765 -0.02065941 -0.14817487 -0.3034652 0.17174266 -0.6823974 0.07592293 -0.02979008 0.16200526 0.13073787 0.048836686 0.1768695 0.1935508 0.48421922 -0.24493332 -0.051333964 0.004056584 0.037524763 0.15401337 -0.18798381 0.03920584 -0.098678306 0.13316496 -0.19374433 0.09555391 0.35760355 -0.059454586 0.046259344 0.06803196 -0.09464277 0.54923433 0.19623311 -0.08019152 0.29136583 -0.10787042 -0.0081449235 -0.17026648 0.06416433 0.45783418 0.30400884 -0.051303886 -0.25099894 -0.08554439 -0.12146262 -0.064897746 0.16656098 0.40402538 0.2675183 0.027115779 0.18626992 -0.11124908 0.0145875 -0.103310674 0.11716618 0.07954438 0.12581858 -0.04195168 -0.07513986 0.25013146 -0.03242887 -0.01066238 -0.20861995 -0.5304943 0.09291762 0.3495376 -0.18104316 0.0261477 0.4687433 0.014273772 0.28776744 0.1949428 -0.28454491 0.077580854 -0.18119702 -0.41626108 0.24854176 0.3804531 0.057369463 -0.01465689 0.04049126 0.16280183 0.48321405 0.075676404 -0.19274712 -0.23000506 0.07346786 -0.32400128 -0.28799614 0.15633553 0.1087829 0.40884468 0.43915895 0.15384908 -0.81373537 -0.297945 0.32042626 0.43949538 0.39136645 0.24917339 0.17459467 0.21807802 0.3386968 0.2013087 -0.16151208 
dance 0.16783696 0.06329003 0.1661943 0.0024533563 0.1312436 -0.029761983 -0.10094169 -0.0017374507 0.20739166 0.100279935 0.50590146 -0.065199174 -0.2243584 0.2853838 0.20659219 0.27071914 -0.23495527 -0.1894994 -0.047828913 0.39912975 0.18215661 -0.06463688 -0.23090813 -0.12161799 0.02121499 -0.058615655 0.13865682 -0.13443102 0.0479806 -0.18849255 -0.043012504 -0.018357443 0.26552752 -0.06590854 -0.17377622 -0.101975314 -0.38799033 0.589161 -0.21235017 0.45918405 -0.031581815 0.15546796 0.5292587 -0.0010595114 0.50305575 -0.17692 0.11151271 0.34519267 -0.11719722 0.053932164 0.23483695 0.34474283 -0.22411513 -0.21472509 0.15161668 -0.022684807 -0.27798373 -0.13983326 0.016404347 0.07157782 -0.19458824 -0.0213812 0.008933625 0.063317634 0.18947724 -0.24600913 0.054880448 0.15418014 0.23093408 0.1092701 -0.107666604 0.16879512 -0.101162344 0.5199143 0.50638324 -0.34505537 0.26678014 0.33683306 0.56322265 0.03752655 -0.044467255 -0.3693039 -0.13981453 0.06386797 0.08116454 0.23803121 0.26182187 0.21793793 0.007689813 -0.09311601 0.28561407 -0.0091842525 0.005082298 0.2218808 -0.34673086 0.23436296 0.1528786 0.13049868 -0.04917224 -0.26853508 -0.030674838 0.16626889 -0.22117208 0.106952816 0.068983495 -0.10170233 0.034092613 0.4475448 -0.0072126826 0.013984267 -0.27590913 -0.04408798 -0.11771486 0.39590245 0.15706912 -0.13453515 -0.0981809 0.045180283 0.10907413 -0.22365068 0.13828671 0.13608749 -0.21309403 -0.23657961 0.13663006 0.063334964 -0.00089626503 0.2764828 -0.04013194 -0.17740706 0.16162896 0.30779785 -0.08804521 0.023111017 0.11994486 0.010059664 -0.090124086 0.15502015 0.35161006 -0.041862477 0.40995428 -0.19961227 0.20983274 0.2942777 -0.056747973 0.39116526 0.40067717 0.3194916 -0.11053094 -0.13379396 0.39761332 -0.23833367 0.23032612 -0.10540555 0.2243771 0.39775687 0.24801686 0.19307566 0.20571876 -0.25430664 0.18443684 0.21768719 0.12508647 0.019478722 0.16274975 0.038464252 0.09514199 -0.050717168 -0.19513017 -0.2584811 0.090538725 0.12702218 -0.075655274 -0.06845972 0.40596694 0.072665416 0.33119142 0.26340422 0.07702555 0.14456329 -0.45913354 0.2364758 0.0418048 0.13244036 -0.21623756 -0.03248626 0.13635965 0.076334536 0.19076896 0.11794551 0.20863484 -0.055750854 -0.51591974 0.3578882 -0.094036095 -0.07391874 0.047275018 -0.111122005 -0.046049394 -0.24655326 
singer -0.062244352 0.060282156 0.24157749 -0.17098862 -0.04238449 0.2282335 -0.008305201 -0.47276148 0.17484066 -0.36017555 0.3920829 0.22859342 -0.09950959 -0.03417618 -0.35247073 0.15470016 0.17116235 0.10105755 -0.15065761 0.2757268 -0.061291415 0.28481653 -0.10725532 -0.25483635 -0.39195314 -0.094429806 0.43246615 -0.03798892 0.16679 0.1596376 -0.04164317 0.1597613 -0.106182076 -0.051554997 0.03169362 0.0975093 -0.30507937 0.31617156 -0.14035699 -0.002338082 0.030341024 -0.028911224 0.09241782 0.005670895 -0.11164888 -0.2063866 0.00013790067 0.055305433 0.38853437 0.1859137 0.12590161 -0.17059092 0.32217783 -0.17978954 0.070744805 -0.0081224 0.15484746 0.047948197 0.39556268 0.18967864 0.019253863 0.3125809 -0.13191457 -0.3943569 0.3984728 0.077886276 0.37995455 0.34484226 0.12599714 0.031404663 0.21365385 0.04490045 -0.43159467 0.42402837 0.1091357 -0.28701192 -0.08682713 0.26992568 -0.14934897 -0.027668353 0.28571665 -0.40270907 0.13181178 -0.19365251 0.15211138 0.038355786 0.07597083 0.05766682 0.4291652 0.34478056 -0.03538192 -0.15269794 -0.045740265 -0.21677977 0.09254744 -0.2700084 -0.0030508037 -0.33280823 -0.24865599 -0.1771037 0.23606919 -0.3590703 0.17906392 -0.32104877 -0.098984085 0.16903633 -0.052489717 0.06989975 0.10464063 -0.0991082 -0.080393165 -0.10108949 0.14431034 -0.12007731 -0.040183015 0.08228939 -0.011072571 -0.049653262 0.09377647 -0.34365794 0.24505466 0.1961026 -0.25379768 0.043207303 -0.26126167 0.29936555 0.4393059 0.28383347 -0.047829863 0.22025786 -0.0020967913 0.09665314 -0.013594532 -0.18916748 0.4610289 0.106200345 -0.18637468 0.116257444 -0.007755493 0.28159317 -0.12848254 0.003111915 -0.031324375 0.32294837 0.21390207 0.3095737 -0.030508019 -0.20011185 0.096807115 0.31958723 0.08322009 0.15410374 0.102313586 -0.19949923 0.24785219 -0.017793227 -0.10032732 -0.025595853 0.04036227 0.15753928 0.061564207 -0.3235062 -0.13586305 0.16734016 -0.008469592 0.0012409873 0.14623795 0.18492545 -0.09751491 -0.010653738 -0.01603729 0.26105034 0.043511916 -0.11712502 0.19228688 0.2219696 -0.0009666359 -0.21924071 -0.080316365 -0.20788759 -0.32868117 -0.05986893 -0.061414573 -0.17617962 0.18504278 0.13684627 0.06548816 0.16042788 -0.2846876 -0.0345225 -0.009108122 0.029082447 0.12720121 0.33935976 0.28186503 0.13085237 0.057688713 0.008208284 0.022355122 0.020979116 
bands -0.2599016 0.048409987 -0.2560069 0.0036000304 0.002345875 0.07717907 0.012648526 -0.07796099 0.47220683 -0.026684327 0.43432945 0.12687676 0.017777959 -0.4157497 -0.4190505 -0.16893268 -0.014610524 -0.35845903 -0.17060205 0.102739505 -0.08003895 -0.31619725 -0.09020082 -0.5733544 -0.108936325 0.2742085 0.0920056 0.12131524 0.048041664 -0.093118325 -0.28897458 -0.0001610921 -0.098184295 -0.12953681 0.036652613 0.031578083 -0.09906195 0.16920489 0.1841862 -0.01872187 -0.21928687 0.15034588 -0.21117239 0.36728677 -0.1679925 -0.025712864 -0.0019365225 0.08462217 0.2964825 -0.304487 0.29022893 -0.14766355 0.143559 0.053238124 0.25183645 0.26657653 0.0028148247 -0.20303746 -0.09602459 0.5561526 0.026228318 0.044158075 -0.09460195 -0.11660325 -0.09343289 0.2512947 -0.16825029 -0.090373196 0.20435973 -0.058083303 -0.1094412 -0.27414706 0.108390026 0.3000747 -0.12626182 0.069158964 -0.14866365 0.089583226 -0.22255287 0.014554221 -0.054976027 -0.46830928 0.4597993 -0.111137316 -0.024734322 -0.5360453 -0.23732296 0.09928093 0.18623768 0.050379425 0.3417815 0.40024868 0.17992224 0.015269651 -0.015540549 -0.16931495 0.16161644 0.06817237 0.12848763 -0.20342027 0.03296735 -0.60688496 -0.07119329 -0.33441064 -0.11971418 -0.11675766 0.24399285 -0.16134322 -0.4119773 0.14915812 0.17438182 0.13254128 0.25832817 -0.34370664 0.10370543 0.10924421 0.05870312 -0.04086279 0.032233935 -0.2603225 0.21288735 0.23169492 -0.38187507 -0.046617366 -0.06311192 0.09881437 0.10429795 0.3146327 0.017649544 0.30580848 -0.22006118 0.5380674 -0.28679395 -0.056884177 0.35955018 0.32339758 0.022450319 -0.24865443 0.35318917 0.09705781 0.09791954 -0.06636114 0.008384527 0.24117038 -0.0419951 -0.10321205 -0.066102035 0.3891842 0.0466428 0.13931966 -0.007636341 -0.014591252 0.3515042 -0.08094074 0.25384068 0.57275134 -0.03819933 0.25106353 -0.16183428 0.11640576 0.13771558 -0.15566969 0.16976814 0.1574771 -0.20042758 0.1508215 -0.16162801 0.044614006 0.09000648 -0.04320547 -0.089059606 0.032563835 -0.26089907 -0.2905802 0.07747849 -0.349208 0.370257 0.6492128 -0.045303 0.058134615 -0.666581 -0.26962832 0.09282848 0.030081691 0.11423154 0.20050137 -0.072047256 -0.13294247 -0.10623656 0.032134008 -0.15211578 0.33015764 0.062981546 0.15798423 0.27890587 0.25402498 -0.18986574 0.13595325 -0.19579163 -0.23626664 
metal -0.10574559 0.09183586 -0.47948068 0.02086092 -0.21379676 0.2777024 -0.22400507 -0.023343273 0.32837766 0.15360364 0.20097794 0.019164559 0.27650097 -0.20043522 -0.06931099 0.04592113 -0.23501696 -0.08111503 0.29428038 0.12758254 0.17833921 -0.1825671 -0.055962723 -0.468633 -0.20769556 -0.012869137 0.3741768 0.10540779 -0.1549163 -0.050390687 -0.3964506 0.23045334 0.052321795 -0.17946048 -0.29601085 0.167526 -0.13574569 0.36280367 0.21859616 0.056573253 -0.34297118 0.014067824 0.14563613 0.1959427 0.23242067 -0.34547004 -0.072024554 0.18597618 0.48223877 -0.059230004 0.060413864 0.4789412 -0.23217873 -0.23616217 -0.07280496 0.371716 -0.11095362 -0.3129346 0.30465972 0.5343655 -0.4148492 0.11308206 -0.08855326 0.14008054 0.2937135 0.1132398 -0.1392652 0.014119697 0.07334856 0.104386084 0.17385301 -0.30440935 -0.04205099 0.16479748 0.31415802 0.06497677 -0.31312853 0.13735564 0.02558431 -0.63665986 -0.18853046 -0.35989228 0.19156784 -0.42112795 0.12790613 -0.29486018 -0.0041559157 0.17164887 0.08431744 0.35240322 0.22524515 0.11617324 0.20038758 0.21098988 0.34504813 -0.056273293 0.07199074 0.14287043 0.07760515 0.07704466 -0.23810515 -0.04456242 0.3136456 0.015570939 0.3040485 -0.14171259 0.10269129 -0.07423024 -0.2777962 0.092972025 0.13180603 0.28663886 -0.1314892 0.13050552 0.023895444 0.24295284 0.31041688 -0.13472693 0.4838377 -0.0058133174 0.33723632 -0.13665207 0.10065274 0.07923009 -0.0036852257 0.13365775 0.016258331 0.018510278 0.054436088 0.04414785 -0.2484149 0.19006397 -0.20860381 0.09909312 0.020827845 0.33649805 0.47892445 -0.033064876 0.29365918 0.12910686 -0.06855014 0.16580473 0.12710117 -0.03094213 -0.25627682 0.36010027 0.12868173 0.4090175 -0.16355835 -0.112406485 -0.0923037 0.29107907 -0.11515248 0.10955886 -0.25395128 0.5218918 0.2521706 0.010464484 0.13956593 0.081427775 0.26126233 -0.39624444 0.2655094 0.011702135 -0.07865416 -0.3493435 -0.16217116 -0.01276913 0.1475836 0.05197359 -0.08493561 -0.0856656 -0.23923248 0.2963066 0.04109678 -0.091262534 0.3290319 0.22139217 0.22994027 0.055237945 -0.4334269 0.1098091 0.14622359 -0.27362323 -0.077307284 0.42343953 0.19624603 -0.059244704 -0.15714183 -0.111460045 -0.069521084 0.62182766 -0.02454964 0.028833374 0.13111894 0.0032026763 -0.44116566 0.3170739 -0.06802428 -0.41985014 
flow 0.059481464 0.14472745 0.15600559 0.09220908 0.055496562 0.14326355 -0.15905707 -0.22490974 0.18972945 0.42935652 0.27830145 -0.27708423 -0.10687085 -0.062586315 -0.058817472 0.20050207 0.3903803 0.3825613 0.078048036 0.033644497 0.08312466 0.22628945 -0.010779616 -0.16649994 -0.3404986 0.26288906 -0.016529545 0.29193228 -0.2562495 0.09837761 0.12302813 -0.23447588 0.35393637 0.12395492 -0.11043355 -0.18388054 -0.21416067 0.18547082 0.39694408 0.16041265 -0.029478405 0.21099956 0.03152678 -0.14674765 0.0810929 -0.33187827 0.23814037 0.2385077 -0.22233197 0.06358576 -0.2428002 0.11379182 -0.05377717 -0.070772134 -0.0030452285 -0.2887485 0.28353867 -0.32078138 -0.326714 -0.20316103 -0.18186855 -0.22041029 -0.33360875 0.2354169 0.29884043 0.17363887 0.21540654 0.17794289 0.24157454 -0.08508232 0.06427573 0.026667466 -0.09935549 0.10631341 0.1251223 0.1578866 0.08296468 0.35639864 0.097142175 -1.6217835e-05 0.06464435 -0.41911697 0.11733882 0.016932549 0.083354466 0.3808898 -0.09121671 0.4315427 -0.08456845 0.00040992792 0.226417 -0.10949763 0.40570796 0.22640297 0.06699376 0.1923038 0.0096319765 -0.08472352 -0.27076355 -0.13735749 0.20533243 -0.17447841 0.14661022 -0.25468493 0.3292565 0.052530736 0.22271217 -0.16833434 0.35464132 0.07721949 -0.2140499 0.12271513 -0.111434765 0.092834376 0.06467113 -0.12858637 0.10114225 0.16143058 0.36280614 0.063729376 -0.0018736707 -0.056550507 0.2226347 -0.23782529 0.26732385 0.020285653 0.23010148 0.15742071 0.093659416 0.3573733 0.006935921 0.06912013 -0.4093945 0.0905697 0.17776172 -0.1620137 -0.051279172 -0.123326026 -0.13636872 0.11801085 0.20333818 0.27645838 0.19565362 -0.35016555 -0.07356129 0.29130617 0.15256631 -0.15389885 0.23656204 0.38833222 0.055569336 -0.17800264 -0.01786466 -0.14621961 0.1807675 -0.41198096 0.02426468 0.03782604 -0.45961523 0.11561865 0.20526882 -0.0026153787 0.014031271 -0.0029087204 0.03613101 0.15924974 -0.18241087 -0.13055238 -0.20763251 0.015899925 -0.028385177 -0.25043646 0.38395473 0.41762456 0.12297246 0.17488411 -0.08543279 0.26311684 -0.0155330645 0.0704016 -0.27743956 0.2670874 -0.16084142 -0.0036542008 -0.09613344 0.09980212 0.028036842 0.11018892 0.0651747 -0.3051577 -0.086722374 0.060050227 0.3850199 -0.31716636 -0.2687042 0.209577 0.2943547 -0.014765171 0.32536748 -0.18285473 
cover -0.21787931 0.36907828 0.18538715 0.0052228943 -0.17595671 -0.012072486 -0.22287232 -0.5577764 -0.21716368 0.13101049 0.15896575 0.105986916 0.15726762 0.07653389 0.0442204 0.39154205 -0.11721767 0.31610033 0.05323135 0.2783812 -0.3379721 0.053121433 -0.09864913 -0.5358665 -0.05908548 -0.0901941 0.11603579 0.022466475 0.2227233 0.037285514 -0.25170478 -0.121099986 -0.14978103 -0.11503125 -0.18883494 0.27002323 -0.07402903 -0.02754366 -0.12037156 -0.20057482 -0.16478321 0.09462003 -0.008594034 -0.20805253 0.1881048 0.084442146 -0.048248313 0.22009324 0.24661583 -0.29290324 -0.14203855 0.20101279 -0.07486543 -0.17761956 0.109426044 -0.06621178 0.4293953 -0.04678703 -0.13347651 -0.12422206 -0.10958214 0.036511317 -0.013549907 -0.20677193 -0.070253655 0.30660254 -0.036726046 -0.23155579 -0.22839604 -0.22145198 -0.105311975 -0.3819177 0.08418809 0.39929312 0.09151557 -0.25041267 -0.18690409 -0.287251 0.32801905 -0.25651193 0.12361907 0.06901352 0.23452128 -0.1540066 -0.019775406 0.20546986 -0.23404148 0.060655825 0.044412788 -0.016923321 0.24250062 -0.07067279 -0.0064606727 -0.11640804 0.06363001 -0.15713926 -0.06503798 -0.20406523 -0.48071828 -0.05774207 -0.005254044 -0.12201543 -0.120924495 0.16481733 -0.050861362 -0.12541789 0.39995137 -0.024827322 -0.0668842 0.14117457 -0.3692862 -0.003979044 0.12054775 0.14513618 -0.2889495 0.08688112 -0.13975845 0.15310115 0.18479574 0.2615609 0.40146455 -0.06051866 -0.31079438 0.16403918 0.15039067 0.22674687 0.12337748 0.17964391 -0.15119046 0.14947782 -0.05051202 -0.03719569 0.19716108 -0.3364259 -0.019875051 0.06990682 -0.16367757 -0.0488332 0.24014376 0.08911145 0.12943688 0.037039224 -0.025301281 0.04675475 0.22620493 0.07519993 0.26899946 -0.13734585 0.18619996 -0.2797265 0.032991007 0.1422011 -0.012930206 -0.33435744 0.064178094 0.15908815 -0.0716074 0.20698433 0.14588673 0.5001226 -0.13686757 0.1381588 -0.000101971455 0.17739397 -0.08378649 -0.02888062 -0.29138598 0.5622044 -0.40282264 0.09235221 0.101412006 -0.058953144 -0.13040352 -0.03751627 0.3763561 -0.090668514 0.056175426 0.03442745 -0.089943156 0.2191751 -0.21277237 0.058331497 -0.15715776 0.35153812 -0.1369806 -0.120791726 -0.0552205 0.05267033 -0.060993027 0.18517667 0.24811639 -0.03252165 0.11192551 -0.030732945 0.009824104 0.11271625 -0.019318089 0.07099604 -0.13474548 0.2152536 
singing 0.23816422 -0.0301612 0.07809751 -0.032166597 -0.1424963 0.22446401 0.09053597 -0.41526312 -0.047766864 0.16223931 0.35818616 0.29500675 -0.029051466 -0.15749156 -0.3048256 0.26130003 -0.11990106 0.22040354 0.13391173 0.26185676 -0.20831858 -0.026229464 -0.3162866 0.12522359 -0.11615821 -0.12896742 0.15268818 -0.007090084 -0.23601708 -0.11816063 0.19221507 0.18951556 -0.004795656 0.10830561 -0.27898473 -0.23505947 -0.1271133 0.41413715 -0.27685228 0.23161608 0.02241005 -0.06899575 0.12447111 -0.038597923 0.05616409 -0.025236467 0.19816981 0.069904245 0.12384208 -0.039258964 -0.020665202 0.18820556 -0.14354734 -0.029001586 -0.18354611 -0.20296851 -0.17692761 -0.16636278 0.07050651 0.04414661 0.49174896 -0.003815179 -0.00802818 -0.21211763 0.35496706 -0.053027373 0.6127298 -0.074366346 0.2527725 -0.3061616 0.09742318 0.21045482 -0.1847171 -0.072692275 0.24046643 -0.2902543 -0.04918463 -0.085099295 0.041329227 -0.03303586 0.0653905 -0.24057573 0.23355417 -0.20170763 0.1133623 0.20756361 0.35148367 0.08252404 0.2300061 -0.08161052 0.30366865 -0.12450224 0.13275403 -0.096203886 0.033965126 -0.13175675 -0.2773445 -0.35953614 -0.022896608 -0.13362457 0.3533382 -0.3264634 0.13836373 -0.047601845 -0.17137405 0.16952476 0.0123137925 -0.1633229 0.10731285 -0.034938265 -0.1932592 -0.046525706 -0.24082021 0.0012938196 0.19734167 -0.17814155 -0.18155389 -0.15166321 -0.08236398 -0.109780565 0.13387468 -0.03344701 -0.30189493 0.092661634 -0.27787068 0.2856645 0.26235488 0.14895809 0.25208905 0.06765248 -0.09214306 -0.45210147 -0.0589959 0.19706719 0.4129081 -0.11856514 -0.017635977 -0.06810386 0.017508795 0.36957034 0.090544894 0.13140777 0.14079012 0.10327713 -0.16880654 0.42820904 -0.05652408 -0.05583771 0.13924965 0.02403803 0.03558097 0.25388062 0.035796754 -0.015393454 -0.023779172 -0.30360317 0.09277639 0.4067423 0.122916915 0.22161165 -0.10133864 -0.17780307 -0.20406008 -0.013260821 0.26963118 -0.37262142 -0.080932766 0.07656464 -0.42354488 0.18970469 0.06873505 0.12659504 0.13892558 -0.075841926 0.098713815 0.28391403 0.05547188 -0.11648291 0.15997736 0.2922919 -0.47316584 -0.10987629 0.07095823 -0.21201146 -0.5680527 0.18148153 0.06218647 0.22804652 0.117871426 0.2849459 0.10492554 -0.1460372 0.07088385 0.19702253 0.04025956 0.060418244 0.166839 -0.11111924 0.05069146 0.032255746 
cuts -0.09727276 0.17000246 -0.24582613 0.12947622 0.09702494 0.30161336 -0.14224796 0.3393442 0.15606475 -0.064257614 0.21449307 -0.09686689 -0.016774973 -0.07741543 0.027683726 0.026874734 -0.08402975 -0.019654037 0.25892526 -0.13607743 0.058893915 0.3035505 0.019214842 -0.06231032 -0.14093496 0.22259215 0.31110343 0.17053409 -0.102439694 -0.2418145 -0.29438823 0.15402563 0.17291333 -0.00057946105 0.41063812 0.17551495 -0.3663944 0.1970613 0.1454628 0.25320768 -0.12247964 0.14273569 0.007441479 -0.11229911 -0.24711357 -0.31413043 0.226238 -0.1602831 -0.18954049 -0.07746767 -0.15161726 0.14998752 0.17119008 0.1784313 0.24494258 0.16678774 -0.10311227 0.021040024 -0.033270206 0.25483003 0.28566536 -0.22984724 -0.2882831 -0.266973 -0.16722022 0.2871764 0.0982673 -0.041364595 0.0305717 -0.16923939 -0.17704251 0.051228624 0.14816234 0.24507302 -0.19921713 0.155571 -0.12246476 0.024202611 0.3297707 0.0093674855 0.13186923 -0.13582496 -0.026327115 0.0044646002 0.24434587 0.20789176 0.10540003 0.18570566 0.21054918 -0.13422501 0.41595808 -0.0063138334 -0.0036792636 0.17848864 -0.46700466 0.105222575 0.100363314 0.5298131 -0.11744174 0.1728159 0.123651184 0.26646844 0.061840627 -0.018533383 0.19120313 -0.12472255 0.0026409952 0.09101074 0.084027536 0.4593674 -0.19408834 0.18334506 0.2330704 -0.20375045 -0.11307901 -0.054448437 -0.028997488 -0.15872905 -0.18253946 0.01443308 0.11685211 -0.13093598 -0.33748537 0.20225899 0.089463316 0.060500283 0.17615767 0.4309951 0.21959445 0.20521623 -0.12875429 -0.25106245 -0.19731492 0.07131346 -0.06174855 -0.04365177 0.07196621 -0.41273585 0.11361471 -0.11687188 0.19687642 0.04591009 -0.034860194 -0.045228418 0.15306832 -0.10530037 0.17379364 -0.24379486 -0.18692936 0.17862195 0.037571583 -0.13612166 0.22898643 -0.24695046 0.20326672 0.0999334 0.08166256 0.21602361 0.16760346 -0.070218876 0.23925516 0.18338937 0.00882596 0.26543325 -0.024092423 0.012758597 -0.2932813 0.07138898 0.27327842 0.20862427 0.09941329 -0.00676582 -0.05998203 0.06330837 -0.08536663 0.16710241 0.24751315 -0.013243987 -0.0043399525 -0.026802206 -0.3568313 -0.06503073 -0.22663383 0.07059989 0.12791197 0.016109213 -0.3231857 0.22048615 0.03304331 -0.14615624 -0.10145648 -0.053380154 0.08480664 -0.3375642 -0.097019784 0.13982436 -0.20288996 0.16839302 -0.11656878 0.16245571 
bass 0.27215317 -0.0828979 -0.11372178 0.35585225 -0.04147796 0.21478811 -0.063603856 0.004579935 0.028702222 -0.23782282 0.19418561 -0.09619488 0.005411492 -0.116735175 0.2876527 0.0010399909 -0.33864918 0.09983467 -0.3478517 0.054416373 -0.27905703 -0.063469216 0.062634274 -0.3330572 -0.17410947 0.03561406 0.34381536 -0.04074638 0.24710925 -0.07691413 -0.0059599713 -0.10934709 0.12787987 0.06153521 -0.2525431 0.3467869 0.12768777 0.3362476 -0.13451141 -0.16799581 0.02710295 0.13585019 0.23959029 0.3257612 0.105847366 -0.67063874 0.15493327 -0.30423582 0.082495585 -0.1412216 0.044514585 0.1728022 0.11368989 -0.17015682 -0.3495365 0.50176144 0.058077335 0.0022954298 0.1409888 0.16811734 0.025293805 0.12487494 -0.09858976 0.10587138 0.30533016 -0.13841741 0.16436733 -0.10686608 0.32261464 -0.020855855 0.16869143 -0.26560673 -0.13139229 0.27541226 0.13606255 -0.276231 0.07124307 0.19293407 0.3243186 -0.32008183 0.004184308 -0.46052593 0.19634117 0.09051038 0.18097277 -0.09192349 0.1749864 0.24781895 -0.18969512 0.033301022 -0.2950034 0.14089969 0.004713077 0.1429907 0.06115397 0.067667976 0.42974514 0.2690863 -0.5535292 -0.102901824 0.05336899 0.31432036 0.105442934 -0.1398722 -0.05121677 0.19130833 0.09619533 -0.28312635 0.44950223 0.2726443 -0.3161699 0.43885297 -0.20135568 0.42579195 -0.2741988 -0.22398426 -0.1246035 0.21326087 0.15675609 0.04146727 -0.17010598 0.10934811 -0.05841681 -0.24496219 -0.19621046 0.528196 0.21049286 0.10564469 -0.29031327 0.13475679 0.10041907 -0.123438396 -0.33187008 0.053448644 0.22421926 -0.19982517 -0.34069103 -0.04863621 -0.12800168 0.31058455 0.22076145 -0.112526424 0.45298237 -0.10529353 -0.1574237 0.20572487 0.010184652 -0.04215092 -0.02904806 0.010429744 -0.11928982 -0.18514387 0.16076292 -0.08920121 0.066541575 -0.09291295 0.2692728 0.02561593 0.106880434 0.24155101 0.07541227 -0.074217014 0.028964492 0.16867796 -0.28117093 -0.35264254 0.32867926 -0.07511173 0.102408975 0.09865697 -0.24386725 0.016217064 -0.15456317 -0.24110435 -0.08052284 0.2606906 0.12744914 0.06553242 -0.1057352 -0.011907717 -0.40915272 0.13466121 -0.11089628 0.00198595 0.2885458 0.44283646 -0.32149196 0.27848437 0.043281812 0.20012815 -0.17591514 -0.24548595 -0.18167418 -0.23511924 -0.26585022 -0.05770526 -0.25331327 -0.28842273 0.24772687 -0.0034419817 
guitars 0.054722894 -0.018589506 -0.3640219 0.23902498 -0.21974735 0.36389846 -0.20074292 -0.11333833 -0.2564222 -0.022529086 0.12516582 -0.024628097 -0.09019777 -0.23469105 0.17659622 -0.1250772 -0.3968897 0.49195614 -0.36367378 -0.077126265 -0.2348035 -0.15018225 -0.05460861 -0.15101139 -0.19319063 0.05855227 0.21420953 0.25086913 0.10328545 0.107399166 -0.21295084 0.11607218 0.080881156 0.26210997 -0.2914898 0.17759803 -0.12254264 0.058933087 -0.14315067 -0.17966026 -0.16535604 0.120751105 0.1790038 0.2542105 0.019401448 -0.551818 0.3167792 -0.080134906 -0.20107259 -0.14858562 -0.023556927 0.25109708 0.03383464 -0.16289224 -0.18767351 0.45300442 -0.19854406 -0.08550785 0.26800185 0.2674765 -0.04418016 0.11597178 0.018610263 0.03333019 0.22514604 -0.103746 -0.17323543 -0.03167222 0.3043057 -0.15042193 0.40057138 -0.16351506 -0.16572875 0.052319773 0.118872344 -0.02315864 -0.034012355 0.005352954 0.20867442 -0.3828491 0.106097884 -0.6763858 0.31432405 -0.093123935 0.19826722 -0.32494998 -0.23853269 -0.016595434 0.17942174 -0.23525764 0.241766 0.2912636 -0.12806575 -0.08062689 0.10926831 0.096927114 0.36731368 0.116820216 -0.3397252 -0.009818704 0.12723947 -0.13576283 0.2214064 -0.2963546 -0.2328338 0.06396688 -0.081068814 -0.23616162 -0.08590901 0.37216714 0.018781558 0.32770225 -0.0313151 0.23161626 -0.42628407 -0.29880884 -0.06817454 0.28575847 0.121275425 0.0364205 -0.17652833 0.08474257 -0.12856193 -0.32289356 -0.010285674 0.54269236 0.06356588 -0.042298008 -0.04116587 0.36089206 -0.24104662 -0.12111509 -0.34059134 0.19597138 0.1685987 -0.025848843 -0.099416345 -0.14498994 -0.08062402 0.31046167 0.12666237 -0.06571983 0.24316 0.0154891005 -0.14564033 0.24817656 0.078890115 0.14179848 -0.11699613 0.1645629 -0.119287804 -0.14122501 0.2882844 0.10059154 0.0419169 0.1470758 0.11172757 0.26809788 0.06193802 0.0017010763 0.2115559 -0.20646542 0.20839173 -0.021904292 -0.13421035 -0.2651461 0.00028212377 2.1073918e-05 0.06321301 0.2799127 -0.16456126 0.092772186 -0.16135472 -0.18496682 -0.04316555 0.11813964 -0.09397885 0.13115671 -0.11928107 0.31681487 -0.21964166 0.20189232 -0.081901126 -0.04454847 -0.0680709 0.37511176 0.06978372 0.06609465 -0.16548157 0.06582819 -0.2299149 -0.012496363 -0.07609383 -0.5968715 -0.14490995 -0.016742606 -0.34235874 -0.1699515 0.40555537 -0.28783694 
story 0.29692414 0.19524798 0.06439614 0.14491692 0.08213899 -0.011629161 -0.14323144 -0.358614 0.13092235 0.14876166 0.039497584 0.051814824 -0.27595532 0.15126029 -0.10392937 0.3521561 0.13969474 0.5317341 -0.06128402 0.17842276 0.04921349 -0.1472698 0.03478061 0.11453069 -0.3704483 -0.0010610771 0.12295084 -0.24399063 -0.23949668 0.14129947 -0.09548095 -0.12773812 -0.002486862 -0.25311482 -0.47791117 -0.14935492 -0.020316036 0.11290616 0.21832825 -0.0421334 -0.20361279 0.11855405 -0.096587926 -0.28707704 0.4811711 -0.2812316 0.08088866 -0.00087727956 0.060063433 0.19381638 -0.26268208 0.009664252 -0.14917395 -0.22012113 0.22262089 0.20567952 -0.2154713 -0.026672015 -0.089655325 -0.36692488 -0.2563839 -0.07398859 0.3121717 -0.14934088 0.24580172 0.11741782 0.3109786 -0.012992692 0.0281017 0.107811764 -0.17126489 -0.30785498 0.0027265307 0.06688056 0.16048224 0.15558061 -0.0067183482 0.2044049 -0.033086173 -0.0749119 0.054663077 0.13743183 0.07365482 -0.11159167 -0.12868349 0.05476876 -0.05651264 0.05988436 -0.17721176 -0.23797429 0.19506387 0.015585372 -0.03541536 0.025966795 0.20579556 -0.2206103 0.04071682 -0.11401138 -0.10227317 -0.05068743 0.30542752 0.12551455 0.08703626 -0.12027092 0.20872058 0.29781443 0.2877466 -0.1011622 -0.033920467 0.124691375 -0.2411621 0.21489708 -0.002688278 -0.11604494 0.11577077 0.2866563 -0.22698507 0.07173163 -0.15203603 -0.34759137 0.3355978 0.101740554 -0.53130424 0.13475767 -0.12805402 0.09933211 0.22605097 0.3311239 -0.19527437 0.0046738083 0.18422778 0.030077063 -0.28291827 0.08190749 0.083108954 0.026119288 -0.22414388 -0.001603149 0.027362367 0.32048145 -0.07738551 0.10779115 0.08887787 -0.03806787 0.044669297 0.060653854 -0.09675867 -0.31529683 0.15008865 0.6598481 0.22377661 -0.02043809 -0.015148254 0.061851047 -0.029763065 -0.30985472 -0.11397624 0.10786082 -0.044174906 -0.13214171 -0.022883998 -0.2818508 0.24352032 0.097405985 -0.04235993 0.0046429657 -0.17316918 -0.06487832 -0.20857154 -0.12940343 0.19847809 0.44164464 -0.119927146 0.3417682 0.09835231 0.10485485 -0.12615077 -0.19845952 0.2890707 -0.3757653 -0.14332326 -0.04018508 -0.072352745 -0.1392337 -0.051535945 -0.18642999 -0.3406887 0.46703875 -0.34381938 -0.16150267 -0.013278188 0.009525475 -0.095295995 0.14302146 0.47390997 0.15027341 0.057046283 -0.3837583 0.0881952 0.042478986 
hooks 0.068960726 0.18195805 0.0016544547 -0.014511122 0.02208019 0.36909288 -0.04151398 -0.18468697 0.06439658 -0.09511644 -0.07015343 -0.27677333 -0.40759405 0.15560298 -0.15270965 -0.2728553 -0.2074427 0.5142713 0.1257609 0.103390954 0.21080601 -0.04372195 -0.021632226 -0.3410485 0.122494005 0.40723276 0.038076736 -0.08232293 -0.08385236 0.2047506 -0.016047848 0.082645476 0.30343693 0.48241755 -0.28230375 0.022650227 -0.14479177 0.261592 0.25288507 -0.05065508 -0.23945965 0.27964374 0.14743644 -0.043025278 0.013725137 -0.058943223 0.37006554 0.33627963 -0.20766503 -0.14413632 0.054625243 0.3273927 0.021683773 -0.039655354 -0.21453623 0.0866616 -0.13282683 -0.2491879 0.2149964 0.24387558 -0.08107706 -0.24141029 -0.102173574 0.0010672477 0.23190835 -0.07306959 -0.08850666 0.027952353 0.30473965 -0.37041533 0.032454196 0.040170588 -0.13149542 -0.094727315 0.10194368 0.10127758 -0.009118614 0.015579646 0.09655288 0.19955762 0.07077582 -0.7730751 -0.06262394 -0.2354343 0.31260774 0.28532857 -0.112018056 0.30019364 0.12327843 0.14955662 0.42677516 0.419471 0.2655634 -0.16677186 -0.1025747 -0.12382317 0.5652567 -0.018048402 -0.21937779 -0.050739072 0.43132362 -0.08890939 0.07527203 -0.16856152 0.0627243 0.09420271 0.11072775 0.21272068 0.33854315 0.0019975996 -0.2328135 0.53261906 0.21185467 0.0058556343 -0.21957402 -0.012117296 -0.0013107951 0.29517177 -0.0873931 0.19207399 -0.12252016 0.06078226 0.01804203 -0.03290482 -0.2749782 0.27471557 0.15560715 -0.0973231 -0.0007010895 0.28318557 -0.11398637 0.1840914 -0.4343472 0.4307026 0.059233673 -0.021224434 -0.0111025395 -0.38104644 -0.021863908 -0.3004686 -0.17157139 -0.009268399 0.20627941 0.1018693 -0.041691393 0.40633532 0.167763 0.010419078 -0.304363 0.069381535 0.3876976 0.03869583 0.03265282 0.28126535 0.09716912 0.15357316 0.2721238 0.11491067 -0.11355769 0.054244187 0.14466086 0.16158961 -0.25721672 0.2944909 0.09466107 -0.094257295 -0.10383532 -0.23214158 -0.053910814 0.038162213 -0.0008412147 -0.016735738 0.12429497 0.12856647 0.055606473 0.029540354 0.22276053 0.032256953 -0.09671683 0.14954734 -0.24390846 0.0658848 0.13120064 0.22509457 -0.017311895 0.38548583 -0.44720325 0.1601767 -0.17777666 -0.20406136 -0.3498311 -0.22219375 0.27567697 -0.31816834 -0.14426045 -0.24079871 -0.004929412 -0.06446597 0.15721883 -0.27763367 
performance 0.04478741 0.0841194 0.27933243 0.030672418 -0.03998702 0.23962903 0.061400086 0.13615693 0.06912017 0.12448845 0.24309725 0.04025896 -0.04609953 -0.33058363 -0.18821691 0.12878473 0.18615524 0.18776439 -0.06922872 0.16367967 -0.3018229 0.11178687 -0.19224809 -0.22186016 -0.21574561 0.09568627 -0.119811 -0.011873854 -0.15844081 0.18347932 -0.17640017 -0.020302951 0.18664812 0.14254922 0.20017608 -0.2743448 0.08618792 0.096660614 -0.10349711 0.30522692 -0.1798446 -0.12749207 0.22224066 -0.339829 -0.003847427 -0.43715933 -0.18795669 -0.20488562 0.03332043 -0.1344306 -0.08947213 0.047781035 -0.20596837 -0.2951371 -0.4534592 -0.42127877 0.2735453 0.0861207 0.13156942 0.011788538 -0.16848367 0.034115672 -0.12264898 0.021684056 0.094972305 0.08725179 0.2241874 -0.17984703 0.0040230537 -0.38327187 0.00060696783 0.29481035 -0.18586694 0.19225612 0.22870982 -0.37980503 0.04943578 -0.12399701 -0.070966 -0.103495315 0.2345913 0.24987608 0.17051423 -0.013915593 0.28565946 0.35531357 0.018974394 0.007378256 0.2558831 -0.25661847 0.19759312 -0.16244371 -0.42474693 -0.17479074 0.2779977 -0.099085465 -0.11420602 0.036664434 -0.23374876 0.0018510749 0.03307557 -0.17073484 0.09072724 0.057262976 -0.025400907 0.20479774 0.22378594 -0.0634598 -0.14584522 -0.06601758 -0.4344425 0.2156774 0.26993185 -0.15854423 0.051246468 0.1884256 0.18851899 -0.31528658 0.29424503 0.24672854 -0.07202927 -0.09308309 -0.07987949 0.17276114 -0.13336413 0.09008092 0.16771418 0.20284964 0.084838085 -0.18028076 0.17493156 -0.011982381 -0.31501815 -0.0014045263 0.049614016 0.15363 0.00070961186 0.08506665 -0.19598918 0.21248987 0.15046616 -0.039570894 0.12964015 0.26076844 0.13128816 0.04755088 -0.028164316 -0.03332627 -0.19437401 0.3088899 -0.2753483 -0.08214699 0.2004749 -0.23591964 0.1423491 0.11770837 -0.122507244 0.2589686 0.43227333 0.05556286 0.17501001 -0.052718226 -0.1740231 0.18366052 0.2385045 0.0077383984 -0.035802223 0.26622206 -0.28620496 0.16750215 0.13933332 -0.1370499 -0.02485767 -0.065594755 0.11931986 0.39405662 0.22168112 0.043094467 0.11610617 0.08529483 -0.4681303 -0.1329825 -0.356038 0.029037757 -0.03062485 -0.07099043 0.18020372 0.6157672 -0.00097043853 0.15253533 -0.045164485 -0.030204406 -0.017337993 -0.18248698 -0.030677097 -0.2256603 -0.0106215 0.027027084 -0.14432082 0.028022628 
hook 0.1070804 0.05009762 0.2116122 -0.0040796343 0.105394244 0.33572736 -0.045996234 -0.28500775 0.1372491 -0.10251009 -0.108368956 -0.040720392 -0.15570529 0.29568794 0.10028109 -0.15274231 -0.17224704 0.12973659 0.1394404 0.18429057 0.030223692 0.16230327 -0.052555177 -0.16330469 -0.028051667 0.14812517 0.11986888 0.23577917 -0.27967757 0.10565021 0.28588718 0.23616107 0.025596052 0.31551927 -0.11562972 0.048642866 -0.18890694 0.4626369 0.26448366 0.101578526 -0.21504775 0.0854944 0.31978035 0.033581365 0.2520272 -0.08489963 0.43251708 0.2697934 -0.33843347 -0.083420835 -0.069372974 0.26483634 0.11830004 0.062496003 -0.15187834 0.08730116 0.1375685 -0.38542593 0.022969926 -0.02715534 -0.04183111 0.06203327 0.040265583 -0.06423736 0.38345358 0.03363747 0.035545304 0.0038932518 0.10241967 -0.15541613 -0.19705176 0.115240164 -0.32821372 0.2404378 0.13604854 -0.09316047 0.07434775 0.17635678 0.12397199 0.04196537 0.2089561 -0.28381118 -0.09315243 0.10017886 0.050746433 0.21215585 0.005634168 0.38270465 -0.036487218 0.14914441 0.33732063 0.41871738 0.13066906 -0.20002222 -0.02455983 0.018622175 0.26538536 -0.05396296 -0.33273515 -0.46243456 0.40077144 0.030469952 0.1883547 -0.047591086 0.20597856 0.22486213 0.060777415 0.20305894 0.3820377 0.29530177 -0.38486812 0.23198232 0.16361001 -0.04178832 -0.12956107 -0.21328378 -0.013180618 0.23014401 -0.16993925 0.10452525 -0.10747618 0.110155374 -0.07110073 -0.15950803 0.13961926 0.27600303 0.36531663 0.2567041 0.047065087 0.21940197 0.026219545 0.07582899 -0.37326825 0.04860485 0.060217902 -0.26602185 -0.1433336 -0.12559447 0.012435119 -0.0026379277 -0.2598525 -0.011929168 0.14522359 -0.22250165 -0.12991323 0.21465787 0.09260532 -0.10125055 -0.34030336 -0.054476358 0.11681541 0.17869794 0.15694728 0.19335482 -0.02373372 -0.022309033 0.20287146 0.17917219 -0.08877857 0.11818833 -0.010463463 0.20646615 -0.1991626 0.39954418 -0.03342719 -0.044058472 0.014227424 -0.16935955 -0.028657477 -0.19192953 -0.002554415 0.11988859 0.09038352 0.17574283 -0.11547783 0.5585234 0.28126132 -0.09357468 0.20255524 0.09446743 -0.42989564 -0.019989317 -0.10900961 0.010881023 0.17231782 0.07078095 0.0043299836 0.61775064 -0.22616588 -0.4276076 -0.076515816 0.10286492 0.24484476 0.04932733 -0.13530168 -0.24138221 -0.04836669 -0.012149702 0.16199437 0.010525882 
rhymes 0.49699894 0.02756786 0.32665718 -0.11852397 0.112094074 0.38967118 0.040214848 -0.111494124 0.38428023 -0.111047305 0.1646788 -0.26080447 -0.06461083 0.012739863 -0.18397541 0.21427383 0.054860745 0.17631678 0.028060026 0.045302883 0.019203426 0.2757972 0.09004684 -0.017095318 -0.4379217 0.43786663 0.02378985 0.10827771 -0.3538344 -0.020321334 0.054366704 -0.051471785 0.053167816 0.3661871 -0.1625637 -0.39426023 -0.117195934 0.29175213 0.44939768 0.04881225 0.05358008 0.24665292 0.22833364 -0.057058 0.2402397 -0.059109837 0.1665474 0.15110372 -0.22730818 0.04185497 -0.21187712 0.390792 -0.13122222 -0.05320201 0.14898746 -0.033661414 0.16249509 -0.12963387 -0.2771754 0.054871883 0.17588909 -0.48815408 -0.10804877 0.34865278 -0.07184205 0.47942418 0.10637143 -0.04852141 0.12764683 -0.0702917 0.04318419 -0.034148805 -0.0905732 -0.023008935 0.24014153 0.025259005 -0.12183648 0.34450403 0.03715579 0.14721246 -0.20319447 -0.3627983 0.2278995 -0.27868602 0.031061715 0.5239394 -0.008504506 0.5185195 0.016990334 0.06930718 0.031887617 0.22512701 0.5246928 0.061634965 -0.106176384 -0.15086442 0.014844879 0.08046655 -0.25656018 -0.12382743 0.18272401 0.18476368 0.36515298 0.08165725 0.1618572 0.16573203 -0.0698424 -0.08031493 0.021652635 0.22135068 -0.08439062 0.18425459 0.07231605 0.28483787 0.036453143 -0.16017146 -0.015312977 0.4221503 0.059231106 0.025276432 -0.050785124 0.28048322 0.08517146 -0.22553815 0.17926285 -0.116195925 0.25863585 0.08047797 -0.025006775 0.2556745 -0.06589439 -0.37250724 -0.49221584 0.14640158 0.0038257553 -0.38991886 -0.016561216 -0.22923215 -0.20622653 -0.3438314 0.2591155 0.384978 0.18788812 0.019982278 0.033263955 0.30643204 0.048050612 -0.2722885 -0.04042602 0.23984715 -0.22429375 0.05351182 0.10166355 0.22207338 0.089903034 -0.2447921 0.039372075 -0.059390657 -0.15351689 0.12662221 0.6904431 -0.1505636 0.01456049 0.23165932 0.079477444 0.16641633 -0.10129321 -0.14041667 -0.10119448 0.16306967 -0.10442002 0.24310029 0.20196182 0.44625598 0.025334109 0.027932646 -0.04894296 0.43018413 0.11246109 0.404162 -0.078126855 0.28004286 -0.107881136 0.18817605 0.110623375 0.06376686 -0.17172374 0.5041426 0.16822633 -0.45114338 -0.28573892 -0.14291841 0.42067805 -0.048970968 0.17284428 0.17970137 -0.012294927 0.07183962 -0.011077523 -0.47336853 
wave -0.21174066 0.07386307 -0.44493213 0.011332131 -0.008965643 0.20977663 -0.33063313 -0.061050236 0.2094405 0.23386897 0.21684769 -0.15691084 -0.05998384 0.04264473 0.114881635 -0.1330334 -0.54552454 0.005002676 0.108080216 -0.03469231 -0.010156218 -0.35589877 -0.21658416 -0.4699833 0.16053005 0.39506274 0.18187217 0.09069026 0.3141742 0.0025159367 -0.42843014 0.09475527 0.2530194 0.138345 -0.31536886 0.039087504 -0.3853564 -0.08453238 -0.19327576 -0.062145565 0.07669623 0.20688303 0.3090846 -0.084660545 0.5122576 -0.12322805 -0.09521832 0.2483284 0.2528316 0.078180194 0.32028678 -0.13753554 0.26909265 -0.068006255 -0.12570618 0.27107382 -0.1199992 0.19771221 0.09479438 0.47551063 0.021786356 -0.055841994 -0.17069238 0.08972375 0.76979655 0.094248764 -0.010366499 0.4614086 -0.04353683 0.028938042 -0.065307386 0.08901454 0.10059012 0.18398461 0.01809074 -0.052731212 0.055023752 0.012138215 0.13473742 -0.08147284 0.014200526 -0.07780886 0.027392402 -0.32226127 -0.3362794 -0.18296276 -0.22017589 0.13012685 0.10402723 0.013997428 -0.008410158 0.01347989 0.28313515 0.076256 -0.23598754 0.009546076 0.19477883 0.10055108 0.16244215 -0.32082498 0.03464012 -0.3580679 0.06735712 0.06845002 0.3666138 -0.05908943 -0.28169623 0.16826281 -0.13910013 -0.12875311 -0.15482397 0.25773835 0.18148503 -0.1614714 -0.22509724 -0.19237871 0.3273982 0.24837482 0.31683603 -0.28763235 0.21687761 0.42365292 0.21808659 -0.15058286 0.08456071 -0.090580806 -0.13673571 -0.23788823 -0.099597104 0.093460105 -0.26626563 0.30844438 -0.011633249 -0.14014459 -0.08340317 0.4962577 0.02897713 -0.092063665 0.22552526 0.14087893 0.14986227 0.055074118 0.1733835 0.14059159 -0.11277286 0.12310697 0.09433036 0.3128352 0.089784004 0.13539256 0.034639686 -0.37995458 -0.05069487 -0.21805811 -0.05647446 0.17105404 -0.16492563 -0.025222477 -0.07693907 0.02619417 -0.33259305 -0.17259324 -0.20385274 -0.098299764 -0.23160042 -0.026294021 -0.3943654 -0.072546 -0.293378 -0.023008881 -0.13865907 0.06728679 -0.3776572 0.0739908 0.51281154 0.23424907 -0.13347659 0.32914114 -0.23780817 -0.31812242 -0.5128279 -0.053692594 0.14998703 -0.3277635 0.5200649 -0.0620858 -0.46120363 -0.2552736 0.4658054 0.20618442 -0.27690724 0.26589832 -0.07077145 -0.08302868 -0.24649245 -0.13284117 -0.08724383 0.23698683 -0.07736518 -0.17757429 
delivery -0.18260133 0.4210508 0.25546324 -0.29749784 0.119329676 0.354624 -0.023081955 -0.2760749 0.26608136 -0.048312873 -0.014555127 0.20326452 -0.1314748 -0.30460557 -0.14013515 0.31188163 0.3101931 0.38109958 -0.18726371 0.14219289 -0.37121642 0.4300843 -0.041736007 -0.15363021 -0.17494892 0.6020402 -0.18003258 0.42698145 -0.13079818 0.1193736 0.041884493 0.25173703 0.34200338 0.3478222 -0.08250371 -0.080984965 0.12345339 0.22126304 0.036125354 -0.19056053 0.1840637 0.25906882 -0.12495575 -0.30459622 0.1718802 -0.21119958 -0.09466913 0.050364025 0.050176818 -0.089996256 -0.3099807 -0.07425272 0.03985522 0.07549896 -0.36389205 -0.30121735 0.26146224 0.030848991 0.056228343 0.15907265 -0.10602873 -0.30449757 -0.08989791 -0.12712894 0.37769932 0.16915946 0.3586571 0.22431628 0.003996349 0.11263555 0.1702046 0.34259605 -0.07817203 0.30400908 0.3708536 0.17118037 0.029917648 0.109131224 -0.30539897 0.026048228 -0.013047276 -0.42283577 -0.042921744 -0.44591856 0.30447903 0.57861364 -0.1680535 0.19398177 0.0858864 -0.055733 0.029724002 -0.24846116 -0.022263044 -0.32467642 0.06853199 0.023911566 -0.0020441357 -0.09152685 -0.35038215 -0.07511278 0.28296104 -0.17643495 0.38545883 0.088255264 0.0853002 0.12511463 0.14553311 0.32094055 0.06729581 0.024340421 -0.12496455 0.2657903 0.003395868 -0.017224727 0.1281116 -0.13010599 0.44760704 0.24896541 0.3771191 -0.0030546193 0.005872788 0.014929786 0.32592446 -0.037646923 0.028426018 0.17748766 0.05429719 -0.11781236 0.1938581 0.07388553 0.27866808 -0.14300326 -0.31818458 0.11171108 0.11362678 -0.16095698 -0.032509938 0.12272193 -0.15542811 -0.16081168 0.075908154 0.44679555 0.15433215 0.024575623 0.14957 0.19322483 -0.19809714 0.061146103 -0.08115139 0.06431742 -0.0962829 -0.14960329 -0.03704083 -0.16935797 0.15059845 -0.10102157 0.054810047 0.11144653 -0.024956418 -0.07948232 0.4178086 -0.0024400197 0.13112509 0.31297618 0.19386527 0.022871546 -0.19692923 0.17682327 -0.23185235 0.13603704 0.3132585 0.07610579 0.1669305 0.20505308 -0.032348804 0.20450431 -0.13904135 -0.001444036 -0.30299565 0.33812672 -0.20755512 0.084902056 -0.33487096 0.11859037 -0.10424624 -0.011945555 0.06347809 0.15183535 -0.07597104 0.13506192 -0.25313848 -0.31771633 0.26663184 -0.5244348 -0.019017454 -0.035248365 0.14532289 -0.1259573 0.29746473 -0.39848503 
cut -0.15566766 0.4682196 -0.088435695 -0.051071182 -0.012845736 0.22718327 -0.24469413 -0.021490894 0.104129225 0.11454771 0.001871519 -0.12653162 0.12680759 0.05798543 -0.008515268 0.0070696278 0.022867588 0.026449997 0.046016973 -0.035132494 0.048742134 0.22614488 -0.067206375 -0.06283548 -0.23763311 0.077417254 0.1562191 0.34322798 0.016543472 0.009983318 -0.30684766 0.08785632 0.083191805 -0.31835985 0.32268187 0.009926262 -0.24431457 0.26756775 0.16608952 0.15261179 0.013029784 -0.056929532 0.17788203 0.07559688 -0.09881961 -0.039930467 0.041398235 0.016953722 -0.18268684 0.10913267 -0.15310235 0.29504007 -0.018132068 0.21813086 0.04668531 0.07338044 0.187718 -0.110108756 -0.17884573 0.10588598 0.25595936 -0.14722978 -0.1923899 -0.35217434 -0.009094464 0.07700456 0.097526655 -0.052011862 -0.2861258 -0.17511435 -0.20323026 0.0971765 0.06837074 0.32083863 0.07843593 -0.083285436 0.065526575 0.2282227 0.278667 -0.21646352 0.13970117 0.07263086 0.010679847 0.10396798 0.05515514 0.04581095 0.15724926 -0.012405899 0.30028206 -0.08854852 0.2949722 -0.10239395 -0.5031839 0.09511892 -0.23157589 0.024099661 -0.09575353 0.17101751 -0.109036826 0.0049300506 0.15684411 0.15614466 0.11155182 0.12672544 0.28017816 -0.069867834 -0.07642184 0.10345364 0.2600973 0.277529 -0.18863255 0.3918954 0.19277816 -0.0339232 0.013952097 -0.15523182 -0.06874429 -0.044827346 -0.16845496 0.2892506 0.15600866 -0.14528093 -0.35429096 -0.1533023 0.07285877 0.07014098 -0.038362395 0.4099566 -0.16300113 0.06450225 0.17814712 -0.059827544 -0.07211538 0.09674191 -0.023968808 0.16530436 -0.089516774 -0.17676109 0.11367421 0.11051309 0.030954033 0.17873171 0.12278381 0.0424819 -0.13074726 -0.20289002 0.053974126 -0.060707748 0.048603985 0.18430099 0.055254508 -0.0852372 0.12165172 -0.13794559 -0.07818955 -0.10308974 0.136843 0.28456685 -0.021523515 0.0002048987 0.252989 0.085954584 -0.035442974 0.43442848 0.050359968 -0.0071899993 -0.039345037 -0.008867527 0.09164812 -0.117013946 0.23756577 -0.03198876 0.16034658 -0.013105171 0.10887219 0.16849133 0.18016852 -0.07203835 -0.026280716 -0.034392007 -0.2828855 -0.06820931 -0.29008707 -0.09773265 0.24650502 -0.2024572 -0.055519395 0.13028449 -0.0066715563 -0.21738303 0.020491768 0.14359978 0.14207563 -0.22776218 0.095606655 0.11016567 -0.22176947 0.12063994 0.0955743 -0.005721942 
styles 0.092698924 -0.07560928 -0.15983285 -0.19907162 -0.026808938 -0.05257545 -0.3034104 -0.48888114 -0.06247951 0.19075109 0.29637128 -0.19610092 0.14120673 -0.015908774 -0.029434292 0.19404708 -0.095806204 0.29309854 0.30597174 -0.08412672 0.17582436 0.2985956 0.053523373 0.042183936 -0.21947995 -0.05813411 -0.2621772 0.36270007 -0.038287666 0.2945787 -0.017356759 -0.35758805 0.22355735 -0.10254341 -0.04189066 -0.20726812 -0.11418194 0.1382612 0.1346423 -0.098256044 0.113248415 0.42180073 0.21084721 -0.23541278 0.06106667 -0.07217296 0.12670909 0.28670427 0.10146583 -0.31754518 -0.11990195 0.16892016 0.04766504 0.08120877 0.4143862 0.044453934 -0.019621124 -0.13894118 -0.052095827 0.54431224 -0.039612688 0.107182056 0.012818068 0.08556828 -0.35366425 0.050539304 -0.13497084 0.45360816 0.27121314 -0.19724315 0.006790712 0.21992575 0.093127355 0.04897272 -0.08750104 0.1688447 -0.20021208 0.37449977 0.17317553 0.02310862 -0.063295685 -0.4310711 0.18948275 -0.13372985 0.30311987 -0.23219556 -0.0028705278 0.21571352 -0.09518605 -0.036655623 0.31628743 -0.25109452 0.52094936 0.08903181 -0.14566346 0.12714152 0.33108923 -0.06819953 -0.15975957 0.07542755 -0.20370905 -0.35494134 -0.18775246 -0.41498992 -0.09041293 0.29311082 0.35095885 -0.5290166 -0.10070256 0.16427863 -0.07040377 0.37215215 -0.15721971 0.29273084 -0.2713005 0.43054542 0.27467844 -0.05831779 0.24875066 -0.18418203 0.4429822 -0.049435776 0.007990175 0.12641816 -0.23285863 0.07827949 -0.13573855 0.76491976 0.34386054 -0.10902331 0.12433933 -0.04791913 -0.5864684 0.061665308 0.045765184 0.02885821 0.07096498 -0.33144677 0.090300195 0.0019323917 0.3047105 0.0960018 0.23235396 -0.19584681 -0.08437928 0.07561659 0.15177658 -0.037168853 0.1903731 -0.034260925 0.5246748 -0.16836554 0.15752202 -0.1830581 0.20178434 0.33978388 -0.48574185 0.1745359 -0.07411726 -0.25689328 0.4082582 -0.05746976 0.03996442 0.16918743 -0.41968197 0.14582162 -0.28741086 -0.19146875 0.06904177 0.014779285 -0.034070116 -0.13561757 -0.430121 0.3339427 0.19213425 0.1440879 0.39639488 0.1065272 -0.2500232 0.1904893 -0.3902863 0.0401283 0.45671937 -0.0918336 0.24233933 0.03917514 -0.04013134 0.08980343 -0.4070503 -0.082151495 0.108645834 0.039083216 0.27586296 -0.18881012 -0.21594405 -0.20147331 -0.0025908165 -0.11438677 0.29187468 0.22986767 
direction 0.09840776 0.03894813 -0.5037903 -0.0421843 -0.2661209 -0.17169 -0.12846951 -0.5592893 0.2681276 0.27012736 0.2634515 -0.45213458 0.46342045 -0.09883995 0.16880007 0.25770265 -0.21289267 -0.048798826 0.2664916 -0.014420741 -0.21648014 -0.18383805 0.066501796 -0.08876851 0.12830687 0.06561698 -0.38429254 0.4519449 -0.390548 0.014306427 -0.14661312 0.15025033 0.33227444 0.016295549 -0.33189794 -0.38070896 -0.30045605 -0.05355884 0.38543049 0.039698403 -0.056467805 0.055454485 0.41781107 -0.42702454 -0.2527084 0.08178712 0.002129997 0.06886343 0.45144483 -0.15890169 0.3911919 0.25196946 0.12544182 -0.045007885 0.29342398 0.058511708 0.23661606 -0.19225769 -0.023537021 -0.12325733 -0.41255873 -0.030564671 -0.19612181 -0.04534033 0.073277034 -0.068509586 -0.18832305 0.2177885 0.17578764 -0.48849878 -0.09046934 0.36852983 -0.29533222 0.21800452 -0.100632735 0.100314446 0.11182839 0.33191693 -0.12739576 0.16114712 -0.11266172 -0.22532678 -0.15579246 0.28680697 0.23100929 -0.0630123 -0.41450998 0.1760506 -0.077308506 -0.16576344 -0.2992935 -0.12159349 0.27438602 -0.39240962 0.017859148 0.006825796 0.17036262 -0.0035201665 -0.059436884 -0.14927194 0.38861638 0.012425491 0.024640331 -0.33675686 0.18838277 -0.0013972478 0.07919149 -0.14870626 0.24075872 -0.02520292 -0.22406271 -0.11790323 -0.07455384 0.19356029 -0.1071007 0.24067038 -0.17652106 0.19829537 0.077653006 -0.2839159 0.47151813 -0.055025075 -0.2154064 0.14662786 -0.44710162 0.30688658 0.17805888 0.011120106 -0.040128686 0.16750291 0.25332826 0.4094565 -0.35586193 -0.12153883 -0.16993101 -0.090652086 0.02349378 -0.2745179 0.035244074 -0.027817719 0.106376335 0.035757143 -0.3398235 0.13729168 -0.1406996 -0.013431599 -0.13470961 0.013088018 0.15342294 -0.1015713 -0.45368627 -0.33995807 -0.06294976 -0.25706875 0.1717747 0.50996524 -0.23881306 -0.2549373 -0.03139421 0.020759441 -0.26357156 -0.06515105 0.115166485 0.19058454 -0.51938444 -0.2732739 0.06279759 0.29939142 -0.65810245 0.32857665 -0.11299512 0.18724424 -0.46653983 -0.25684372 0.4352858 -0.047926214 -0.18800472 -0.17769328 0.035337865 -0.037281826 -0.4870948 -0.023274047 0.037584506 -0.27631676 0.17132165 -0.3477282 -0.013851719 -0.1088355 0.03468465 -0.04329805 -0.5470671 0.14242874 0.029101312 -0.3003819 -0.025088565 0.014187106 0.22446021 0.19251637 -0.022356572 0.19306998 
genius 0.13265671 0.09209041 0.33796892 -0.07298513 0.14535108 0.07843529 0.11146954 -0.056473978 0.26372883 0.14496054 0.18564232 -0.10312421 -0.011159103 0.08812882 -0.003109515 0.13935445 0.1675286 0.49422067 0.090302944 0.07007872 -0.22384556 -0.086443365 -0.22199865 -0.056916192 0.09044565 -0.12990789 0.010167018 0.3620018 0.01272073 0.11995361 -0.09284347 0.4633089 0.05036986 -0.06935264 -0.062321637 -0.29028922 0.10454454 0.08045457 0.06722167 -0.050590992 -0.1440393 -0.078044824 0.3116835 -0.0026887665 0.16692975 -0.06140005 -0.048835054 -0.007339433 0.12700081 0.13989635 -0.20082788 -0.06460352 0.082895726 -0.18890305 -0.101822056 0.16236103 0.116298504 0.34994534 -0.28616643 0.33092046 0.17118084 -0.1142947 0.24201415 0.13770375 -0.06466651 -0.13775736 0.09159366 0.24354887 0.16439784 -0.17447145 0.07346293 -0.25790212 0.23852848 0.20218375 -0.03598523 0.054630794 -0.06763378 0.36849228 0.10341421 0.034256883 -0.18683204 -0.32995555 -0.12376161 0.20396186 0.056598663 -0.19553724 0.19598055 0.070901334 0.32750252 0.07791274 -0.07989617 0.16825749 0.15541728 -0.21646407 -0.10582224 0.30791995 -0.1501587 -0.053804528 -0.06485096 -0.07988125 0.12933256 -0.010590409 -0.1275258 -0.0023672301 0.18241924 0.14597037 0.2664014 -0.13193557 0.0068852273 -0.04086384 -0.20601061 0.00081690843 -0.10774209 0.065787196 0.057685494 0.45026198 -0.048422728 0.05856653 0.053972177 0.2767553 0.22308367 -0.097029135 0.03188576 0.07814368 -0.3556479 0.28437933 0.023350224 0.53420967 -0.40001565 0.0384062 0.032136086 0.121879436 -0.31813225 0.17940745 -0.10615912 0.18218602 -0.17367141 -0.2415041 0.0006418043 -0.1748285 -0.059428547 0.2795026 0.20399821 -0.045621417 0.3238917 0.3148245 -0.29559308 -0.15586223 -0.09915864 0.23586139 0.011043865 -0.122134395 -0.13128394 -0.033869736 0.14097577 0.054195136 -0.09291792 -0.24519274 -0.116305634 -0.00406618 -0.14091459 -0.22220883 -0.018857334 0.036320355 -0.12212606 -0.12292132 0.056927204 0.15492214 -0.46467307 -0.13189717 0.3355118 0.06834426 -0.08238574 0.007158235 0.018545147 -0.20945892 0.07645799 -0.12642603 0.17326723 -0.018885192 -0.1832088 -0.1407049 -0.2178275 0.05720478 0.15263551 0.03429845 -0.13464417 0.36462387 -0.27519822 0.08910454 0.17133798 -0.02107395 0.6036208 0.0031848813 -0.16080724 -0.25551018 0.13742194 0.07837755 0.16314118 -0.03864274 
verse 0.03832686 -0.008080777 -0.12573895 0.00989245 0.05991518 0.37925237 -0.16977264 -0.36942768 0.23720406 -0.04487841 -0.13313825 -0.17480133 0.052116822 0.12343744 -0.0431384 -0.066783145 -0.047145106 0.43481603 0.28635225 -0.22045887 -0.07683507 0.32803228 -0.08337617 -0.10365677 -0.23376536 0.12745447 0.34560207 0.4379368 -0.42698827 -0.19510546 0.09100627 0.033434037 0.2742696 0.123848096 -0.13157834 -0.016566131 -0.080016576 0.17530958 0.34231743 -0.020674791 -0.011736756 -0.1200056 0.19067165 -0.07833385 0.32321206 -0.059421495 0.47190765 -0.011406823 -0.25427976 -0.16358918 0.015876643 0.35200873 -0.08431852 0.45718458 -0.16228297 -0.04832262 0.3999001 -0.36007926 0.16264383 0.16396907 0.20914432 -0.16767156 -0.1552649 -0.042992502 0.18441506 0.42782632 0.17862141 -0.038300537 -0.3658529 -0.2515983 -0.19666907 0.07504736 -0.5998471 -0.008147861 0.3047667 -0.41658685 0.18322569 0.03388352 0.28484115 0.060656987 0.014465557 -0.10828712 0.05804054 -0.057376787 -0.003610937 0.32524616 0.18865196 0.35533416 -0.06384553 0.11966588 -0.09929967 0.42314458 0.06321333 0.108397365 0.28031468 -0.15792876 0.046919364 -0.010483252 -0.46984032 -0.41911066 0.31776693 -0.21746013 0.03113486 -0.041274007 0.25325727 0.51095897 -0.016187735 -0.112186015 0.056491513 0.5265524 -0.35891092 0.25689083 0.048512995 -0.060731266 0.10224942 -0.40068498 0.3542248 0.16106534 0.05319612 0.062481035 0.048327927 -0.029832788 -0.37079695 -0.3416033 0.20556326 -0.16110401 0.115026474 0.20902361 0.07239538 0.22631957 0.09570243 0.0812185 -0.55575895 -0.15516704 -0.025151432 0.093097 -0.04269275 -0.09471284 -0.08350664 -0.032298665 -0.006770919 -0.086916365 0.29252246 -0.10097002 -0.17895006 0.2614338 -0.07535193 -0.14475405 -0.063528396 0.28633916 -0.09123343 -0.03031026 0.2522628 0.21956123 -0.11928312 -0.3318691 -0.10698785 0.12752792 -0.26791096 -0.34117463 0.28508967 0.33497244 -0.21414132 0.37262523 0.12117701 -0.0890551 -0.008769431 -0.010064841 -0.24823822 -0.2250759 -0.0040100804 0.16958748 0.25211185 -0.10539554 -0.047914892 0.4490157 -0.045808543 0.08738954 0.079810455 -0.09313085 -0.19062743 -0.03762546 -0.23846471 -0.28531688 -0.010702847 -0.06069116 -0.07085442 0.6068648 -0.110268705 -0.81588036 0.1619243 0.120899804 0.3533519 -0.17866816 0.039938442 0.02532313 -0.028972046 -0.35695574 -0.008541177 -0.069575615 
harmonies -0.075737275 0.22386248 -0.15768589 -0.009797837 -0.21652561 0.17884722 0.13001767 -0.12691157 -0.018589739 0.07472607 -0.036334272 -0.05860469 -0.13687493 -0.109578066 -0.3269821 -0.112753995 0.0044413656 0.37866995 0.044576526 0.33230346 -0.21891423 -0.31980577 -0.2607155 -0.06141702 -0.18206176 0.19099428 -0.04984469 0.3230161 -0.0055629127 0.013716489 -0.30482125 -0.08828306 0.2726623 0.48351926 -0.27993828 -0.06516546 -0.2613573 0.15924071 -0.1576274 -0.3854206 0.055666246 -0.13072266 0.05911515 -0.094069816 0.023707395 -0.2998506 0.31774566 0.2631825 -0.29440448 -0.3089727 0.20682663 0.18840584 0.27864006 -0.39192498 -0.56446254 0.10017322 -0.13709643 -0.20136106 0.090129785 0.058040883 0.10331165 0.122018635 0.05644088 -0.12896448 0.102653086 -0.044634264 0.12786095 -0.19489987 0.19789523 -0.2625923 0.18987766 -0.093187615 0.15835191 0.099306546 0.16819416 0.1608739 0.05602565 -0.10694451 0.079396024 -0.047304608 0.071207516 -0.73508763 0.06380058 -0.23239136 0.36316803 -0.08013948 -0.12612817 -0.018597588 0.36922067 -0.1509172 0.2339131 0.16637641 0.062985174 -0.28269506 0.11466364 -0.251596 0.43622592 0.00020688408 -0.476633 -0.21899556 0.131362 -0.24469772 0.26115292 -0.15973702 -0.20666018 0.045892984 0.07696488 -0.21024719 0.035479035 0.029240401 -0.26202017 0.4257162 -0.071257494 -0.15906313 -0.18238316 0.07266866 0.10283644 0.14134258 0.32109177 0.38883775 -0.23300809 0.15291588 -0.26275834 0.07481745 0.0073088175 0.32256904 -0.005601158 0.5380398 0.12808771 0.41524252 0.03619977 -0.25651664 -0.16163583 0.24731761 0.15914214 -0.04878611 -0.09606129 -0.08365849 -0.10523323 0.17640014 0.023438914 -0.22869855 -0.080496065 0.12840202 -0.092755035 0.15457323 0.093110435 -0.09580679 -0.07739983 0.18351588 0.02598376 -0.018266678 0.3001111 0.38668203 0.26457727 0.21216883 0.13006206 0.2452271 -0.105555825 0.072976485 0.31256855 -0.19024433 -0.25746027 -0.030939624 0.14368251 -0.22654396 -0.14389901 0.07803044 -0.13002747 0.04239925 0.10948485 -0.0729561 -0.047468923 -0.18525995 0.17091821 0.43460214 0.04900317 0.11787077 -0.07960237 0.17332828 -0.3288381 0.11912344 0.017102193 0.23087972 -0.2797172 0.21780364 -0.2379032 0.09264597 -0.30593362 -0.16329639 -0.12895884 -0.20879519 -0.066095196 -0.21461728 -0.3767522 -0.09834474 -0.10697131 -0.3742193 0.40472832 -0.111733 
